svm_type c_svc
kernel_type rbf
gamma 4
nr_class 2
total_sv 3445
rho -0.66244723532050165
label 1 -1
nr_sv 2028 1417
SV
1 1:-0.39108531 2:-0.82325942 3:-0.34198146 4:-0.22990809 5:-0.057836855 6:-0.36395514 
1 1:-0.72542294 2:-0.82325942 3:-0.59081866 4:-0.53761982 5:-0.38736439 6:-0.37781858 
0.68783084117936666 1:1.4291192 2:1.0817113 3:0.28584005 4:-0.67395069 5:-0.25581601 6:-0.61183943 
0.33652747083513673 1:0.20065767 2:0.94803476 3:0.69513782 4:-0.14698676 5:1.5463891 6:2.8681095 
1 1:0.047637543 2:0.068076882 3:0.2110812 4:0.068548007 5:-0.096613888 6:-0.5900648 
0.21416368807102179 1:1.8198405 2:1.340471 3:0.350594 4:0.21254132 5:0.66533163 6:0.7958269 
0.27640386939827133 1:-0.21047152 2:1.2117277 3:0.33940796 4:1.0010147 5:0.86346527 6:1.0061142 
0.24122830124148964 1:0.27931799 2:0.033782475 3:-0.12841153 4:0.70225513 5:1.04839 6:0.69411146 
0.27010312592933922 1:-0.079094709 2:-0.1679498 3:0.07184631 4:2.773847 5:4.3428156 6:3.9329571 
1 1:-0.42643554 2:-0.61092851 3:-0.70329043 4:0.20245116 5:0.46349022 6:0.55442226 
0.60334138041223129 1:0.32982949 2:0.44969168 3:0.32294156 4:0.21132746 5:0.12693339 6:0.44660389 
1 1:-0.12269411 2:-0.82325942 3:-0.68687267 4:0.12256446 5:-0.043546515 6:0.34827897 
0.10702326462871158 1:2.1563753 2:0.83480752 3:-0.7252109 4:0.21458969 5:0.19552702 6:0.21974079 
0.27315386859938778 1:-0.13370342 2:-0.09872443 3:0.055240952 4:2.3908005 5:3.7993964 6:3.6431058 
0.3640778456775724 1:2.1570008 2:2.5239065 3:3.087699 4:-1.3640261 5:-1.1841474 6:-0.036657461 
0.044080013176955701 1:0.56588864 2:0.75348761 3:1.589187 4:-1.0782396 5:-1.0411668 6:-0.44713577 
0.2489080862069428 1:1.1875085 2:0.39598234 3:1.3298933 4:0.8496624 5:1.0270704 6:0.40237651 
1 1:-0.80821176 2:-0.13013047 3:-0.72324466 4:0.41404091 5:0.38979841 6:0.3665124 
0.15909682066190911 1:2.6808817 2:2.8508572 3:2.3226714 4:1.3490112 5:1.4210975 6:1.1062474 
0.33746817368065984 1:11.93293 2:13.16313 3:0.13576652 4:-0.48299644 5:-0.68290408 6:-1.2972508 
0.23538280873640094 1:0.051547102 2:0.66317635 3:0.80414957 4:1.757852 5:2.0627724 6:2.0934899 
1 1:0.24561759 2:0.30336357 3:0.18196971 4:-0.44278756 5:-0.32155157 6:-0.59586634 
1 1:-0.36410935 2:-0.29218149 3:-0.25080484 4:0.35820367 5:0.52845334 6:0.55803881 
1 1:0.58097953 2:-0.14803358 3:0.17064472 4:-0.28149684 5:-0.41540435 6:-0.46913644 
1 1:-0.5375061 2:-0.31330716 3:-0.57476913 4:-0.36874253 5:-0.20467976 6:-0.25236954 
0.120181390248858 1:-0.81223078 2:0.32715482 3:-0.7252109 4:1.3318655 5:1.0039741 6:1.0436359 
1 1:-0.47653262 2:-0.56054517 3:-0.18684294 4:-0.18704391 5:-0.21132284 6:-0.23210179 
1 1:-0.30824958 2:-0.22375977 3:-0.20518526 4:-0.50651484 5:-0.1860637 6:0.41164392 
1 1:-0.10908884 2:-0.1739175 3:-0.1007452 4:0.9237833 5:0.66525438 6:0.79771052 
0.54437216329852345 1:-0.006470748 2:1.0593523 3:1.8780091 4:-1.231792 5:-1.2671859 6:-1.1728566 
0.22832959230016819 1:1.8393101 2:0.03704482 3:-0.22925956 4:-0.33467878 5:-0.42521448 6:-0.06807623 
0.30840610585910899 1:1.6651001 2:1.8342786 3:0.8088741 4:1.0793841 5:-0.30872889 6:-0.25455454 
1 1:-0.18844506 2:0.2021513 3:0.38727864 4:-0.23969478 5:-0.062935031 6:-0.034095739 
1 1:-0.81223078 2:-0.50539562 3:-0.7252109 4:-0.35053473 5:-0.42382407 6:-0.30307657 
1 1:0.2517947 2:0.15671718 3:0.036968109 4:-0.29204219 5:-0.22314134 6:-0.6950954 
0.23332816742013687 1:-0.15711386 2:0.75961445 3:0.81457134 4:1.5920094 5:1.7249024 6:1.167578 
0.337723994113035 1:1.1270667 2:-0.82325942 3:6.6674391 4:0.19858201 5:0.42502217 6:-1.2267281 
0.33745195085581381 1:2.3771872 2:2.4566704 3:1.8314585 4:2.9003911 5:3.8400273 6:4.1414361 
1 1:-0.13546273 2:-0.43547004 3:-0.31121638 4:-0.73100178 5:-0.7878029 6:0.54982623 
0.25011037347035814 1:-0.16976519 2:-0.82325942 3:-0.7252109 4:2.8554027 5:2.8407849 6:2.3300725 
0.33346872739652772 1:1.7931773 2:2.5879599 3:0.5288758 4:-1.5724295 5:-1.7054745 6:-1.5620123 
0.62492352114084548 1:-0.22203599 2:0.35755032 3:0.52310908 4:0.32990573 5:-0.22545869 6:-0.71867832 
1 1:-0.81223078 2:-0.63047075 3:-0.7252109 4:-0.67296443 5:-0.73496727 6:-0.59307859 
1 1:-0.78756147 2:-0.77051287 3:-0.54942338 4:0.55553065 5:1.1881264 6:0.12857362 
1 1:-0.016010071 2:-0.17622502 3:-0.30943078 4:-0.26799273 5:-0.25434835 6:-0.86635407 
0.33754705800688595 1:1.6632236 2:1.3759589 3:19.824094 4:1.9323434 5:0.35503812 6:0.40139703 
1 1:1.8032639 2:1.6363896 3:1.4740611 4:-0.49437631 5:-0.93881704 6:-0.87321044 
1 1:-0.81156616 2:-0.46594512 3:-0.72453001 4:1.2305088 5:1.1872767 6:1.5875497 
1 1:-0.44929864 2:-0.82325942 3:-0.4684462 4:-1.1427255 5:-1.0623319 6:-1.0437157 
1 1:-0.26652677 2:0.50244618 3:0.26680295 4:-0.5046182 5:-0.61353799 6:-0.66262181 
1 1:-0.36416409 2:-0.38058308 3:-0.32429918 4:0.94889488 5:0.76258319 6:0.66359683 
0.064059652252449029 1:0.55001583 2:0.57262638 3:0.49434499 4:1.4581821 5:0.79239979 6:0.081784518 
1 1:0.71797047 2:0.057812431 3:0.71431388 4:-1.1382494 5:-1.1487692 6:-1.1298347 
1 1:-0.090541897 2:0.55806518 3:0.44807232 4:-0.43671829 5:-0.82109553 6:-0.60016099 
1 1:-0.81223078 2:-0.82325942 3:-0.58837302 4:-0.13621382 5:-0.20691987 6:-0.083446563 
1 1:-0.068061935 2:0.10658847 3:0.035300626 4:-0.17543644 5:0.057567301 6:0.17882858 
0.33728392754218728 1:5.3858271 2:3.2225258 3:1.8057514 4:0.12066782 5:-0.84921275 6:-0.9372535 
1 1:1.1004817 2:1.665512 3:0.87473971 4:-1.1915072 5:-1.1252094 6:-1.1219989 
0.050725667922358018 1:0.62320277 2:0.7210233 3:1.5361749 4:0.38498431 5:0.6649454 6:0.28363316 
0.096556436985903771 1:0.76457241 2:0.82502049 3:-0.2972651 4:-0.3213264 5:0.42347727 6:0.68311113 
0.07045554439910913 1:-0.087070209 2:-0.82285362 3:-0.72410619 4:1.5146262 5:1.5228293 6:1.3749268 
1 1:-0.5604943 2:-0.59203078 3:-0.3219647 4:0.39917121 5:0.63899105 6:0.77375088 
0.47741694572429716 1:-0.30824176 2:-0.37954072 3:-0.23796521 4:-0.10617096 5:0.12948247 6:0.71550938 
0.52600917147765291 1:-0.51794267 2:-0.50685174 3:-0.52858678 4:1.2368056 5:1.5145641 6:1.3988111 
0.12154313454531193 1:1.1270667 2:1.5820437 3:0.18370667 4:0.74125015 5:-0.15817822 6:0.25583094 
1 1:-0.54366756 2:-0.82325942 3:-0.48301584 4:1.8058751 5:1.8206864 6:1.986651 
0.39613287361573463 1:1.2897825 2:-0.49813094 3:-0.46162341 4:0.039794865 5:-0.21140008 6:-0.25380109 
1 1:-0.81223078 2:-0.82325942 3:0.059618096 4:0.33400248 5:0.41057734 6:0.42648684 
0.12527985688690635 1:0.24092612 2:0.03577171 3:-0.032746605 4:1.8140686 5:2.2289266 6:2.6395888 
1 1:-0.37694834 2:-0.51102118 3:-0.24917209 4:0.66219798 5:0.39118882 6:0.089620374 
0.018436877682280268 1:-0.33564777 2:-0.2061988 3:-0.034803168 4:0.81946781 5:0.91552845 6:1.4358054 
1 1:0.11503833 2:-0.066236248 3:-0.0042326336 4:0.34356157 5:-0.38450632 6:-0.35250274 
1 1:0.04075672 2:-0.21561982 3:-0.53008056 4:-0.21374868 5:-0.19888638 6:0.063174359 
0.56420734502136716 1:0.18892899 2:0.78881642 3:0.035300626 4:-0.31571233 5:-1.0181477 6:-0.99052225 
0.5485493064550625 1:0.89882665 2:1.0667523 3:0.93004458 4:0.13682724 5:0.096498823 6:0.043886098 
1 1:0.23193414 2:0.49289785 3:0.41368047 4:-0.20487238 5:-0.19664627 6:-0.16406547 
1 1:-0.47639188 2:-0.58965165 3:-0.34080727 4:0.37330097 5:0.26041289 6:0.12021035 
0.55233714787964272 1:0.21887621 2:0.62180027 3:0.22323993 4:0.62244429 5:0.41281744 6:0.81300551 
0.46776696245432076 1:0.15624508 2:0.38643401 3:0.65122742 4:0.010889991 5:-0.37253333 6:0.84065704 
1 1:0.037081735 2:-0.030501635 3:-0.38765661 4:-0.041533284 5:-0.46005201 6:-0.31475501 
1 1:-0.62322708 2:-0.55476047 3:-0.42577946 4:0.34629274 5:0.041577568 6:-0.0483359 
1 1:-0.11506265 2:-0.080558738 3:-0.11764237 4:-0.72015296 5:-0.91734291 6:-0.39040116 
1 1:-0.81223078 2:-0.41579253 3:-0.7252109 4:0.8494348 5:1.0184962 6:1.2176069 
0.43283095815446448 1:-0.81223078 2:-0.011492508 3:-0.72472455 4:0.44484243 5:0.18324505 6:0.24241957 
0.18652593863139921 1:-0.81223078 2:-0.070111277 3:-0.0083318644 4:-0.2409845 5:-0.40304514 6:-0.093467417 
0.4123561868959506 1:0.7557368 2:0.481599 3:1.9841027 4:-0.29788386 5:0.068690593 6:-0.1528391 
1 1:-0.3936187 2:-0.81655968 3:-0.36056 4:0.45098756 5:0.50682471 6:0.43100753 
0.17121889285572717 1:0.7912356 2:0.58304997 3:0.26652503 4:0.58299407 5:0.53980836 6:1.1905582 
1 1:-0.35814337 2:-0.43049696 3:-0.51231492 4:0.21959684 5:0.021030376 6:0.0073438849 
0.33662662892723494 1:1.4342798 2:1.533745 3:-0.45009693 4:-0.95897854 5:-1.0173753 6:-2.2642256 
0.32247786775096493 1:2.1494163 2:1.546874 3:0.0051469622 4:-0.18021599 5:-0.53907373 6:0.029269213 
1 1:-0.24837078 2:-0.29035139 3:-0.2998497 4:-1.209184 5:-1.3175497 6:-1.3166898 
0.69774773468233364 1:-0.10738428 2:-0.29537222 3:-0.43538833 4:1.050024 5:0.56035556 6:0.93031732 
0.31457565694252865 1:0.019097765 2:-0.25395635 3:-0.43218538 4:5.6726796 5:6.2947989 6:5.8677354 
1 1:-0.59760383 2:-0.18478668 3:-0.20669295 4:-0.61029927 5:-0.62921874 6:-0.49686332 
0.65427704215721516 1:1.6293668 2:0.74887258 3:1.2243555 4:-0.98181415 5:-0.9661618 6:-0.70556833 
0.26759249950943559 1:0.25750265 2:-0.019608586 3:0.035231147 4:3.3586206 5:2.9581975 6:2.7119951 
0.3102380731071005 1:-0.31011835 2:0.11239703 3:-0.20872867 4:1.8824237 5:0.92564756 6:0.3910748 
0.32971269202549991 1:-0.35944134 2:-0.52560625 3:-0.2247643 4:2.4524035 5:1.7012655 6:3.5179581 
1 1:-0.43290977 2:-0.82100761 3:-0.39843967 4:0.4415802 5:0.55456217 6:0.35973137 
1 1:-0.12716664 2:-0.418108 3:-0.16740981 4:-0.71013868 5:-0.46754478 6:-0.87697768 
0.49348613904343797 1:-0.81042457 2:-0.30124444 3:-0.72393944 4:1.9948568 5:1.9918615 6:2.4844539 
0.38014313861091248 1:0.30856149 2:0.67678271 3:0.031548787 4:0.1196057 5:0.58383806 6:0.80999172 
0.38202956167270008 1:0.75096714 2:0.51446116 3:0.59967438 4:1.9117079 5:1.6227072 6:0.98230521 
0.28388038162833595 1:1.4953471 2:2.6820109 3:1.9791003 4:0.77349312 5:0.78367109 6:0.33449088 
1 1:-0.43287849 2:-0.82325942 3:-0.37164182 4:-0.090466733 5:-0.044936926 6:-0.025280401 
0.33179547409804189 1:1.8881014 2:0.81714312 3:0.76649223 4:-0.8319033 5:-1.2357471 6:0.046297131 
1 1:-0.46671181 2:0.41484028 3:1.235611 4:-0.041229821 5:-0.074212813 6:-0.086987767 
1 1:-0.81223078 2:-0.63061397 3:-0.7252109 4:-0.73957461 5:-0.71040333 6:-0.65945733 
0.1543681887482122 1:0.76160114 2:1.1079692 3:0.91316131 4:1.5044602 5:1.153984 6:1.6949914 
0.23607204956065259 1:0.3846415 2:0.54406097 3:0.036829152 4:0.11801252 5:0.56344536 6:0.3060859 
1 1:-0.78382393 2:-0.38380564 3:-0.24678203 4:-0.17665029 5:-0.40845229 6:-0.42197061 
1 1:-0.68574874 2:-0.82325942 3:-0.7252109 4:-0.15548373 5:-0.050266837 6:-0.066870713 
0.049734427861749163 1:-0.76908489 2:-0.075490168 3:-0.7252109 4:0.34796179 5:-0.40706188 6:-0.19879941 
1 1:-0.43430939 2:-0.40478013 3:-0.29088698 4:-0.64952189 5:-0.85075765 6:-0.90003318 
0.23869612589382763 1:-0.4620047 2:-0.29677264 3:-0.20619965 4:1.5269924 5:1.308397 6:0.70820093 
1 1:-0.42248688 2:-0.64058402 3:-0.33984152 4:-0.80747451 5:-0.87794792 6:-0.78935171 
0.33775546968439357 1:0.62687775 2:0.36487071 3:2.0174524 4:2.0396935 5:1.5227521 6:-0.1557022 
1 1:0.56291737 2:0.46648082 3:0.26388485 4:-1.1337734 5:-0.93093804 6:-1.03701 
1 1:-0.094263797 2:-0.20354914 3:-0.31082035 4:-0.12369596 5:-0.43131684 6:-0.32153604 
1 1:-0.72772958 2:-0.5246912 3:-0.66071402 4:-0.34575519 5:-0.52571033 6:-0.68168404 
1 1:-0.20534218 2:-0.24384308 3:-0.064199516 4:-0.24052931 5:-0.39810145 6:-0.19503217 
0.33015739515360132 1:1.8258612 2:0.86870408 3:0.60884554 4:1.8212 5:0.94101933 6:0.39499273 
0.37326338670788284 1:1.782856 2:1.1693172 3:0.81401551 4:-0.35485908 5:-0.49836557 6:-0.39032581 
0.21537222476709472 1:-0.75150752 2:-0.37779019 3:0.049057366 4:0.67858499 5:0.15613203 6:0.64830184 
0.69381046516426559 1:1.5106726 2:1.5253107 3:1.6384472 4:0.51039049 5:-0.78988852 6:-0.56105706 
1 1:-0.40799806 2:-0.33432939 3:-0.29723036 4:-0.53246095 5:-0.67208977 6:-0.863717 
0.01916200225655065 1:0.24976172 2:-0.81213562 3:0.23977581 4:0.89336111 5:1.1123489 6:0.82001257 
1 1:-0.26388391 2:-0.37753557 3:-0.21512069 4:0.71773175 5:0.86385149 6:0.72673575 
0.39593815171546903 1:-0.31940746 2:-0.51399708 3:-0.39048439 4:3.5686172 5:3.1590347 6:3.1900577 
0.44980701877614265 1:1.7432131 2:1.8734268 3:1.025647 4:0.44522176 5:0.39860435 6:0.35732034 
1 1:-0.81223078 2:-0.82325942 3:-0.28949046 4:-0.13537929 5:-0.085027125 6:-0.13302342 
0.038842197204532053 1:1.202443 2:0.4922613 3:-0.070973669 4:0.17347042 5:0.37311347 6:0.70872835 
1 1:0.081963468 2:-0.090186634 3:-0.18491144 4:-0.48003767 5:-0.29219844 6:-0.35830428 
0.33727318352642216 1:0.0887661 2:0.94628424 3:4.0553954 4:0.02720114 5:0.36894224 6:0.30503107 
0.117191025786148 1:-0.8105184 2:0.65728821 3:-0.30547746 4:0.85922149 5:0.60863373 6:0.70940645 
0.27292827841569017 1:-0.21248885 2:0.35802774 3:0.43758107 4:2.9057017 5:2.0358139 6:2.9430022 
1 1:-0.60098169 2:-0.81885924 3:-0.72223027 4:0.37625974 5:0.43120177 6:0.49640679 
0.079402065521340076 1:-0.1379492 2:-0.078481977 3:0.24095695 4:1.9749041 5:1.1634852 6:0.9405642 
0.97482902854120956 1:0.66777173 2:1.3843137 3:0.91712159 4:-0.82499952 5:-0.72245356 6:-0.8931768 
0.18769046347891344 1:1.0075906 2:1.546317 3:0.75766846 4:-0.011035228 5:0.016009445 6:0.65937752 
1 1:-0.81223078 2:-0.41206869 3:-0.31753892 4:0.35289307 5:-0.15949139 6:0.37351947 
0.31347888628786003 1:-0.14748071 2:0.45605723 3:1.0925548 4:3.475454 5:2.1964837 6:2.9270291 
0.36184002323951903 1:1.0361303 2:0.91787797 3:0.9422728 4:0.65961854 5:0.49879122 6:1.5656244 
0.88019487160987908 1:-0.072198248 2:0.18989762 3:0.6344831 4:-0.35463149 5:-0.84542774 6:-1.1277251 
0.21479011578534674 1:0.28432222 2:0.72913937 3:1.474478 4:1.3981722 5:0.60901996 6:-0.51487072 
1 1:-0.4355839 2:-0.82325942 3:-0.7252109 4:-0.87901597 5:-1.0264902 6:-0.9278354 
1 1:-0.20200341 2:-0.24512415 3:-0.5629022 4:0.045484801 5:0.10715865 6:-0.02859557 
1 1:-0.61439148 2:-0.65717424 3:-0.49727977 4:0.54551636 5:-0.16227221 6:-0.22758111 
1 1:-0.25199885 2:-0.82325942 3:-0.19455505 4:-0.58556702 5:-0.59716203 6:-0.76124811 
1 1:-0.3282978 2:-0.053210739 3:-0.71492113 4:-0.45007068 5:-0.37662732 6:-0.29501468 
1 1:0.18329923 2:0.37847707 3:0.2101085 4:0.67471584 5:0.68981832 6:0.50748247 
1 1:-0.1080489 2:-0.097602501 3:0.05211442 4:-0.924232 5:-0.868833 6:-0.62585356 
1 1:-0.81223078 2:-0.82239212 3:-0.46734844 4:0.43361429 5:0.31633833 6:0.023844389 
1 1:0.041538632 2:0.14669144 3:0.13868461 4:0.2467568 5:-0.0026066199 6:-0.18041528 
0.40725282030217064 1:-0.25930972 2:0.75627254 3:0.35858403 4:0.42974513 5:0.31595211 6:0.2052746 
0.48526979808766135 1:3.2964026 2:2.0977329 3:3.267023 4:-0.81369551 5:-0.61446493 6:-0.91223903 
1 1:-0.28813881 2:-0.82325942 3:-0.72166749 4:-0.017787286 5:0.093718 6:0.055564538 
0.21365539968650443 1:0.18415933 2:-0.61406354 3:-0.19267219 4:3.61793 5:3.6666121 6:2.6038753 
1 1:-0.81223078 2:-0.82325942 3:-0.36333914 4:0.37747359 5:0.47051952 6:0.63549323 
1 1:-0.13258529 2:-0.17653534 3:-0.57660336 4:-1.0093534 5:-0.96484864 6:-1.0102626 
0.23284544296131734 1:1.7138132 2:1.0459847 3:0.80296843 4:-0.70080718 5:-0.56819513 6:-0.56203654 
1 1:0.071642233 2:0.10109818 3:0.10943417 4:-0.52419157 5:-0.86443003 6:-0.70391074 
0.95600219212265136 1:1.3484259 2:1.5053388 3:0.65713309 4:-0.859215 5:-0.89069336 6:-0.64883372 
0.25748585383642719 1:0.67504351 2:0.14287211 3:0.11707681 4:0.29432466 5:0.086534207 6:-0.27474693 
0.034171777525449185 1:0.086576747 2:0.38054588 3:0.64421009 4:0.094190651 5:0.16424276 6:0.055865917 
0.70716178831848631 1:0.12723616 2:0.25872514 3:0.52220586 4:0.38892933 5:0.37427215 6:0.21883665 
0.3138796478863255 1:0.96474181 2:2.0877071 3:0.083101825 4:-0.34165843 5:0.12670165 6:-2.2642256 
1 1:0.067732675 2:0.16037737 3:0.10116623 4:0.21307238 5:0.046366764 6:-0.20512837 
0.33763266154200777 1:0.06139919 2:5.1576533 3:6.0650606 4:0.0067173713 5:-0.26902492 6:0.036426966 
0.26511643758179843 1:0.11222345 2:0.19252341 3:1.5095646 4:-0.11163329 5:-0.39980084 6:1.356392 
0.44660549965955643 1:0.040991294 2:-0.3441403 3:-0.36461755 4:0.084631559 5:0.51385401 6:0.42791839 
0.074093654395266509 1:-0.54416017 2:-0.32046045 3:0.35531854 4:0.92082453 5:1.6159869 6:1.3320556 
0.2031540150403349 1:0.43171258 2:0.2926217 3:0.63031439 4:1.0294644 5:1.4219472 6:0.59834826 
0.52086775840023614 1:1.2459955 2:2.2758092 3:2.7369021 4:-0.99084218 5:-0.78579453 6:-0.40207959 
0.092852508226487551 1:-0.36534477 2:-0.17699684 3:-0.11810093 4:0.73358771 5:0.84160491 6:0.84743807 
0.36043034491053794 1:-0.27809906 2:0.35930085 3:0.12826284 4:-0.64383196 5:0.11380172 6:0.3651562 
1 1:-0.52177403 2:-0.33988334 3:-0.31692751 4:-0.56531084 5:-0.67718794 6:-0.44374525 
0.19249647003562476 1:0.45329335 2:0.68195472 3:-0.15265258 4:1.0404649 5:0.72581453 6:0.8166974 
0.016998519937966118 1:1.0785882 2:0.82366781 3:0.57153559 4:0.84017917 5:0.81325596 6:0.94666713 
1 1:-0.8104793 2:-0.3893755 3:-0.7232655 4:0.59050479 5:0.62269234 6:0.32966881 
0.42643471770004998 1:1.5824521 2:2.5414914 3:2.446621 4:-1.1326354 5:-1.1928761 6:-1.2020904 
0.099591061635790609 1:-0.81223078 2:0.51629126 3:-0.7252109 4:0.024242374 5:0.28574928 6:0.39506807 
0.50386233340911313 1:0.27955256 2:0.22984145 3:-0.030974903 4:0.043284692 5:0.19436835 6:0.52759952 
1 1:-0.42479352 2:-0.26422876 3:-0.27098834 4:-0.95450245 5:-0.89169754 6:-0.87170355 
1 1:-0.81223078 2:-0.72700433 3:-0.7252109 4:0.0033034098 5:-0.11121321 6:0.083517447 
0.40220390374125647 1:2.1535604 2:3.1662702 3:2.9340126 4:-1.4640931 5:-1.5572412 6:-1.6594331 
0.26551798099565621 1:-0.19986098 2:-0.29329546 3:-0.032510378 4:1.3085747 5:1.5842391 6:1.0619446 
0.4809208867278269 1:-0.084787027 2:-0.071105895 3:0.38588907 4:-0.10685375 5:-0.48971412 6:-0.16376409 
0.28223837617122921 1:0.30175885 2:-0.04223812 3:-0.35387617 4:1.0282505 5:0.85520004 6:0.64528805 
0.053791559661090498 1:1.4403005 2:1.3267851 3:0.70847769 4:0.83593069 5:-0.034045369 6:-0.41888148 
0.33793317812741441 1:4.7390297 2:2.3671548 3:0.37442512 4:-1.0091258 5:-0.61778647 6:-0.20558043 
0.096846181522553185 1:-0.80975212 2:0.42892407 3:-0.7252109 4:1.4462711 5:1.4286675 6:1.3405696 
1 1:-0.81223078 2:-0.82325942 3:-0.64782576 4:-0.29287672 5:-0.43409766 6:-0.38512702 
0.52943046980818087 1:-0.094396722 2:0.10786158 3:0.26457963 4:0.20138904 5:-0.1718506 6:0.052852126 
1 1:0.39738666 2:0.1826568 3:0.10769721 4:0.64209354 5:1.0069866 6:0.6344384 
1 1:-0.37216304 2:-0.30004294 3:-0.4057905 4:-1.02263 5:-0.59353152 6:-0.62155891 
0.31986660268370093 1:1.7301552 2:0.90451031 3:0.59321288 4:0.29174522 5:-0.23998076 6:0.073797972 
0.35287734132561477 1:-0.81223078 2:0.12592383 3:0.59522775 4:1.3694949 5:1.6386197 6:-0.025883159 
0.78902955797744223 1:-0.20529526 2:-0.037432129 3:0.14201958 4:0.092976799 5:0.48550507 6:0.99571658 
1 1:-0.2949649 2:-0.12277826 3:-0.45934452 4:-0.12536501 5:-0.009095207 6:-0.2745209 
1 1:-0.10166068 2:-0.40364229 3:-0.077240628 4:-0.34340335 5:-0.25179926 6:-0.35303015 
0.11159361007439651 1:-0.43871937 2:-0.23992031 3:-0.46937721 4:2.9439381 5:3.1512329 6:3.1456796 
0.78764786826016919 1:0.21957993 2:0.084468176 3:-0.090490176 4:0.95101912 5:0.9493618 6:0.99360692 
1 1:-0.78757711 2:-0.65464393 3:-0.65993586 4:0.50849385 5:0.16964992 6:0.17905462 
0.33754391471187489 1:1.4231767 2:4.4506793 3:2.7384307 4:-0.88242993 5:1.2738684 6:0.020001806 
1 1:-0.19516951 2:-0.034225482 3:-0.2982378 4:-0.077721276 5:0.043199715 6:-0.022417299 
0.31042873831355094 1:1.1553719 2:0.40767904 3:1.7432208 4:-0.84495222 5:-0.66660537 6:-0.15080479 
1 1:-0.32144043 2:-0.46254751 3:-0.12200562 4:-0.21063818 5:-0.081860077 6:-0.19578561 
1 1:-0.37200666 2:-0.82147707 3:-0.20476839 4:-0.49232793 5:-0.29335712 6:-0.20128578 
1 1:-0.59220864 2:-0.30391797 3:0.17418812 4:-0.39772327 5:-0.35530768 6:-0.37811996 
0.36243612511440099 1:-0.060735422 2:0.39455009 3:-0.1923109 4:1.6234178 5:0.47198718 6:1.3398915 
1 1:-0.3994674 2:0.13037971 3:-0.31769872 4:0.36890075 5:-0.2165755 6:-0.26743849 
0.314415669915526 1:-0.4230264 2:0.16833431 3:0.19100192 4:0.046546922 5:-0.30934685 6:-0.23255386 
1 1:-0.57481111 2:-0.82325942 3:-0.7252109 4:-0.9863661 5:-1.0088783 6:-0.90071128 
0.14831325643447765 1:-0.53618467 2:0.25013165 3:0.29862409 4:0.80270146 5:1.1446374 6:1.9428757 
0.13657955930904608 1:-0.13914553 2:-0.82325942 3:-0.10030749 4:3.61793 5:3.405601 6:2.8093405 
1 1:-0.61766769 2:-0.64896267 3:-0.48041039 4:-0.51607393 5:-0.37508242 6:-0.7016504 
0.30006191789982234 1:-0.088774776 2:-0.12137784 3:0.16147356 4:-0.12961349 5:0.10144251 6:1.1677287 
1 1:0.64619097 2:0.64217003 3:0.51678654 4:-0.0076971328 5:-0.032732203 6:-0.28642537 
0.096008130848185533 1:-0.81128467 2:0.31044524 3:-0.7252109 4:0.3084357 5:0.62423724 6:1.1094872 
1 1:-0.73339062 2:-0.82325942 3:-0.7252109 4:-0.45856765 5:-0.45927956 6:-0.49618521 
0.069734033536113779 1:0.46244171 2:0.27010356 3:0.29341321 4:1.0922813 5:1.0880167 6:0.89799441 
0.12005795046083634 1:0.78021064 2:0.86838581 3:0.54172932 4:1.0965297 5:1.0147111 6:0.5524633 
1 1:-0.81223078 2:-0.82325942 3:-0.36021956 4:0.30449068 5:0.31100842 6:0.34127191 
1 1:-0.81098754 2:-0.52721355 3:-0.72056973 4:-0.60612665 5:-0.51729062 6:-0.46551989 
0.33774638577682231 1:2.8843351 2:0.17836006 3:5.0732552 4:0.10587399 5:-0.019677784 6:-0.33833792 
1 1:-0.24014507 2:-0.10016464 3:-0.35880915 4:-0.20381025 5:-0.35129093 6:-0.24129386 
1 1:-0.19885231 2:0.32230108 3:-0.078338388 4:0.14069639 5:0.19228273 6:0.056920743 
0.36399359478069016 1:-0.27184377 2:-0.35829569 3:-0.32073493 4:2.122539 5:1.4892277 6:1.0036278 
0.003501713791207609 1:-0.35138765 2:-0.077431661 3:0.0915782 4:1.0834808 5:0.90440516 6:0.80140241 
0.040044117382911547 1:-0.01124041 2:-0.82021192 3:-0.7252109 4:0.077120844 5:0.11272029 6:0.059934534 
1 1:-0.5646228 2:-0.37973964 3:-0.47146156 4:-0.59512611 5:-0.36504056 6:-0.59948289 
0.33309180160080476 1:1.4722025 2:1.5701083 3:-0.16443613 4:1.332169 5:2.5457087 6:2.327134 
0.16793494657819369 1:0.19541886 2:0.45080565 3:0.50712903 4:-0.060196274 5:-0.03937528 6:-0.66729318 
1 1:-0.27089766 2:-0.36645951 3:-0.38565563 4:-0.91019682 5:-0.84805407 6:-0.92090368 
1 1:-0.09015876 2:-0.19167739 3:-0.21164676 4:-1.1686716 5:-1.1166352 6:-1.0380648 
0.49019104017683673 1:0.65142978 2:0.6334174 3:0.39978477 4:-0.49665229 5:-0.50833019 6:-0.40245632 
0.15627982546004879 1:-0.81201967 2:-0.82259104 3:-0.039826463 4:2.0512251 5:1.8056236 6:1.8818464 
0.34227311933135196 1:0.72492948 2:0.12942488 3:0.3560828 4:-0.020214992 5:-0.4963572 6:0.62893824 
0.20936275854434605 1:0.2340453 2:-0.82325942 3:1.9474876 4:0.25821253 5:0.071162436 6:0.049235577 
0.89534154902027097 1:1.3234829 2:0.75253277 3:0.36733832 4:0.68821995 5:0.48681823 6:0.078167969 
0.30882927537030114 1:1.1043131 2:0.44388311 3:-0.66004008 4:-0.67888196 5:-0.41331873 6:-0.20203923 
1 1:0.46924435 2:0.225306 3:0.0018814733 4:0.21087227 5:0.091632383 6:0.11335398 
1 1:-0.074856748 2:-0.12530856 3:-0.33271997 4:-0.32337477 5:-0.8546199 6:-0.53898104 
0.30975759820250259 1:2.0144583 2:2.3332583 3:0.75572306 4:-0.70422114 5:0.12005857 6:0.43831597 
1 1:-0.29820201 2:-0.39391095 3:-0.27581709 4:0.70020675 5:0.69313986 6:0.67256286 
0.25504573603974096 1:1.6313216 2:2.1491347 3:0.15264979 4:0.076058723 5:0.33549511 6:-0.3342693 
0.50525153322167704 1:-0.0043595864 2:-0.82325942 3:0.039399856 4:0.40508875 5:0.47376382 6:0.71332438 
1 1:0.083761865 2:0.1902159 3:0.36935319 4:-0.59793314 5:-0.63331273 6:-0.63707993 
1 1:-0.074786376 2:-0.20580096 3:0.059131747 4:-0.5430063 5:-0.30733848 6:-0.4769723 
0.32103390728223047 1:3.0811423 2:2.1774614 3:0.53026537 4:0.2023753 5:-0.29976846 6:0.18945219 
0.23194305133524276 1:3.7919782 2:3.6619079 3:1.7796275 4:0.38103928 5:0.30050309 6:-0.063404854 
1 1:0.75722244 2:0.69325358 3:0.41632065 4:0.20495474 5:0.035243471 6:-0.10137862 
1 1:-0.10646944 2:0.027735201 3:0.049960586 4:0.41434437 5:0.81101585 6:0.72131092 
0.9712076419405653 1:2.8171689 2:2.6029189 3:2.2532624 4:-0.33225107 5:-0.59113692 6:-0.73811727 
1 1:-0.21749308 2:-0.26457091 3:-0.16959143 4:-0.89100277 5:-0.88783529 6:-0.62856597 
0.29649966592290838 1:1.130898 2:0.096403585 3:-0.02827219 4:-0.92415613 5:-0.8412565 6:-0.7433914 
0.14123587170999646 1:0.039583853 2:0.55130179 3:1.2236607 4:1.2127562 5:0.16007153 6:-0.53589191 
0.32418827079890217 1:2.4725022 2:1.1016037 3:-0.13984075 4:1.5788087 5:1.4390956 6:1.4628541 
0.09358457589616942 1:-0.81223078 2:-0.15167786 3:-0.7252109 4:0.82735785 5:1.2499224 6:0.85474651 
1 1:-0.47496098 2:0.054470516 3:-0.28687112 4:-0.14683503 5:-0.065561364 6:0.33908691 
0.47209244774400128 1:-0.41691185 2:0.10698631 3:0.31675798 4:-0.39081948 5:-0.64057377 6:-0.42302544 
0.57755860382097612 1:1.2839964 2:1.0120881 3:1.0066099 4:0.48626516 5:0.58893624 6:0.56836104 
1 1:0.51756649 2:0.32596127 3:-0.014862842 4:-0.10768827 5:0.18764802 6:0.25522818 
1 1:-0.81223078 2:-0.45999333 3:-0.7252109 4:-0.84624194 5:-0.90521543 6:-0.84593563 
1 1:0.25328033 2:0.36407501 3:0.087340013 4:-0.45856765 5:-0.50477691 6:-0.48073953 
1 1:-0.80718745 2:-0.57281477 3:-0.52671086 4:0.49787263 5:0.80900748 6:0.54312054 
1 1:-0.59972281 2:-0.73342558 3:-0.52928851 4:0.72402861 5:0.28520856 6:0.486838 
0.29006013452748203 1:0.72524225 2:1.8334034 3:2.3348301 4:-0.54194417 5:0.021957317 6:-0.28778158 
0.24745916769249515 1:1.0311261 2:1.0963521 3:2.1071491 4:-0.26533743 5:0.32892928 6:0.065284013 
0.010395695819189772 1:-0.10965964 2:-0.21189597 3:0.40256391 4:-0.3508382 5:-0.21966531 6:0.14989619 
0.1842954382673217 1:-0.78935205 2:1.5772695 3:-0.55681589 4:0.16656664 5:0.16671461 6:0.18711651 
0.55385400741004975 1:-0.10906539 2:0.73025334 3:1.2429062 4:1.0994126 5:0.87227121 6:1.6876829 
0.28690662659356875 1:0.85175556 2:-0.11795635 3:0.19593489 4:0.93827367 5:0.80545421 6:0.44343941 
1 1:-0.59778367 2:-0.82325942 3:-0.4781454 4:-1.1031236 5:-0.60133327 6:-1.0789017 
1 1:0.67590362 2:0.51700738 3:0.88307713 4:-0.26996524 5:-0.15083994 6:-0.46702679 
1 1:-0.16286873 2:-0.50411456 3:-0.50579783 4:-0.66211562 5:-0.77428501 6:-0.8608539 
1 1:-0.35206791 2:-0.41842628 3:-0.43795209 4:0.65157677 5:0.7929405 6:0.47877611 
0.33758927404788852 1:3.4092324 2:-0.39584449 3:-0.7252109 4:0.34553408 5:0.40818274 6:0.61703376 
0.25569157115190155 1:-0.51852128 2:-0.44591751 3:-0.32757857 4:4.8279897 5:5.8792203 6:5.4774495 
0.32442891735472279 1:2.1652109 2:1.1328745 3:0.71431388 4:2.2814778 5:1.4665176 6:2.272283 
0.0081567501296243815 1:-0.099776274 2:-0.40016511 3:-0.35737789 4:2.4107532 5:2.6018659 6:2.3023456 
0.26273066006960522 1:1.1977515 2:1.1743301 3:0.68416022 4:1.1279382 5:1.4497555 6:0.53844917 
1 1:-0.12292868 2:-0.21804669 3:-0.34747026 4:-0.19402356 5:0.21267543 6:-0.013074548 
0.62475995318670863 1:0.43413651 2:0.13825708 3:-0.038013074 4:0.84647603 5:0.86052995 6:0.55359347 
0.20079479500415295 1:-0.14407157 2:-0.12987585 3:0.21990497 4:0.94897074 5:0.76922626 6:1.0373069 
0.34053605368389817 1:2.2383978 2:1.929921 3:2.6359499 4:-0.49938345 5:-0.43371144 6:0.30472969 
1 1:-0.81223078 2:-0.687522 3:-0.72425904 4:-0.036753738 5:0.0095208583 6:0.082764 
0.30117923101481092 1:0.43937532 2:-0.10537643 3:-0.031072173 4:-0.32762326 5:0.036556638 6:-0.061747269 
0.36783582714950042 1:1.1974387 2:1.963738 3:0.98868443 4:-1.2644143 5:-0.025780145 6:-0.7066985 
0.62350608906985483 1:-0.41193889 2:-0.82167599 3:-0.7252109 4:1.5736498 5:1.7178731 6:1.6014132 
1 1:-0.50538516 2:-0.8231719 3:-0.72257766 4:1.9126183 5:1.9153116 6:1.9855208 
1 1:-0.81223078 2:-0.82325942 3:-0.11200072 4:-0.17604337 5:0.061429555 6:0.1260119 
0.28836951313048692 1:-0.21584325 2:0.15059034 3:0.94664994 4:0.029704712 5:0.262653 6:-0.38414754 
1 1:-0.81223078 2:-0.36622876 3:-0.7252109 4:1.587685 5:1.3556709 6:0.98539434 
0.76728569784165368 1:0.22090918 2:-0.26273286 3:-0.2308923 4:0.22832141 5:0.64169463 6:0.36349861 
1 1:-0.8120353 2:-0.82224889 3:-0.29389539 4:2.0915857 5:2.1573977 6:2.156026 
1 1:-0.78880471 2:-0.82325942 3:-0.39633448 4:-0.49096235 5:-0.49172249 6:-0.56723533 
0.15571470897872031 1:0.12528138 2:0.17629125 3:0.93615869 4:-0.24189489 5:-0.39076317 6:0.2621599 
0.27326795903128448 1:-0.79581064 2:0.30209046 3:-0.64918754 4:0.20935495 5:0.25446502 6:0.41819892 
1 1:0.059522602 2:-0.05011549 3:-0.042827933 4:0.66394289 5:0.53324253 6:0.53475727 
1 1:-0.77403439 2:-0.44274269 3:-0.37699167 4:0.083265975 5:0.31811497 6:0.081181759 
0.28905131219321795 1:1.0386325 2:-0.747947 3:1.5880753 4:0.66735685 5:0.828396 6:0.7158861 
0.37733092860713302 1:1.0578675 2:1.535973 3:1.1629365 4:0.21853472 5:-0.15532015 6:0.097757609 
1 1:-0.33310655 2:-0.041625436 3:-0.079158234 4:-0.33338906 5:0.25091175 6:-0.0075743796 
0.43556074990565563 1:0.55408177 2:0.1330055 3:0.55361014 4:1.0753632 5:-0.35669809 6:-0.49083573 
0.3371946774411031 1:1.858076 2:-0.69430131 3:0.61308373 4:0.76886531 5:0.90239679 6:0.55803881 
0.20239773422523322 1:-0.71489841 2:-0.80027183 3:-0.65869219 4:6.5496884 5:6.072333 6:6.053837 
0.11203676193790699 1:1.1262066 2:1.6968623 3:0.21379086 4:0.69482028 5:-0.16984223 6:-0.26487677 
0.84079132178733396 1:0.35938575 2:0.6830687 3:0.65414551 4:-0.76681044 5:-0.45031913 6:-0.54229621 
0.30739935167155352 1:0.18376838 2:-0.82325942 3:0.18891756 4:0.18507789 5:0.045285332 6:0.18078755 
0.15249380240290544 1:1.6002015 2:1.5102721 3:0.9493596 4:0.54680608 5:0.81603678 6:1.266355 
0.1089810169545519 1:0.75956817 2:-0.23224187 3:-0.31206402 4:-0.040698761 5:-0.16543926 6:-0.46891041 
0.33772637555560447 1:3.3244732 2:1.3555096 3:0.61377851 4:3.4211341 5:2.5100987 6:2.4515282 
0.54174517366936292 1:0.28963922 2:-0.15475719 3:-0.35213226 4:0.37307337 5:0.95554141 6:1.3041781 
1 1:0.39715209 2:0.21018781 3:0.37463356 4:-1.3452114 5:-1.3941768 6:-1.5660809 
0.43323155497016386 1:-0.52473748 2:0.77051546 3:0.14639673 4:-0.96292356 5:-0.60619971 6:0.099867262 
0.21124573743020209 1:-0.40745854 2:-0.8179601 3:0.18759747 4:0.11566068 5:0.1809277 6:0.07281849 
0.33546610050394854 1:2.3976732 2:2.9038504 3:2.0529559 4:-0.2472055 5:0.63412461 6:1.2110519 
0.40943027239146113 1:-0.20255857 2:0.21790604 3:0.3983952 4:1.0272643 5:1.2107592 6:0.81511516 
0.23350715696895072 1:-0.57814205 2:-0.45358004 3:0.056769478 4:3.4359279 5:4.3017985 6:3.8619823 
0.46976641152981302 1:0.057255058 2:0.14112158 3:-0.14028541 4:0.78525232 5:0.57279201 6:0.85128065 
1 1:-0.043533364 2:0.090754158 3:0.95547371 4:-1.1220142 5:-0.85083489 6:-1.1243346 
0.25873422748569908 1:0.83064395 2:-0.80954962 3:0.013136988 4:0.30858743 5:0.21870055 6:0.015179741 
0.31403305926238012 1:1.7361759 2:-0.82173965 3:1.3479577 4:-1.2570553 5:-1.2922133 6:-1.153719 
0.32018106834699134 1:-0.089572326 2:0.23692313 3:-0.11453668 4:5.3510086 5:5.1911211 6:6.328092 
0.33115429711500438 1:-0.35707215 2:0.42948105 3:3.4944956 4:-0.067175929 5:-0.27628595 6:-0.46431437 
0.19242277560779231 1:0.072267763 2:0.67773755 3:1.0578155 4:0.64876973 5:0.91776856 6:0.85678082 
1 1:-0.58485867 2:-0.41324631 3:-0.683364 4:-0.61523055 5:-0.46468671 6:-0.34331067 
0.28053740340085626 1:0.20081405 2:0.04356951 3:0.47502997 4:1.6038444 5:1.2331602 6:0.16044446 
1 1:0.45274601 2:0.60262404 3:0.62565933 4:0.1668701 5:0.26674699 6:0.15434153 
1 1:-0.55130684 2:-0.8202517 3:-0.72377269 4:1.4984668 5:1.3157352 6:1.5278767 
1 1:0.28471318 2:-0.31459618 3:-0.19185234 4:-0.73957461 5:-0.46476396 6:-0.41737458 
0.058135297401556284 1:0.20996242 2:0.29890768 3:0.39506023 4:0.92165905 5:1.2519308 6:0.75672297 
1 1:-0.47197408 2:-0.82325942 3:-0.7252109 4:-0.4420289 5:-0.12959754 6:-0.018725406 
1 1:-0.53173559 2:-0.49522666 3:-0.36711877 4:-0.019228736 5:0.097580255 6:-0.055493653 
1 1:-0.15196888 2:0.21981571 3:0.66157971 4:-0.063458504 5:0.059730163 6:-0.10951585 
1 1:-0.43373077 2:-0.67724164 3:-0.45703088 4:0.1462346 5:-0.074521794 6:-0.15389392 
0.304798694537743 1:0.30676309 2:-0.75778177 3:2.002445 4:-0.24690204 5:-0.24716456 6:-0.69411592 
1 1:0.20511457 2:-0.24844219 3:0.078238331 4:-0.62691388 5:-0.62234393 6:-0.58546876 
1 1:-0.81223078 2:-0.63395589 3:-0.7252109 4:-0.0026899892 5:0.086379717 6:0.072065042 
0.19713520008713981 1:-0.43552917 2:-0.4693666 3:0.17217325 4:3.2093926 5:3.4191189 6:2.4508501 
1 1:-0.42918787 2:-0.5995103 3:-0.60729896 4:1.2035764 5:0.88856992 6:1.1210903 
1 1:0.11144154 2:-0.19024514 3:0.065801682 4:-0.59952632 5:-0.74593607 6:-0.94441125 
1 1:-0.16512064 2:-0.232218 3:-0.093547229 4:0.2107964 5:-0.0082455111 6:0.093915025 
1 1:0.41365042 2:0.045638314 3:0.19739394 4:-0.28521427 5:-0.020141254 6:-0.094070175 
1 1:0.45516994 2:0.30949041 3:-0.10444146 4:-0.91270039 5:-1.0675846 6:-0.86077855 
0.72650775400443235 1:1.0272166 2:0.88040078 3:0.33384969 4:-0.83744151 5:-0.45796639 6:-0.46205403 
1 1:-0.1959045 2:-0.40572701 3:-0.19590988 4:-1.089316 5:-1.1587338 6:-1.1168001 
1 1:0.21512304 2:-0.2577916 3:-0.071411383 4:-0.0043590371 5:-0.013652667 6:0.13866982 
0.3036211511465568 1:0.82180834 2:1.5409063 3:1.046699 4:0.044802008 5:-0.61075717 6:0.42799374 
1 1:-0.63552655 2:-0.71929406 3:-0.37083587 4:-1.4043108 5:-1.4811548 6:-1.4475636 
1 1:-0.46336523 2:-0.075577694 3:-0.32386147 4:0.57290392 5:0.50396664 6:0.42528132 
1 1:-0.65618466 2:-0.82325942 3:-0.67176804 4:-0.59884353 5:-0.83175536 6:-0.74452157 
0.76860645336126598 1:0.46134704 2:0.40799732 3:0.33850474 4:-0.4038684 5:-0.59044171 6:-0.12835205 
1 1:-0.10333397 2:0.16722034 3:-0.0055527249 4:-0.37625324 5:-0.31344084 6:-0.34647515 
1 1:-0.25902042 2:-0.41728048 3:-0.60154614 4:0.54195067 5:0.67367409 6:0.717393 
0.18481979790137987 1:0.74557195 2:0.93164347 3:1.4696145 4:-1.341494 5:-0.72925113 6:-0.13437963 
0.33324939545950233 1:0.41842008 2:-0.69863784 3:1.4525228 4:0.68981313 5:0.60538944 6:1.6957448 
0.88635455267465668 1:0.42631739 2:0.46067225 3:0.15577632 4:0.42564838 5:0.10368262 6:0.14100551 
1 1:-0.39825544 2:-0.51963059 3:-0.44116894 4:-0.86824303 5:-0.99026227 6:-1.0210369 
1 1:-0.81223078 2:-0.5694649 3:-0.7252109 4:-0.73464333 5:-0.5592347 6:-0.56776274 
1 1:-0.03320431 2:-0.4366795 3:-0.7252109 4:-0.45022241 5:-0.32711322 6:-0.46386231 
1 1:-0.65110223 2:-0.57018102 3:-0.49990606 4:0.78411434 5:0.97539339 6:0.58064224 
1 1:-0.30599767 2:-0.39317096 3:-0.40963961 4:0.90314779 5:1.3057706 6:0.67286424 
0.11347087682424893 1:0.076490086 2:0.035453432 3:0.41569534 4:2.6495788 5:2.1423349 6:1.8704694 
0.21526070970182093 1:-0.18463715 2:0.23405863 3:0.66025962 4:1.1682988 5:0.47608117 6:-0.24234868 
0.52122297834066977 1:0.9799109 2:2.5977469 3:1.6646406 4:0.38870173 5:-0.15771475 6:-0.49384952 
0.84491051056266553 1:0.56588864 2:1.2261298 3:1.272782 4:-0.45864351 5:-0.7233805 6:-1.017345 
1 1:-0.59651698 2:-0.40165305 3:-0.44355206 4:0.4176066 5:0.67274715 6:0.45685078 
1 1:-0.089877272 2:-0.33762357 3:-0.32472995 4:-0.77067959 5:-0.94383797 6:-0.93363695 
1 1:-0.40344733 2:-0.57291821 3:-0.30815238 4:0.4446907 5:0.044203901 6:-0.24830092 
0.39647152757523912 1:1.3527264 2:0.06441669 3:-0.055862098 4:0.37845985 5:0.29347379 6:0.32213433 
0.33748123430864307 1:4.8723457 2:2.8405131 3:0.34941287 4:-1.4809353 5:-1.477138 6:-1.3332656 
0.11427581202005259 1:-0.029615335 2:0.13992804 3:0.12270456 4:0.33278863 5:-0.22623114 6:-0.48736987 
0.6639615321779877 1:-0.81223078 2:-0.24511619 3:-0.7247176 4:0.87378773 5:0.17768341 6:0.41880167 
0.0080582928201475591 1:0.89350965 2:0.9520928 3:1.1389664 4:1.2129079 5:1.0198866 6:1.0040798 
0.33550967330813752 1:4.4392448 2:3.504281 3:1.0252996 4:-0.98462118 5:-0.73728462 6:-0.69682833 
0.33760485018336722 1:0.93456002 2:3.1692143 3:3.6790304 4:-0.15753211 5:0.76273768 6:1.2089423 
0.24875541828947464 1:-0.6109667 2:-0.45923742 3:-0.37148897 4:2.1250425 5:1.1427062 6:1.7149577 
0.37600531629982337 1:0.48253685 2:0.40950913 3:1.6813849 4:-0.67630253 5:-0.82897453 6:-0.88277923 
0.33754072405504892 1:1.7938028 2:1.929921 3:0.76190665 4:-0.6077957 5:-1.0454153 6:0.36402603 
0.33742047282746984 1:0.31129818 2:-0.08294582 3:-0.11469648 4:3.0566747 5:2.3973209 6:-2.2642256 
0.72863137320180127 1:-0.20238655 2:-0.82325942 3:-0.19349203 4:0.56903476 5:0.44626457 6:0.58923154 
0.16462785565306653 1:-0.56175318 2:-0.57185994 3:-0.49934328 4:4.3344067 5:3.8080479 6:3.8133096 
1 1:-0.4871979 2:-0.82160438 3:-0.72478708 4:1.7306921 5:1.6006151 6:1.5158215 
0.19621940888659464 1:0.39496273 2:-0.17986929 3:-0.71706802 4:1.8665677 5:2.1989555 6:2.2323503 
0.13357512191670762 1:0.78560583 2:1.1516528 3:0.35358158 4:-0.24910214 5:0.072630092 6:-0.034397118 
1 1:-0.57597615 2:-0.65451662 3:-0.39244368 4:1.0406166 5:1.3245412 6:1.00084 
0.2209231569323761 1:0.056551337 2:-0.82141341 3:0.0078566232 4:2.2583388 5:2.678802 6:2.3189214 
1 1:-0.81223078 2:-0.35523227 3:-0.72341835 4:-0.77720405 5:-0.8083501 6:-0.74346675 
1 1:-0.81223078 2:-0.52009209 3:-0.7252109 4:-0.25122639 5:-0.29065354 6:-0.2868021 
0.17326032780959361 1:0.43319822 2:0.54923298 3:0.20135421 4:2.3238868 5:2.4611253 6:1.8645925 
0.17602221388052444 1:0.10033839 2:0.79637551 3:1.4059722 4:0.13053037 5:-0.13098795 6:0.83583497 
1 1:0.11284898 2:0.34760415 3:0.045930834 4:-0.89904455 5:-0.65138808 6:-0.3450436 
1 1:0.43265088 2:0.17764393 3:0.056005215 4:-0.33323733 5:-0.3839656 6:-0.70089695 
0.33779820136075189 1:-0.3700988 2:-0.53248104 3:-0.22500053 4:-2.2826093 5:1.6702902 6:1.6257495 
0.21979969671515326 1:1.2182376 2:0.27050141 3:-0.21485667 4:-0.35379696 5:-0.074212813 6:-0.038917804 
0.23206745112925137 1:0.50849632 2:0.13587 3:-0.52165977 4:1.636315 5:1.7449862 6:1.7132248 
0.14920160359277557 1:1.080152 2:1.2554113 3:0.69374825 4:-0.71529755 5:-0.82163625 6:-0.32515258 
1 1:0.43976627 2:0.58806284 3:0.64066669 4:-0.037057202 5:-0.68854297 6:-0.57190671 
0.40903919408194417 1:0.59911988 2:1.1151305 3:0.51796768 4:-1.57554 5:-1.6832279 6:-1.7416343 
0.124563127225224 1:0.42123497 2:1.7321115 3:1.797553 4:-0.36403885 5:-0.26840696 6:-0.37066083 
0.29042442792176326 1:3.1289953 2:2.3466259 3:1.3343399 4:-0.15161458 5:0.35055791 6:0.6776863 
1 1:0.49590754 2:0.55782648 3:0.29549756 4:-1.3500668 5:-1.2937582 6:-1.2133921 
0.19179283115911827 1:-0.62623744 2:0.46433244 3:0.30932378 4:1.0123946 5:1.135368 6:1.3759063 
0.012580677641298563 1:-0.28979646 2:-0.82325942 3:-0.7252109 4:-0.096763595 5:-0.15532015 6:-0.27241125 
0.20816174522748065 1:0.0028340015 2:0.11709163 3:0.050933285 4:1.064742 5:1.0153291 6:1.8303106 
0.32105730621479062 1:-0.80917351 2:2.3349292 3:-0.71311469 4:0.18333298 5:0.005581359 6:0.067167632 
1 1:-0.42376922 2:0.23604786 3:-0.026326793 4:-0.83895882 5:-1.0098053 6:-0.76396052 
1 1:0.22442778 2:0.30415926 3:0.10971209 4:0.25722628 5:0.18301332 6:0.17393117 
0.054660940004282142 1:0.12621967 2:0.12568512 3:0.070595697 4:1.9843115 5:1.495639 6:1.2228057 
1 1:0.15358658 2:-0.1524099 3:-0.41075821 4:0.23659078 5:0.36353508 6:0.12329949 
1 1:-0.35646226 2:-0.82271039 3:-0.34373231 4:0.4826236 5:0.54173949 6:0.43748718 
0.43729989520595325 1:0.01409353 2:-0.82325942 3:-0.088982492 4:0.4240552 5:0.71453674 6:0.61808859 
0.21816829240964644 1:-0.41249405 2:-0.33949345 3:-0.72210521 4:1.2982569 5:1.6627202 6:1.7013203 
0.23932101556873153 1:2.0946043 2:1.0357202 3:-0.7252109 4:0.095707968 5:-0.11646587 6:0.11034019 
1 1:-0.81001797 2:-0.14952949 3:-0.7237449 4:0.36632132 5:0.33680828 6:0.30857227 
0.23852671855788604 1:2.4832144 2:1.9132115 3:1.8115182 4:1.2123768 5:0.83164029 6:0.055865917 
1 1:-0.29678675 2:0.098551958 3:0.41930822 4:0.27930323 5:0.36199018 6:0.028365076 
1 1:0.45384069 2:0.25983911 3:0.26895678 4:-0.40796515 5:-0.70584587 6:-0.38279133 
1 1:-0.67884446 2:-0.82216932 3:-0.7252109 4:0.010965857 5:0.080431846 6:0.044262822 
0.43891700701715275 1:0.14928607 2:0.12345718 3:0.15174657 4:0.45341527 5:-0.088657644 6:1.2769033 
0.46922845749366765 1:0.79147017 2:0.42629828 3:0.2175427 4:1.3600876 5:0.83071335 6:0.59759481 
0.11753671903315828 1:1.9272751 2:2.1465089 3:1.1931596 4:1.0526793 5:0.98667118 6:1.1977159 
1 1:-0.81223078 2:-0.51376632 3:-0.7252109 4:-0.89024411 5:-0.72168111 6:-0.74015158 
1 1:-0.18349556 2:-0.82325942 3:-0.28542597 4:-0.692993 5:-0.69850759 6:-0.78867361 
1 1:0.11417823 2:-0.49409677 3:-0.44061312 4:-0.45765726 5:-0.27497279 6:-0.39559994 
0.33764394704920681 1:3.2226683 2:4.941145 3:1.6742287 4:-0.85883567 5:0.98010534 6:0.12013501 
0.093995665973476084 1:-0.34886207 2:-0.36393716 3:-0.43668758 4:5.669645 5:5.4744561 6:5.3847755 
0.23722882523192146 1:-0.32312936 2:-0.18820021 3:-0.11532873 4:4.6827825 5:4.7542229 6:6.3680247 
0.038003405036419413 1:-0.07935274 2:-0.63526083 3:-0.255446 4:0.9377426 5:1.0668516 6:1.3288158 
1 1:0.38057556 2:0.46162708 3:0.36379491 4:-0.14926274 5:0.10963049 6:-0.27226056 
0.2679989167633075 1:-0.21409177 2:-0.12991563 3:1.8092948 4:1.1742922 5:1.4033312 6:0.26253662 
1 1:0.029184427 2:-0.045094661 3:0.061563494 4:-0.13871739 5:-0.5066308 6:-0.45775938 
0.47034600761014983 1:0.85214652 2:0.24901767 3:-0.15117269 4:0.36973528 5:0.227352 6:0.42588408 
1 1:0.83306787 2:0.51255149 3:0.22588012 4:-1.0447069 5:-1.2267095 6:-0.65214889 
0.28658513380209166 1:0.88443947 2:0.59697462 3:0.053365032 4:0.87887074 5:0.94163729 6:0.57679966 
0.25901324217811983 1:-0.18122802 2:-0.11143166 3:-0.32110317 4:0.93956338 5:1.1384578 6:1.3850983 
1 1:0.11824417 2:0.0025912743 3:0.25123976 4:0.059216513 5:-0.18390083 6:-0.17378494 
1 1:0.045995529 2:-0.32439913 3:-0.06318513 4:-0.34074804 5:-0.27265544 6:0.039290067 
0.33734492752472117 1:0.72852628 2:2.3779763 3:0.3560828 4:2.1558441 5:1.0848497 6:0.9168306 
0.21585033597865422 1:1.0300314 2:1.2870799 3:1.2430452 4:0.19251274 5:0.50164929 6:0.40373272 
1 1:-0.81223078 2:-0.82325942 3:-0.39793248 4:0.32558138 5:0.52420486 6:0.21107614 
0.37979334717522095 1:-0.31319126 2:-0.027167678 3:1.1659935 4:0.15875246 5:0.36515723 6:0.76689451 
0.50500806326500558 1:0.89311869 2:0.55488241 3:0.22594959 4:-0.36904599 5:0.16972716 6:0.46287836 
1 1:-0.80790681 2:-0.8198459 3:-0.56372205 4:0.42511732 5:0.50450736 6:0.32718243 
0.26742928107643849 1:-0.46315411 2:-0.36672209 3:-0.43519379 4:5.0294134 5:5.6861076 6:4.9127405 
0.52407840664407257 1:0.32279228 2:0.47857536 3:0.48350635 4:1.1526704 5:0.94905282 6:1.0958498 
0.35518438973130168 1:0.74291345 2:0.23708227 3:0.28500631 4:-0.70528327 5:-0.63926061 6:0.038988688 
0.32393129771014384 1:1.6618161 2:2.0105248 3:2.7035525 4:2.007754 5:1.5395142 6:0.80381345 
0.3431270733131927 1:1.5955882 2:1.2048052 3:1.3838781 4:-0.70247623 5:-0.99899096 6:-2.2642256 
0.23282222365596436 1:0.38448512 2:-0.2129622 3:0.059757053 4:0.46517447 5:1.3692661 6:2.1154152 
0.47388388263138198 1:0.3164588 2:0.26158964 3:0.082893389 4:0.33885789 5:-0.31683962 6:-0.81459221 
1 1:-0.43939181 2:-0.35533571 3:-0.38072961 4:0.83297192 5:0.89289564 6:0.91223457 
0.33183190777667765 1:0.71671941 2:1.0919758 3:-0.64731856 4:0.72129745 5:0.41498031 6:0.70759818 
0.10220365461122721 1:0.80100949 2:-0.47684613 3:-0.49296516 4:0.88873329 5:0.78791957 6:0.73781143 
1 1:-0.39250839 2:-0.12860274 3:-0.19087964 4:-0.041002224 5:0.32058681 6:0.38640342 
1 1:-0.2288699 2:-0.32148689 3:0.15278875 4:-0.30903613 5:-0.37523691 6:-0.69532144 
0.33127116584549088 1:0.86004383 2:-0.82325942 3:0.83159357 4:2.0624533 5:1.652601 6:1.7161633 
1 1:-0.025002056 2:0.10451966 3:0.44036021 4:-1.0010082 5:-1.4633884 6:-0.85821683 
1 1:0.18337742 2:0.73391354 3:0.044124394 4:-0.82871694 5:-1.1605877 6:-1.1161973 
0.038832753011665257 1:-0.24165416 2:-0.20094723 3:-0.0061085528 4:0.42170336 5:0.4929206 6:0.41217133 
0.30643931140647762 1:-0.5413922 2:-0.15015808 3:-0.16615225 4:2.0969722 5:3.7135771 6:3.0303267 
0.71339396695334301 1:-0.25812122 2:-0.16771905 3:1.0493391 4:-1.2647936 5:-1.2682673 6:-0.66774525 
1 1:-0.52160983 2:-0.82057793 3:-0.7252109 4:1.4874663 5:1.2707786 6:1.5765494 
1 1:-0.81223078 2:-0.38850819 3:-0.7252109 4:0.15268319 5:-0.7038375 6:-0.5690436 
1 1:-0.75783318 2:-0.53897391 3:-0.17736608 4:-0.26048202 5:-0.22569042 6:-0.076213465 
0.95908985702082006 1:-0.69936182 2:0.28267553 3:0.20448074 4:0.18272605 5:0.1423824 6:0.25914611 
1 1:-0.37785536 2:-0.31103943 3:-0.47859701 4:0.23628732 5:0.27508946 6:0.26268731 
0.54054320593699456 1:0.20159596 2:-0.8212304 3:0.37644 4:0.15905592 5:0.22202209 6:0.32537416 
1 1:0.47878367 2:0.32102797 3:0.24762688 4:-0.14713849 5:-0.12372691 6:-0.22328646 
1 1:-0.1739797 2:-0.30767365 3:-0.17044602 4:-0.73790556 5:-0.77073174 6:-1.0586339 
0.31523941461590627 1:0.98835554 2:-0.76654236 3:1.4626667 4:-1.1324836 5:-1.1601242 6:-1.0871896 
1 1:-0.13065397 2:-0.19475673 3:-0.36046968 4:-0.37192889 5:-0.6048093 6:-0.55646103 
0.6164488752170757 1:2.4280896 2:2.4526124 3:1.9682616 4:-0.029243023 5:-0.19564209 6:-0.42679268 
1 1:-0.24620488 2:-0.014197867 3:-0.26410302 4:-0.92916327 5:-0.76764194 6:-0.77119362 
0.30372554505551058 1:1.216752 2:1.0704125 3:-0.080492221 4:-0.051471706 5:1.1829509 6:0.3262783 
1 1:0.28158553 2:0.53292126 3:0.68513292 4:-0.47882382 5:-0.80008487 6:-0.82566789 
1 1:-0.42261981 2:-0.4334649 3:-0.52983739 4:1.3735158 5:1.2238136 6:0.87102098 
1 1:-0.81223078 2:-0.82325942 3:-0.54857574 4:-0.81377138 5:-0.85369296 6:-0.72334969 
0.16436803076607118 1:0.47604698 2:0.24273169 3:-0.36058779 4:1.0932675 5:0.54088979 6:0.49595472 
1 1:0.16085836 2:0.37815879 3:0.24456983 4:0.37572868 5:0.072630092 6:0.52127056 
1 1:-0.80954883 2:-0.47569237 3:-0.72293895 4:0.13015105 5:0.25438778 6:0.024522492 
0.24416495858586329 1:-0.241834 2:-0.12023204 3:-0.29927998 4:3.8718528 5:4.3171702 6:3.9282104 
1 1:-0.81223078 2:-0.82325942 3:-0.61476789 4:0.052616187 5:0.097039539 6:0.038913343 
0.13331789757692658 1:-0.39755172 2:-0.56456342 3:-0.21030583 4:2.2685048 5:2.0185883 6:2.7031044 
0.21805517813801911 1:1.8064698 2:2.0105248 3:0.44195821 4:-0.34621038 5:-0.076993636 6:0.14040275 
0.20478206468660506 1:0.54469883 2:0.55329102 3:0.43570515 4:-0.0963084 5:-0.26176388 6:0.24354974 
0.17449943951343247 1:0.059678984 2:0.41269191 3:0.70945039 4:0.53868844 5:0.87651969 6:0.86107547 
1 1:-0.562496 2:-0.36979347 3:-0.51875557 4:-0.67698532 5:-0.61871341 6:-0.42234734 
1 1:-0.81223078 2:-0.82325942 3:-0.30943773 4:0.84450352 5:0.79525786 6:0.52262677 
0.31053504549373429 1:0.34617144 2:0.78738417 3:1.0444757 4:-0.76294128 5:0.23855253 6:0.87998701 
0.27018366355373774 1:0.30551203 2:-0.82325942 3:0.38971039 4:1.3190442 5:1.3869552 6:1.0067923 
0.58512751915974626 1:0.52303987 2:0.54676633 3:0.59821533 4:-0.54346149 5:-0.61461942 6:-0.39763425 
0.022120555004021193 1:0.61381982 2:0.52949977 3:-0.4322757 4:0.43414535 5:0.47723984 6:0.56941587 
0.25870914047188381 1:0.59161353 2:0.96800668 3:1.2811889 4:0.21762433 5:0.41289469 6:-0.11388585 
0.13277235020474104 1:0.1569488 2:0.46329804 3:0.29702609 4:-0.65149441 5:0.3687105 6:0.82445791 
0.31900047561359746 1:-0.044784423 2:0.4210467 3:1.1604352 4:-0.47616852 5:-0.79058373 6:0.94229713 
1 1:0.20722573 2:0.30893343 3:0.15258031 4:-0.94251566 5:-1.2009869 6:-0.87840923 
0.33516967844071455 1:1.3945587 2:1.4051609 3:0.76385204 4:0.624872 5:0.29988513 6:-2.2642256 
1 1:-0.16795116 2:-0.045572077 3:-0.2854885 4:0.2112516 5:0.088001864 6:-0.011115584 
0.2600433310749749 1:-0.66419144 2:-0.82325942 3:-0.7252109 4:3.4265205 5:3.2182817 6:2.1352309 
1 1:-0.019215909 2:-0.067326349 3:-0.11229947 4:-0.83911056 5:-0.84341936 6:-0.75906311 
0.60447009774820293 1:2.201257 2:2.266977 3:1.9340087 4:-1.0496382 5:-1.3076623 6:-0.65832716 
1 1:-0.47614166 2:-0.82325942 3:-0.60257442 4:-0.90041013 5:-0.96562109 6:-0.40577149 
0.78630924104673305 1:-0.069617939 2:-0.15801158 3:-0.086043552 4:0.70225513 5:0.58414704 6:0.47063887 
1 1:-0.42267454 2:-0.45417681 3:-0.55236232 4:-1.0596525 5:-1.0885953 6:-1.0718193 
1 1:-0.5013114 2:0.097199279 3:-0.12228353 4:-0.088570087 5:-0.34101733 6:-0.26721246 
1 1:-0.62012289 2:-0.59803827 3:-0.4417873 4:1.0503275 5:1.1644894 6:1.0317314 
1 1:-0.81223078 2:-0.82325942 3:-0.63058814 4:-0.39696461 5:-0.43208929 6:-0.51811054 
1 1:-0.072518832 2:-0.14561467 3:0.056561043 4:-0.33961006 5:-0.17439969 6:-0.21846439 
0.99460881050632299 1:-0.81189456 2:-0.82325942 3:-0.30317077 4:0.3525896 5:0.40215762 6:-0.10620068 
1 1:-0.55826585 2:-0.46899263 3:-0.34295415 4:0.015062611 5:0.0068172804 6:-0.046904349 
0.2206093406141072 1:2.6930013 2:1.5637427 3:0.46544194 4:0.029173651 5:0.46804768 6:0.52511314 
0.42296552714606012 1:0.7805234 2:0.76836708 3:0.4746131 4:0.50136246 5:-0.10866412 6:0.090072442 
0.085564716711357611 1:-0.20739079 2:0.59904342 3:0.33329386 4:-0.22421816 5:-1.0928437 6:-0.5850167 
1 1:-0.34223928 2:-0.32851287 3:-0.15477862 4:-0.022566832 5:0.072939073 6:-0.041253492 
1 1:-0.70186394 2:-0.82325942 3:-0.7252109 4:-0.39893712 5:-0.4578119 6:-0.5020621 
0.010597680649814116 1:-0.81223078 2:0.93594022 3:-0.7252109 4:0.78229356 5:0.72573728 6:0.73216057 
1 1:-0.083371766 2:-0.1055674 3:-0.39814092 4:-0.12119239 5:-0.03056934 6:-0.066117266 
1 1:-0.79201836 2:-0.44364182 3:-0.7252109 4:-0.67637839 5:-0.43471562 6:-0.55570758 
0.33730938466815308 1:0.48253685 2:1.4089007 3:2.377212 4:0.40524048 5:0.49384754 6:2.3339904 
0.45820182298835604 1:0.66284569 2:0.19451264 3:0.11540932 4:0.33187824 5:0.55850167 6:0.57484069 
0.36795927138916568 1:2.6252096 2:2.1497713 3:-0.11632228 4:-0.23779814 5:-1.190945 6:-0.71717142 
1 1:-0.64375226 2:-0.67235608 3:-0.4773325 4:1.1563879 5:1.2827516 6:1.3657347 
0.20474369423918329 1:2.4685144 2:3.041028 3:2.5692505 4:1.4112211 5:1.3758319 6:1.2232578 
0.33771385511069635 1:0.020661589 2:2.3119337 3:3.3754789 4:0.23423894 5:0.23808906 6:0.56949121 
0.33740690194051126 1:-0.48545423 2:0.26095308 3:0.50177919 4:3.3740973 5:1.9832873 6:0.56414173 
1 1:0.27548662 2:-0.042612096 3:-0.29233908 4:-1.2547035 5:-1.1466063 6:-1.2162552 
0.23046374972681363 1:0.13966855 2:-0.28848947 3:-0.26429061 4:0.4211723 5:0.39899057 6:0.21612424 
1 1:-0.72024669 2:-0.10743728 3:-0.34314869 4:-0.53246095 5:-0.42822704 6:-0.31927569 
0.56753724796827998 1:0.60326402 2:0.46051311 3:0.37199338 4:0.88342268 5:1.0413607 6:0.40765065 
1 1:-0.47644661 2:-0.82325942 3:-0.40188581 4:0.47845098 5:0.43259219 6:0.51818142 
0.29730760183446248 1:2.1060984 2:1.373731 3:0.29563652 4:0.97066837 5:1.2235046 6:1.4742312 
1 1:-0.43231551 2:-0.16418617 3:-0.20516442 4:0.053754174 5:0.21870055 6:0.15170446 
1 1:0.72461672 2:0.94445414 3:0.87585136 4:-1.040686 5:-0.98230603 6:-1.3585061 
0.0874846186425592 1:-0.063401741 2:-0.20265797 3:-0.7103564 4:0.56433108 5:0.58352908 6:0.56512122 
1 1:-0.18789773 2:-0.28449508 3:-0.26008022 4:-1.0686805 5:-1.1167897 6:-1.0630793 
0.021096429061614748 1:-0.81201185 2:-0.085539782 3:-0.72280694 4:0.49332068 5:0.46742972 6:0.86514409 
1 1:0.94910357 2:0.89225662 3:0.98340406 4:-0.53420586 5:-0.72901939 6:-0.80193429 
1 1:-0.032547504 2:0.33192898 3:0.051072242 4:-0.073624523 5:0.11866816 6:0.0093781936 
0.17829175300524883 1:1.6578284 2:-0.43826293 3:0.031340352 4:-0.1380346 5:-0.099549201 6:0.1367862 
0.33757135014884249 1:5.2502436 2:0.5954628 3:1.0283566 4:1.3132025 5:0.61689896 6:1.2805952 
0.25445723553968191 1:-0.81071387 2:1.1955751 3:-0.65532943 4:0.16429066 5:0.003727477 6:0.022789563 
1 1:0.12012076 2:0.37895449 3:0.43841481 4:-0.10586749 5:-0.20189894 6:-0.10642672 
0.22151185795633521 1:-0.45046368 2:-0.4589828 3:-0.50275468 4:4.384554 5:3.920903 6:2.8462595 
0.71095999451181879 1:0.65244626 2:0.043251232 3:1.0567733 4:0.079700282 5:0.16169367 6:-0.24182127 
0.3671784429635982 1:1.3212154 2:0.59983911 3:0.1174242 4:0.19805095 5:0.4009217 6:0.260653 
0.71780173729590302 1:-0.81223078 2:-0.028432831 3:-0.7252109 4:2.2366412 5:2.2524864 6:2.0451939 
1 1:-0.5341126 2:-0.52394325 3:-0.2000508 4:0.8432138 5:0.74342641 6:0.75416124 
1 1:-0.12407809 2:-0.14988755 3:-0.7252109 4:-1.0411412 5:-0.89749092 6:-1.004009 
1 1:-0.64357242 2:-0.61284613 3:-0.54875638 4:1.2171564 5:1.2315381 6:0.94154369 
1 1:-0.35209919 2:-0.12355804 3:0.36171056 4:-0.70482807 5:-0.78285922 6:-0.38987374 
1 1:-0.32150298 2:-0.39469073 3:-0.7252109 4:-0.38072933 5:-0.23573228 6:-0.052103139 
1 1:0.7805234 2:0.48406565 3:-0.14162634 4:-0.96732378 5:-0.79668609 6:-0.83727099 
1 1:-0.51017046 2:-0.82323555 3:-0.49190214 4:0.39955054 5:0.42795748 6:0.46498802 
0.47139235357285081 1:0.060460896 2:-0.086598055 3:0.093315163 4:1.0378855 5:0.50736543 6:-2.2642256 
1 1:-0.2808123 2:-0.25640709 3:-0.47614441 4:0.86627701 5:0.55116339 6:0.63330823 
0.20982712787255928 1:0.091580983 2:-0.11023016 3:-0.21009739 4:0.53497101 5:0.47747158 6:1.7782474 
0.14097442768376203 1:0.4918416 2:-0.75981079 3:0.81304281 4:0.23021805 5:0.42193236 6:0.93174887 
1 1:-0.52326748 2:-0.82325942 3:-0.7252109 4:-1.0536591 5:-1.0430207 6:-1.0511748 
1 1:-0.43337109 2:-0.40422315 3:-0.40640886 4:0.22513504 5:-0.12581253 6:0.36048482 
1 1:-0.034212976 2:0.11231746 3:0.097761786 4:0.28878646 5:0.51957015 6:0.49813972 
0.10704571576827007 1:1.34436 2:-0.073381579 3:-0.7045341 4:-0.12096479 5:-0.11824251 6:-0.22343715 
1 1:-0.16383048 2:-0.25775977 3:0.2485301 4:-0.2230043 5:-0.17687153 6:-0.19940216 
0.83132404949539029 1:0.49309265 2:0.6393851 3:0.78115219 4:0.50507988 5:0.25307461 6:-0.59164704 
1 1:0.13411698 2:0.24145858 3:0.20385544 4:-0.5075011 5:-0.7792287 6:-1.0814634 
0.22497786603373249 1:0.86653369 2:0.3947888 3:-0.71311469 4:1.021195 5:1.0982131 6:1.1766947 
0.17859643026877237 1:1.420049 2:-0.74048339 3:1.4273021 4:0.28461384 5:0.47005605 6:0.078243313 
1 1:0.021365309 2:-0.39031442 3:-0.22949579 4:-1.0368169 5:-0.97226416 6:-0.70571902 
0.022691085239903524 1:-0.14975607 2:0.0073654376 3:0.32245521 4:0.14797951 5:0.26612903 6:0.29915418 
1 1:0.2410825 2:0.34839984 3:-0.054451684 4:-0.45841592 5:-0.45240475 6:-0.17928511 
0.85380743744084064 1:2.1804582 2:2.8888118 3:2.1776003 4:-0.66560545 5:-0.47032561 6:-0.17182598 
0.31009751554638648 1:0.49317085 2:1.5116248 3:1.3459428 4:1.349694 5:2.1329882 6:2.5696688 
0.52845457298425158 1:0.96607106 2:0.84252575 3:0.54186828 4:-0.16314618 5:-0.038602829 6:-0.31799483 
1 1:0.79303399 2:1.0501223 3:1.0717807 4:-1.00336 5:-0.8828916 6:-0.77172104 
0.62657326455446249 1:0.099087335 2:-0.048627542 3:-0.20901353 4:1.1594984 5:1.1420883 6:0.69448819 
0.68468835912034232 1:-0.34632086 2:-0.054523634 3:-0.23899349 4:0.55090283 5:0.38423676 6:0.68250837 
0.85125837333753318 1:0.69068175 2:0.28776797 3:1.0147389 4:-0.74147126 5:-0.40289065 6:-0.41051821 
1 1:-0.41623941 2:-0.52196993 3:-0.38343927 4:-0.8678637 5:-0.67201252 6:-0.62314115 
0.23136602133019424 1:0.89069477 2:1.3641827 3:0.79407519 4:0.85815937 5:0.69414404 6:0.73660591 
1 1:-0.80880601 2:-0.8228934 3:-0.37076639 4:-0.33126482 5:-0.29729662 6:-0.4567799 
1 1:0.36188787 2:0.93601979 3:0.48718871 4:-0.95116436 5:-1.0111184 6:-0.95541158 
0.26012244470808621 1:0.21676505 2:1.274508 3:0.86341472 4:0.67820566 5:0.41884256 6:0.075003488 
0.21219141216265616 1:-0.81223078 2:-0.05664018 3:0.087201056 4:0.38885346 5:0.063437927 6:0.886542 
1 1:-0.81223078 2:-0.74993623 3:-0.7252109 4:-0.02711878 5:-0.1317604 6:-0.016540407 
0.30062646758174694 1:0.12676701 2:-0.82302867 3:0.037523937 4:0.67904019 5:0.75532215 6:0.8246086 
0.46796971855463182 1:-0.079079071 2:-0.50404294 3:-0.29020609 4:0.78821109 5:1.1875084 6:1.5094926 
0.5039329283555497 1:0.42326794 2:-0.089733089 3:0.2046197 4:0.69747558 5:0.91537396 6:0.93363249 
1 1:-0.81193366 2:-0.33910356 3:-0.2956532 4:-0.60840262 5:-0.75118873 6:-0.74007623 
1 1:-0.81223078 2:0.49679675 3:-0.7235851 4:-1.0832467 5:-1.2172856 6:-1.1197385 
1 1:-0.3268669 2:-0.50798959 3:-0.5572675 4:0.73146346 5:0.40578814 6:0.34662138 
0.40405619980331997 1:1.6355439 2:0.010548213 3:0.90940947 4:-0.88318859 5:-0.82966974 6:-0.19631303 
0.32288319089067297 1:0.12012076 2:0.36988358 3:0.4497398 4:1.487618 5:1.1389212 6:1.1729275 
1 1:-0.81223078 2:-0.42587398 3:-0.7252109 4:-0.60847849 5:-0.44831076 6:-0.48684246 
1 1:-0.26356332 2:-0.10788287 3:0.12034229 4:0.62813423 5:0.46549859 6:0.64468529 
0.3173571577203726 1:1.7087308 2:1.9454371 3:2.7395423 4:1.2606275 5:1.3395267 6:0.36696447 
0.52714753118175128 1:0.92134571 2:0.75404459 3:0.49670726 4:-0.11679217 5:-0.24546517 6:-1.1232797 
0.32904731916257157 1:1.6334327 2:1.0090645 3:-0.67568663 4:-1.1035029 5:-1.1547171 6:-1.127273 
0.35749049046081022 1:-0.18046956 2:-0.82325942 3:-0.7252109 4:1.0859085 5:2.4236615 6:1.6816554 
1 1:-0.29118827 2:-0.35902773 3:-0.30870821 4:0.36700411 5:0.37597154 6:0.23993319 
1 1:-0.09042461 2:0.18981805 3:0.33252959 4:-0.42268312 5:-0.5890513 6:-0.38000358 
0.10717326637286348 1:-0.0476384 2:0.36423415 3:0.40819167 4:0.75118858 5:0.17382115 6:0.11177174 
0.32473863398563668 1:1.4092586 2:0.99219578 3:0.46127323 4:2.302872 5:2.4437452 6:2.3489086 
1 1:-0.45850174 2:-0.24908671 3:-0.13863877 4:0.36715584 5:0.53695029 6:0.61311583 
1 1:-0.364946 2:-0.2899615 3:-0.10542805 4:-1.0066981 5:-0.8318326 6:-0.84209305 
0.75238903389326295 1:1.2615555 2:1.4308618 3:0.53089068 4:0.49430694 5:0.40949591 6:0.14085482 
0.53441205113012336 1:0.52413455 2:1.4764551 3:1.6821492 4:-0.1171715 5:-0.18807207 6:-0.20693664 
1 1:-0.51662124 2:-0.53205137 3:-0.39046354 4:0.33658192 5:0.68047166 6:0.51433884 
0.71022445153604075 1:-0.81115956 2:-0.82288545 3:-0.16468625 4:0.57935251 5:0.58762307 6:0.34775156 
1 1:0.039036514 2:-0.27925942 3:-0.31136923 4:-0.62645869 5:-0.25797887 6:0.00033682126 
0.25969429357499951 1:-0.59966026 2:-0.59248432 3:-0.32862769 4:1.2365022 5:0.75709879 6:1.1961337 
1 1:-0.47717379 2:-0.82325942 3:-0.43636798 4:-0.029015426 5:0.10584548 6:0.054886435 
1 1:-0.1819552 2:-0.82325942 3:-0.7252109 4:0.28279306 5:0.087229413 6:-0.043287801 
0.0037188448436140577 1:0.40348557 2:1.4473327 3:0.12075917 4:0.40660606 5:-0.45325444 6:-0.51027468 
1 1:-0.49550962 2:-0.38827744 3:-0.2793466 4:-0.84009681 5:-0.6832903 6:-0.51773382 
0.87499606615319425 1:0.54931211 2:0.59323486 3:0.25881292 4:0.95215711 5:0.9219398 6:-0.48654108 
0.10584576026380761 1:0.63954472 2:-0.25003358 3:0.61523756 4:0.1464622 5:-0.25936928 6:0.40343134 
0.30989679937412951 1:0.38120109 2:-0.82127019 3:0.43278705 4:-0.5480893 5:-0.70800873 6:-0.68710886 
0.29979128571963837 1:1.3334132 2:1.5706652 3:0.55027517 4:0.10640505 5:0.14848477 6:0.38504722 
1 1:-0.4669933 2:-0.43136426 3:-0.49878745 4:-1.6885042 5:-1.7870453 6:-1.6892696 
1 1:0.54563712 2:0.16165048 3:-0.051158404 4:-0.026739451 5:-0.22260062 6:-0.28552124 
0.43041912478071714 1:-0.27387674 2:-0.550782 3:-0.40825699 4:1.7507206 5:2.2844658 6:1.9810001 
1 1:-0.81223078 2:-0.82325942 3:-0.30426853 4:0.41798593 5:0.47554045 6:0.64687029 
1 1:-0.44391126 2:-0.82032331 3:-0.45368897 4:0.20981015 5:0.10383711 6:0.18869875 
0.92271865078821802 1:-0.27384546 2:-0.044657029 3:-0.099730814 4:0.65112157 5:1.1478044 6:1.1843799 
1 1:-0.81223078 2:-0.11081898 3:-0.17320431 4:-0.39704048 5:-0.62025831 6:-0.45738266 
0.2730262025259832 1:-0.62341474 2:-0.5643088 3:-0.46732065 4:4.2161319 5:5.09526 6:6.0131508 
0.33737795932248121 1:0.27587758 2:0.6401808 3:0.66185762 4:4.1546806 5:5.2543076 6:3.4099137 
1 1:-0.70535127 2:-0.64757021 3:-0.71683179 4:1.3477973 5:1.3610009 6:1.3597825 
1 1:-0.224413 2:0.24861983 3:0.29785983 4:-0.47814103 5:-0.46839448 6:-0.43696422 
1 1:-0.0029521453 2:-0.45555336 3:-0.26197698 4:-0.26063375 5:0.12338011 6:0.41028771 
1 1:-0.81079206 2:-0.82325942 3:-0.041688486 4:-0.39749567 5:-0.39640206 6:-0.78829689 
0.3139425724484145 1:-0.13781628 2:-0.10299731 3:0.24630679 4:1.649288 5:2.3799408 6:2.9655302 
0.64426473603518652 1:0.24155165 2:0.022801899 3:0.1707142 4:0.71113143 5:0.32537601 6:0.66058304 
0.27510942427908747 1:-0.34639905 2:-0.36630833 3:-0.17419091 4:5.9017944 5:5.5910962 6:6.5262487 
0.061505886155478001 1:0.78599679 2:-0.13631301 3:0.49170481 4:0.31852585 5:0.14284587 6:0.7821895 
1 1:-0.53444882 2:-0.82325942 3:-0.7252109 4:-0.39977164 5:-0.53961445 6:-0.53928242 
1 1:0.49590754 2:1.0907027 3:0.67992203 4:-0.16595321 5:-0.30787919 6:-0.18817579 
1 1:-0.72514145 2:-0.82325942 3:-0.63191518 4:-0.39051602 5:-0.35507594 6:-0.25093799 
0.061657060976456651 1:0.067810866 2:0.4407799 3:1.043225 4:-0.18423688 5:-0.23449636 6:-0.22720438 
1 1:0.45344973 2:0.39757373 3:0.02592103 4:-0.38679859 5:-0.048953671 6:-0.40539476 
0.19394816601159803 1:1.2000972 2:1.0295138 3:0.053573468 4:0.55158563 5:-0.020218499 6:-0.41775131 
0.31976390643938463 1:0.58183964 2:1.386303 3:2.0434373 4:1.0836326 5:0.1401423 6:-0.75838501 
1 1:0.70178489 2:0.051924296 3:0.35622176 4:-1.1189037 5:-1.0936934 6:-0.72282228 
0.27844458868465033 1:-0.29682585 2:-0.000114085 3:-0.33043413 4:0.95086739 5:1.8017613 6:1.308322 
1 1:0.85949649 2:0.49639891 3:0.24213808 4:-0.97028254 5:-0.82897453 6:-0.0011700741 
0.30837756072820305 1:-0.60571226 2:-0.71556225 3:-0.33501276 4:3.8502311 5:2.0287074 6:3.1786806 
1 1:0.36055862 2:0.36335889 3:0.25346308 4:-0.17232594 5:-0.20089475 6:0.11380604 
1 1:-0.37281203 2:-0.82325942 3:-0.7252109 4:0.36579026 5:0.40686957 6:0.38527325 
1 1:-0.20079145 2:-0.53060321 3:-0.44892274 4:0.28696568 5:-0.32093361 6:-0.05180176 
1 1:-0.57263739 2:-0.38143447 3:-0.48708033 4:0.0046689944 5:0.082517463 6:0.013220777 
1 1:0.94996368 2:0.71402119 3:0.23783042 4:-0.84457289 5:-0.61655055 6:-1.0313591 
1 1:-0.47314694 2:-0.49052411 3:-0.50031598 4:-0.54422015 5:-0.39555236 6:-0.30601501 
0.27532779945958463 1:0.68638123 2:-0.82325942 3:-0.7252109 4:0.49081711 5:0.55108615 6:0.61243773 
1 1:-0.44202686 2:-0.41352481 3:-0.28216743 4:0.031146162 5:0.017477102 6:0.11169639 
0.1780125745807829 1:1.0919588 2:0.24169729 3:-0.40683962 4:1.122931 5:0.87196223 6:-0.085254837 
0.33274689279318537 1:2.5123015 2:2.6526498 3:3.0981903 4:-0.36950119 5:0.11944061 6:1.0240462 
0.29076791905961624 1:0.45219867 2:0.23541131 3:0.87369753 4:0.65013531 5:0.60901996 6:0.94063955 
1 1:0.19659173 2:0.42717354 3:0.41090133 4:0.27672379 5:0.48411466 6:0.33976501 
1 1:0.67144672 2:0.51111924 3:0.27354236 4:-0.43224221 5:-0.59638958 6:-0.60543513 
0.336938184431607 1:-0.63393927 2:3.2781448 3:-0.011249961 4:-0.062244651 5:-0.044782436 6:-0.055795032 
1 1:-0.55850825 2:-0.37689902 3:-0.43705582 4:-0.57358022 5:-0.46182865 6:-0.77526224 
1 1:-0.51295407 2:-0.82325942 3:-0.47754788 4:-0.44384968 5:-0.34480234 6:-0.59624307 
1 1:-0.71829191 2:-0.82325942 3:-0.64097518 4:0.020676681 5:-0.12820713 6:-0.21160802 
0.33764400907678566 1:0.55337805 2:1.2003493 3:0.34302085 4:3.4410109 5:4.4123362 6:4.8167512 
0.78034073488048017 1:-0.3287513 2:-0.32089012 3:-0.140473 4:0.72895989 5:0.58461051 6:1.6057078 
0.24586859680123657 1:0.43296364 2:-0.74862334 3:0.99424271 4:-0.40432359 5:-0.21155457 6:-0.16512029 
0.27314271852532673 1:2.0059355 2:2.3913439 3:0.97096741 4:0.41388918 5:-0.19757321 6:0.53957934 
0.17823301507016781 1:-0.44586604 2:-0.33278575 3:-0.045732134 4:2.0371141 5:1.5414454 6:2.4326167 
1 1:-0.81125339 2:-0.49544149 3:-0.72482182 4:0.44544936 5:0.3066827 6:0.3103052 
1 1:-0.25744095 2:-0.29676468 3:-0.099258361 4:0.054512832 5:-0.086726517 6:0.18131496 
1 1:0.48597726 2:0.63063247 3:0.30487716 4:0.47898205 5:0.45414356 6:-0.28258279 
0.050100020386845752 1:0.19846832 2:0.69333315 3:0.65956483 4:1.3990826 5:1.4718476 6:1.3393641 
1 1:-0.33964333 2:-0.82325942 3:-0.32284708 4:0.043208826 5:0.2665925 6:0.45315889 
0.32013846406571705 1:-0.5105927 2:-0.25300948 3:-0.016738761 4:1.0378096 5:1.0350266 6:0.96474988 
1 1:0.16531526 2:0.29564534 3:0.023419804 4:-0.40394426 5:-0.041769878 6:0.39567083 
0.34112766917526144 1:2.1365147 2:0.61455945 3:0.54541168 4:-0.29280085 5:0.18981089 6:0.71468058 
0.31900464420656499 1:-0.029693526 2:1.2375082 3:1.6841641 4:1.6080929 5:0.76714065 6:0.57559414 
0.35239845451535945 1:3.3058637 2:3.2449643 3:2.322185 4:-1.6736345 5:-1.7544479 6:-1.6793241 
0.14006634412620586 1:0.94097169 2:-0.24739983 3:-0.3274813 4:-0.29234566 5:0.13960158 6:0.31731227 
1 1:-0.42393342 2:-0.82179535 3:-0.7252109 4:-0.39256439 5:-0.40636668 6:-0.38233927 
1 1:-0.41357309 2:-0.5045681 3:-0.36754954 4:0.61963726 5:0.66571785 6:0.40712323 
0.33732409250146 1:-0.81223078 2:-0.63233267 3:-0.7252109 4:2.1472712 5:4.5121368 6:4.2750223 
0.23815628671396769 1:0.56565406 2:-0.79997742 3:1.3708856 4:0.08045894 5:0.16795053 6:0.16692411 
0.60105460240715403 1:-0.37457133 2:0.13793881 3:0.5075459 4:0.26807509 5:0.84577614 6:1.0520745 
1 1:-0.81223078 2:-0.48970454 3:-0.72190372 4:-0.42329005 5:-0.33167068 6:-0.29072002 
0.21506533639765307 1:0.3306114 2:1.2235836 3:-0.10442061 4:-0.12453048 5:-0.84890376 6:-0.84751787 
1 1:-0.33917419 2:-0.2929374 3:-0.44716494 4:0.064602985 5:0.29764502 6:0.13264224 
0.65979650644511967 1:-0.0018574688 2:-0.16831582 3:-0.1432035 4:0.061568353 5:0.20533715 6:0.14831395 
0.25527654276886358 1:-0.5442149 2:0.11152177 3:0.31349249 4:1.2110113 5:2.0765221 6:1.9005319 
1 1:-0.30050083 2:-0.1407132 3:-0.50866729 4:-1.3546187 5:-1.370926 6:-1.3667187 
1 1:0.17602745 2:-0.15864018 3:-0.29538918 4:-0.049195731 5:-0.029256174 6:-0.091734488 
0.77026149258908105 1:-0.55649873 2:-0.38439445 3:0.020779622 4:-0.27793115 5:0.13303575 6:0.7894226 
0.043272735018381393 1:0.76175752 2:0.11191962 3:-0.23786794 4:-0.12923416 5:0.26311647 6:0.28928401 
1 1:-0.81223078 2:-0.27249602 3:-0.72202183 4:0.80209453 5:0.48434639 6:0.28348247 
1 1:-0.81223078 2:-0.48469167 3:-0.7252109 4:0.31124274 5:0.1872618 6:0.37901963 
1 1:-0.61770678 2:-0.53552855 3:-0.63195687 4:-1.081957 5:-1.0230914 6:-0.98924139 
1 1:0.079617733 2:0.20374269 3:0.19954777 4:-0.88758881 5:-1.0605553 6:-0.9414728 
0.3331162531678577 1:2.2995433 2:2.3471033 3:1.4345279 4:1.5338961 5:1.7322407 6:1.8407835 
0.78935577231935183 1:-0.15078038 2:-0.27969705 3:-0.43177545 4:1.6680269 5:1.362932 6:1.6766073 
1 1:-0.10372493 2:0.16777733 3:-0.15980191 4:0.76916877 5:0.61875284 6:0.68989216 
1 1:-0.13468863 2:-0.055717175 3:-0.10412185 4:-0.7822112 5:-0.63454866 6:-0.47674626 
0.35586636234349128 1:0.86090393 2:0.12297976 3:0.017792047 4:-0.4333802 5:-0.91100881 6:-2.2642256 
1 1:-0.81223078 2:-0.42385291 3:-0.7252109 4:0.23659078 5:0.16486072 6:0.29184574 
1 1:-0.49206139 2:-0.57240101 3:-0.41282172 4:0.39962641 5:0.28891633 6:0.29847608 
0.31903171074722569 1:0.73994219 2:0.41794349 3:0.30640568 4:0.31192553 5:0.20603235 6:-2.2642256 
0.14577512330425943 1:1.4808817 2:1.094522 3:0.91163279 4:0.80308079 5:1.2938749 6:1.2412652 
1 1:-0.44096346 2:-0.82325942 3:-0.27241959 4:0.49908649 5:0.47160095 6:0.40312996 
0.15047769726159504 1:0.075160836 2:0.17247192 3:0.20969163 4:2.6534479 5:2.7434561 6:2.7766409 
0.36327236748449576 1:1.6988787 2:2.0659051 3:1.1645345 4:-0.26199933 5:-0.38442907 6:-0.14372238 
1 1:-0.21363826 2:-0.18353744 3:-0.46058818 4:-0.23741881 5:-0.23333769 6:-0.38264064 
1 1:-0.56146387 2:-0.81893881 3:-0.72175782 4:2.0705709 5:2.0740502 6:2.0884418 
0.96818123151979074 1:0.89812293 2:0.96808625 3:1.0308579 4:-0.17209835 5:-0.169456 6:-0.21409439 
1 1:-0.80560799 2:-0.18535958 3:-0.12841153 4:-0.73221563 5:-0.66892272 6:-0.91238972 
0.33925298739384097 1:1.9720005 2:3.5594226 3:3.1413364 4:0.75338868 5:-0.20158996 6:-0.36727031 
0.28694382438092336 1:0.32029016 2:0.77910895 3:0.58320798 4:0.66667406 5:1.8567598 6:1.9071623 
1 1:-0.082394377 2:-0.12744898 3:-0.03773516 4:-0.89934801 5:-0.40466728 6:-1.2255226 
0.33967903661507026 1:1.0103273 2:1.3522473 3:2.2606966 4:-1.5682569 5:-1.4879523 6:-1.3239229 
1 1:-0.11328771 2:0.303284 3:-0.015071278 4:-0.26639955 5:-0.17625357 6:0.15426619 
0.94410544537685137 1:0.10776656 2:0.14979465 3:0.0025067797 4:0.64732828 5:0.36623866 6:0.29440746 
1 1:-0.10733736 2:-0.35455593 3:-0.3403904 4:0.30631146 5:0.21823708 6:-0.98065208 
0.33759165199659624 1:5.8690485 2:5.8842014 3:2.5874539 4:-1.283229 5:-1.3459759 6:-1.5503339 
0.31852103434506956 1:-0.1881714 2:-0.12479932 3:-0.15372255 4:4.6709474 5:6.5242168 6:5.3802548 
0.26420669409288616 1:1.3498333 2:-0.14835982 3:-0.4204852 4:0.84245515 5:1.1121944 6:1.5666039 
0.089377626255569234 1:0.33905604 2:0.62132285 3:0.54318837 4:-0.52130867 5:-0.54702997 6:-0.093241383 
0.22581371332290062 1:0.06804544 2:0.710361 3:1.1186092 4:1.3309551 5:1.3476375 6:1.4338464 
1 1:-0.33295799 2:-0.57982483 3:-0.40527636 4:-0.38512954 5:-0.48654707 6:-0.30187105 
0.30830594186881027 1:2.3335565 2:0.41507899 3:0.096302737 4:1.0670938 5:0.93553493 6:0.79258708 
0.26066462711312893 1:0.56424662 2:0.37075884 3:0.49163533 4:-0.39438517 5:0.1824726 6:0.45903578 
0.09556401960064756 1:0.25124736 2:0.42971976 3:1.4495352 4:-1.0308993 5:-1.218676 6:-0.74934364 
0.67586975752476675 1:1.4307612 2:0.75205536 3:0.242416 4:-1.1622989 5:-1.2424675 6:-1.4634614 
1 1:0.18814708 2:0.17692781 3:-0.10667172 4:-0.53799915 5:-0.37902192 6:-0.69539678 
1 1:-0.34255987 2:-0.012288202 3:0.29508069 4:-0.37086677 5:-0.34719694 6:-0.47388316 
1 1:-0.051954553 2:0.043171663 3:0.9099653 4:-1.1424221 5:-1.2717434 6:-1.3220392 
0.33508925341753154 1:0.53766162 2:0.51987188 3:1.1291699 4:-0.10875039 5:-0.28563261 6:-2.2642256 
1 1:-0.50786382 2:-0.82325942 3:-0.7252109 4:1.0582934 5:0.66386397 6:0.87297995 
1 1:-0.21023694 2:-0.17908951 3:-0.22652211 4:0.65855642 5:0.85913954 6:0.65470615 
0.41514003159828805 1:-0.50265629 2:-0.49930857 3:-0.37449739 4:1.5568076 5:1.5252239 6:1.2662796 
0.30069599030589067 1:2.27937 2:2.9261298 3:2.3584528 4:-0.034477764 5:-0.12882509 6:0.13166276 
1 1:-0.34649288 2:-0.65516909 3:-0.2137728 4:-0.002386526 5:-0.20630191 6:-0.34172843 
1 1:0.73337413 2:0.78794115 3:0.37602313 4:0.16671837 5:0.20008448 6:-0.60762013 
0.83742088345004417 1:0.93628022 2:0.28187983 3:0.056769478 4:0.44120087 5:0.24998481 6:-0.18026459 
1 1:-0.55406699 2:-0.20670009 3:-0.16212944 4:-0.2059345 5:-0.24237536 6:-0.20414888 
1 1:-0.81223078 2:-0.41477405 3:-0.7252109 4:0.031753089 5:-0.25689744 6:-0.12277653 
0.11974190184245043 1:0.82032271 2:-0.063522932 3:0.32349739 4:0.20040279 5:0.28451336 6:0.74579797 
1 1:0.36180968 2:0.22785222 3:0.2853537 4:-0.93348763 5:-0.84063854 6:-0.94787711 
0.31985703740363963 1:2.2309697 2:1.3398344 3:1.2448516 4:1.3624394 5:0.45383458 6:1.2698208 
0.33563334062399214 1:-0.32868875 2:0.43202727 3:2.1935109 4:0.31283592 5:0.8518785 6:1.5706725 
0.0072406024764412142 1:1.4160613 2:1.1207003 3:0.98514103 4:-0.91588676 5:-0.70870394 6:0.021508702 
0.66757430111514415 1:0.1180096 2:-0.26793669 3:0.43237018 4:-0.49103821 5:-0.51543674 6:-0.59413341 
1 1:1.3944805 2:1.8883858 3:1.5736238 4:-0.090315001 5:-0.52578758 6:-0.65870388 
1 1:0.33647574 2:0.77807455 3:1.1527926 4:-1.2245089 5:-1.1627505 6:-1.0909568 
0.85712945917197847 1:1.1126013 2:0.99657209 3:0.38130349 4:0.018931767 5:0.3923475 6:0.43462407 
1 1:-0.81033856 2:-0.82110309 3:-0.43159481 4:0.04586413 5:0.02975907 6:-0.052781242 
1 1:-0.72656453 2:-0.33568207 3:-0.33416513 4:0.39924708 5:0.68371596 6:0.65199374 
0.87046345149205107 1:-0.30286221 2:-0.23314896 3:0.20225743 4:0.21633461 5:0.65289517 6:0.79100484 
1 1:-0.31156488 2:-0.82228072 3:-0.7252109 4:0.53277091 5:0.56699863 6:0.48992714 
1 1:-0.81223078 2:-0.46958144 3:-0.71815188 4:0.06179595 5:0.42818922 6:0.13625879 
1 1:-0.4136591 2:-0.82325942 3:-0.50813926 4:-0.2647305 5:-0.16458956 6:-0.16135305 
0.26212996653259257 1:0.16992854 2:-0.5180949 3:-0.19115756 4:3.5271186 5:4.2097996 6:3.0715403 
1 1:-0.34539821 2:-0.22882038 3:-0.060815914 4:0.58428379 5:0.58090275 6:0.63330823 
1 1:-0.38125668 2:-0.34671835 3:-0.20153069 4:-0.17255354 5:0.059189448 6:0.27715351 
0.17945510646676657 1:2.496976 2:1.9222028 3:1.2342909 4:-0.11041944 5:0.14524047 6:0.37449895 
0.37587930042478213 1:-0.81223078 2:-0.23436637 3:-0.17200928 4:0.7577889 5:0.22742924 6:0.75815452 
0.22442995085679868 1:0.64845851 2:0.92822199 3:0.63385779 4:2.027555 5:2.1418714 6:1.9171078 
1 1:-0.27739534 2:0.029804006 3:0.13027772 4:-0.086673442 5:-0.076761901 6:0.056770054 
1 1:-0.81131595 2:-0.82325942 3:-0.50780576 4:0.041312181 5:-0.0068550996 6:0.11908018 
1 1:-0.53505089 2:0.39335655 3:-0.04913658 4:-0.30721535 5:-0.43409766 6:-0.36538669 
1 1:0.11996438 2:0.20939212 3:0.048362581 4:-0.84942831 5:-1.0017718 6:-0.91480075 
1 1:0.25414043 2:0.38348994 3:0.34732851 4:0.56031019 5:0.59194879 6:0.47546094 
0.04334914419474066 1:0.41818551 2:0.23222853 3:0.89502743 4:0.89207139 5:0.32390835 6:-0.29456261 
0.32986184182751982 1:0.42029667 2:-0.23127112 3:-0.41856064 4:2.9126814 5:3.2904286 6:4.0779958 
1 1:-0.42103253 2:-0.82315598 3:-0.72509973 4:0.11497788 5:0.05664036 6:0.19374685 
0.93642454941604081 1:-0.41154794 2:-0.82325942 3:-0.31729575 4:1.4010551 5:1.3128772 6:0.4903792 
0.33606010782428974 1:-0.81047148 2:3.1143114 3:0.95783598 4:-0.89972734 5:-0.9317105 6:-1.0839498 
0.38864723367010445 1:0.45172952 2:1.3718213 3:0.22782551 4:0.73821552 5:-0.29868703 6:-0.60264737 
1 1:-0.60178706 2:-0.82325942 3:-0.7252109 4:0.42329654 5:0.23561722 6:0.16571859 
0.31445516667793638 1:2.0892091 2:1.3648192 3:1.7051466 4:0.51327339 5:0.072475602 6:-0.4322175 
1 1:-0.28380702 2:-0.46597695 3:-0.34034871 4:-0.57775284 5:-0.84782233 6:-0.65591612 
0.49511224063100351 1:-0.81223078 2:-0.60426855 3:-0.7252109 4:3.3967811 5:3.5749222 6:2.7197556 
1 1:-0.25617426 2:0.016595487 3:-0.15807885 4:-0.99084218 5:-0.84202895 6:-0.73013072 
1 1:-0.0015447041 2:-0.10241645 3:-0.13360158 4:-0.26662715 5:-0.1160024 6:-0.18975803 
0.10666306339895616 1:0.25367128 2:-0.82263082 3:-0.72458559 4:0.76681693 5:0.79131836 6:0.73502367 
1 1:-0.48525876 2:-0.56570127 3:-0.72372406 4:-0.38687446 5:-0.31815279 6:-0.31799483 
0.16057836539646164 1:-0.42642772 2:0.13579043 3:0.34204815 4:1.9989536 5:1.8363671 6:1.9096486 
0.13000889545813907 1:0.27454833 2:0.24145858 3:-0.7252109 4:0.14145505 5:0.26126259 6:0.073722627 
1 1:-0.073558774 2:1.0848941 3:-0.16099694 4:-0.72409799 5:-0.79189689 6:-0.34549567 
1 1:-0.19612344 2:-0.29327159 3:-0.2355821 4:0.39317781 5:0.3860134 6:0.28619488 
1 1:0.26876218 2:-0.2437476 3:-0.21045173 4:-0.78023869 5:-0.84596845 6:-0.93318488 
1 1:-0.11928497 2:0.1709601 3:-0.025284615 4:-0.46630596 5:0.046675744 6:-0.034773842 
1 1:0.49254532 2:0.64185175 3:0.48128304 4:-0.67046086 5:-0.72090866 6:-0.53039174 
1 1:-0.29831148 2:-0.13829429 3:-0.47003031 4:0.25161221 5:0.17312595 6:0.17815048 
0.57905630906397054 1:0.39418082 2:0.4397455 3:0.26471859 4:-0.39241266 5:0.34190646 6:0.35739569 
1 1:-0.80698415 2:-0.56681524 3:-0.7252109 4:0.44461483 5:0.53895867 6:0.49271489 
0.2015289132839482 1:1.9387692 2:1.9104265 3:1.6638764 4:0.36510746 5:0.46804768 6:0.85647944 
1 1:-0.052877209 2:-0.28646841 3:-0.12435399 4:-0.0063315482 5:-0.018441862 6:0.36123827 
0.2683525741315218 1:0.68075147 2:1.7335438 3:0.49941692 4:1.0482791 5:0.1298687 6:-0.45127973 
0.21338558928213405 1:0.46869701 2:1.362273 3:1.3692181 4:0.57958011 5:0.32668917 6:0.31068193 
1 1:-0.81118302 2:-0.82325942 3:-0.49619591 4:1.3074367 5:1.3819343 6:1.0589308 
0.12455140218235536 1:-0.49235851 2:-0.4929271 3:-0.36794557 4:1.3905856 5:1.7493119 6:1.4740805 
0.34395191524627683 1:0.11652397 2:0.47674527 3:1.5791821 4:-0.48792772 5:0.53046171 6:-0.4308613 
1 1:-0.6090823 2:-0.82001299 3:-0.7252109 4:0.50310737 5:0.40408875 6:0.4688306 
0.72124155885936303 1:0.2189544 2:0.078182195 3:-0.066909177 4:0.52654991 5:0.23160048 6:0.093387612 
0.32845039600267883 1:0.17031949 2:3.9018097 3:0.78726629 4:-0.77743165 5:-1.2215341 6:-1.1853638 
0.024493022159370999 1:0.43562214 2:0.36678037 3:-0.0069422946 4:0.84435179 5:1.2480685 6:1.1742083 
1 1:-0.66613058 2:-0.50763948 3:-0.29061601 4:0.6872337 5:0.43537301 6:0.35317638 
0.21685955277036256 1:1.783638 2:-0.74012532 3:1.1910753 4:0.03516705 5:0.11542387 6:-0.11742705 
0.55341942747044304 1:0.56041525 2:0.98972912 3:0.89398525 4:1.4830661 5:1.4438848 6:0.62984237 
0.31351570578416321 1:2.7421835 2:3.0218518 3:1.870019 4:0.73282905 5:0.18185464 6:0.12864896 
0.33791440065210093 1:0.4528242 2:2.9348824 3:0.98548842 4:1.0188432 5:0.18000076 6:0.39642428 
0.40662586109227022 1:-0.23503136 2:0.76263809 3:0.73133611 4:-0.97536555 5:-0.42567795 6:-0.18644286 
1 1:2.7956663 2:2.3282454 3:1.1458448 4:-1.2166947 5:-1.0519038 6:-1.0630793 
0.32322578000591201 1:1.0885966 2:2.7868834 3:1.732799 4:0.038960341 5:0.25709135 6:0.71505731 
0.32509449294302456 1:-0.81223078 2:0.43568746 3:-0.7252109 4:0.15359358 5:-0.50516314 6:-0.47682161 
0.42785302496681987 1:0.36595381 2:0.34752458 3:-0.20500462 4:-0.28422801 5:0.013614848 6:0.5184828 
0.25544572779537106 1:0.48261504 2:0.11629593 3:0.21497199 4:0.80027375 5:1.0552648 6:1.2291347 
0.84426605037654778 1:-0.81223078 2:-0.42582623 3:-0.7252109 4:-0.0095179122 5:-0.044009985 6:0.15343739 
0.31916473445430715 1:-0.47010531 2:0.057414584 3:0.55354066 4:1.0980471 5:0.64856944 6:2.028392 
0.1581050371609834 1:-0.67830494 2:0.94158964 3:-0.70377678 4:0.78472126 5:0.37442664 6:0.60407446 
1 1:-0.36276446 2:-0.49968254 3:-0.49797456 4:-0.30804988 5:-0.36843934 6:-0.27331538 
1 1:-0.81180073 2:-0.57085736 3:-0.72152159 4:1.4590925 5:1.2191016 6:1.2451078 
0.36624393260678267 1:3.2059354 2:3.6956454 3:0.89412421 4:-1.6576268 5:-1.4868709 6:-1.2748734 
1 1:-0.20347341 2:-0.82325942 3:-0.34805388 4:-0.62213434 5:-0.72129489 6:-0.51336382 
0.3325907024985077 1:1.5696287 2:1.2710865 3:-0.72320992 4:2.1185181 5:2.5320363 6:2.0789483 
0.038012167586545992 1:-0.030686554 2:-0.82325942 3:0.027935906 4:0.96915105 5:1.0582774 6:1.1779002 
1 1:-0.069680492 2:-0.41917423 3:-0.6857888 4:-0.087052771 5:-0.11623414 6:-0.2088956 
1 1:-0.10265371 2:-0.023109639 3:-0.065290328 4:-0.030229279 5:0.0057358492 6:-0.095803105 
1 1:-0.70723568 2:-0.82325942 3:-0.7252109 4:-0.25539901 5:-0.23071135 6:-0.12684515 
0.12485219295672674 1:2.7220102 2:2.1988656 3:1.5443734 4:0.10412907 5:0.47337759 6:0.38271153 
1 1:-0.59720506 2:-0.50362123 3:-0.29358969 4:-0.34560346 5:-0.36264596 6:-0.33321448 
1 1:-0.53732626 2:-0.78796244 3:-0.7252109 4:0.88668491 5:0.75972512 6:0.80547103 
0.51128919412737084 1:1.6518076 2:1.4793992 3:1.4184089 4:-0.078783398 5:0.20595511 6:0.54575761 
0.33249529637360242 1:2.8886356 2:3.1830594 3:1.2507573 4:1.1734577 5:1.6518286 6:1.235539 
0.42859677856386014 1:-0.1171269 2:-0.042659838 3:-0.097041997 4:-0.41198604 5:0.35310699 6:0.75159952 
0.33751961695887644 1:6.8565249 2:5.6108806 3:6.608174 4:-0.52206733 5:0.76992147 6:0.18041082 
0.33747577910880744 1:-0.31043893 2:-0.82325942 3:4.4464203 4:0.86369757 5:1.0164105 6:-0.37269513 
0.10688663792959556 1:0.66964832 2:0.30415926 3:0.38443002 4:1.4434641 5:1.9411114 6:1.3216581 
1 1:-0.56771135 2:-0.82325942 3:-0.41355819 4:-0.32003668 5:-0.36249147 6:-0.33027603 
0.30194025792487028 1:1.0298751 2:1.0833823 3:1.2870251 4:1.2471234 5:0.81827689 6:1.1523584 
0.24626970839881973 1:1.2328593 2:-0.72846841 3:1.7239753 4:0.078334697 5:0.006431055 6:-0.082165702 
0.21233209782975254 1:-0.23331116 2:0.51207408 3:1.4742696 4:0.86953924 5:0.14894824 6:-0.45497162 
1 1:-0.34815053 2:-0.087823423 3:-0.20114161 4:-1.6468538 5:-1.6610586 6:-1.588383 
0.31497139261292356 1:0.019645104 2:1.5966049 3:1.0284261 4:1.1672367 5:-0.068573922 6:0.40222582 
0.056520775808669245 1:0.53234462 2:0.59347356 3:0.67144566 4:0.42261375 5:-0.14442859 6:0.043810753 
0.33748643267298017 1:2.9634646 2:0.54469753 3:5.2489663 4:0.45963626 5:1.3149628 6:1.5178558 
1 1:0.06139919 2:0.010627783 3:0.12923554 4:0.016048866 5:0.11156161 6:-0.066192611 
0.92689622059416776 1:1.2031467 2:2.5163474 3:3.0719274 4:-0.76521726 5:-0.83376373 6:-0.8298872 
0.12818489130993241 1:0.69482588 2:1.288353 3:1.4568305 4:1.3251893 5:1.4655907 6:1.3814065 
0.4090183154182182 1:2.6101968 2:2.8845946 3:0.055796779 4:-0.58518769 5:-0.056214709 6:-0.32801569 
0.083780503337767459 1:0.660109 2:-0.21714755 3:-0.6617423 4:0.9439636 5:1.3264723 6:1.0871098 
1 1:-0.22699331 2:-0.22043377 3:-0.2141063 4:0.41176494 5:-0.23248799 6:0.089620374 
1 1:0.31458221 2:-0.18549485 3:-0.025354094 4:-0.42200033 5:-0.67687896 6:-0.81105101 
0.52369885161648577 1:3.0571376 2:1.1042295 3:0.15042648 4:-0.91345905 5:-1.1157083 6:-1.0856073 
1 1:-0.81223078 2:-0.60287608 3:-0.7252109 4:-0.53617837 5:-0.65030665 6:-0.68183473 
1 1:0.3429656 2:0.39391353 3:0.22157245 4:0.011648649 5:-0.2095462 6:-0.45271128 
0.33403658609451431 1:2.1600503 2:-0.37652504 3:1.6007204 4:0.65119744 5:0.7223385 6:0.49369437 
1 1:0.37627504 2:0.17804178 3:-0.083549275 4:-0.12544087 5:-0.60403685 6:-0.64310751 
0.012257412360061776 1:0.41818551 2:0.42231981 3:0.55326275 4:0.70088954 5:0.57734947 6:0.6453634 
0.22921123998010134 1:-0.072542289 2:0.088924062 3:-0.12476391 4:2.4310094 5:2.5002886 6:1.4929167 
0.26632737571531473 1:0.15554136 2:0.17724609 3:0.9303225 4:-0.45318118 5:0.097116784 6:0.088113478 
0.22307461444224433 1:1.2999474 2:1.5453622 3:0.23678824 4:0.69163391 5:-0.11754731 6:0.83289653 
0.88751415823736213 1:-0.62292213 2:-0.38550047 3:-0.20867308 4:0.63336897 5:0.86825446 6:1.2648481 
1 1:-0.15031905 2:0.32397204 3:0.42451911 4:-1.0000978 5:-1.0485051 6:-0.99941293 
0.45296730111258249 1:-0.40194606 2:0.064894107 3:0.70444794 4:1.6652199 5:1.0811419 6:0.60882118 
0.19521414510919133 1:1.8881014 2:2.0369419 3:1.4247314 4:-0.05139584 5:0.13218605 6:0.28024264 
1 1:1.0165826 2:-0.016107532 3:0.71285483 4:-0.5427787 5:-0.7029878 6:-0.46243076 
0.69616839900089245 1:-0.35941006 2:-0.82101557 3:-0.42445242 4:0.453567 5:0.17281697 6:0.2073089 
1 1:-0.42309677 2:-0.525837 3:-0.43686823 4:0.17476014 5:0.24681776 6:0.24603612 
1 1:-0.43782799 2:-0.5162648 3:-0.29959263 4:0.91126544 5:0.9697545 6:0.89219286 
1 1:0.071173086 2:0.12958402 3:0.08331026 4:-1.217681 5:-0.5136601 6:-0.58486601 
0.26941336924379838 1:0.31849177 2:0.88286743 3:1.1243064 4:1.291429 5:1.8269432 6:2.373245 
1 1:0.042007779 2:-0.0074344689 3:0.094635254 4:-0.11603351 5:-0.15114892 6:-0.13528376 
0.1479140136325495 1:2.1837422 2:0.91453605 3:-0.035706388 4:-0.98735235 5:-1.2074754 6:-1.2040493 
0.29645264607733679 1:0.29151581 2:0.31864089 3:0.30286228 4:0.40197825 5:0.16710083 6:0.13264224 
1 1:-0.64292344 2:-0.4309505 3:-0.43434616 4:-0.25684046 5:-0.19162534 6:-0.054890895 
0.20897074876009092 1:1.556649 2:1.779137 3:0.88696792 4:1.2278535 5:1.5220569 6:1.1703658 
1 1:-0.81223078 2:-0.82325942 3:-0.57776365 4:0.21443796 5:0.19313242 6:0.21408993 
0.33740039678365624 1:2.9733167 2:3.748002 3:4.8079864 4:-1.132863 5:-1.0071017 6:1.0022716 
0.26858858822430798 1:0.9036745 2:1.3843933 3:0.52852841 4:0.93888059 5:0.36701111 6:-0.083446563 
0.32688269113133256 1:-0.036957486 2:3.3216692 3:0.44313935 4:-0.22072833 5:-0.93418234 6:-1.0994708 
0.43989551075084971 1:-0.79602957 2:-0.38413187 3:-0.41773385 4:1.0570037 5:1.1642576 6:1.0843974 
0.2892871954228094 1:-0.77213435 2:-0.058597587 3:0.27173592 4:-0.077569545 5:-0.085567841 6:-0.098967585 
1 1:-0.38359459 2:-0.15318172 3:-0.42569609 4:-0.0076971328 5:-0.019600538 6:-0.34172843 
0.70797922855198259 1:1.9003774 2:0.11955828 3:0.32884723 4:-0.39772327 5:-0.32850363 6:-0.55502948 
0.042907330134070498 1:0.11105058 2:1.0065183 3:0.6105825 4:-0.28020713 5:0.29872645 6:0.53603814 
1 1:1.8961551 2:2.2279084 3:2.1024246 4:-0.8916097 5:-0.49643444 6:-0.32470052 
1 1:-0.31274557 2:-0.24813187 3:-0.00096714471 4:-0.43618723 5:-0.43664675 6:-0.40207959 
1 1:-0.54710015 2:-0.66331699 3:-0.63154 4:1.2720074 5:0.7718526 6:0.93883128 
1 1:0.028637089 2:0.026541661 3:-0.16800732 4:-1.2290608 5:-1.1853834 6:-1.184083 
0.67880639875363302 1:0.41857647 2:0.62713142 3:1.2689606 4:-0.77280384 5:-0.8083501 6:-0.39688081 
0.62344828541059405 1:-0.10832257 2:0.14955594 3:0.36921424 4:0.7606718 5:0.13728423 6:0.99722347 
1 1:0.94980729 2:0.57604787 3:0.27354236 4:-1.0092017 5:-0.84751335 6:-0.81007152 
0.55084666253031456 1:2.277728 2:1.2289147 3:0.27722472 4:0.57927665 5:0.033621325 6:-0.37450341 
0.14098771231466051 1:-0.015853689 2:-0.073771469 3:-0.35113177 4:2.8475127 5:2.9140905 6:2.247796 
0.33754682294062405 1:5.8696741 2:3.1260081 3:1.8257612 4:-0.78714248 5:-0.41640854 6:1.046725 
0.21954851043808876 1:0.42037486 2:0.51080097 3:-0.10988162 4:1.4508231 5:2.0140308 6:1.3465218 
1 1:-0.80859489 2:-0.43974292 3:-0.72225111 4:1.0720251 5:1.1574601 6:1.0522252 
0.32752453639605655 1:0.38065375 2:0.79088522 3:-0.11506472 4:0.48808594 5:1.0879395 6:-2.2642256 
1 1:0.29612909 2:0.23795753 3:0.25387995 4:-0.71165599 5:-0.64891624 6:-0.54568673 
1 1:0.011435031 2:-0.045667561 3:0.033841577 4:0.79898404 5:0.64911016 6:0.68552216 
1 1:-0.11361611 2:-0.11006307 3:-0.46565316 4:-0.86945688 5:-1.1096059 6:-0.20671061 
1 1:-0.40924912 2:-0.10287 3:-0.012083703 4:0.50849385 5:0.69290812 6:0.54997692 
1 1:-0.29351054 2:-0.43304318 3:-0.11546074 4:0.21489316 5:0.079118679 6:0.34036777 
1 1:-0.81204312 2:-0.13110121 3:-0.72434936 4:0.5128182 5:0.30815035 6:0.31143538 
1 1:-0.49196756 2:-0.48458823 3:-0.49133936 4:-0.25380582 5:-0.27698116 6:-0.13061239 
1 1:0.50661973 2:-0.067214951 3:-0.38991466 4:-0.77280384 5:-0.68854297 6:-0.39296288 
0.12772766179382627 1:0.35015919 2:0.18997719 3:0.25068394 4:2.1369535 5:2.4113795 6:2.2852423 
1 1:-0.80649937 2:-0.82303663 3:-0.25343807 4:1.5015014 5:1.5346478 6:1.5051226 
1 1:-0.49291367 2:-0.82325942 3:-0.7252109 4:-0.075141839 5:-0.07158648 6:-0.018122647 
1 1:-0.27398621 2:-0.2572187 3:-0.45550236 4:0.74261574 5:0.75617184 6:0.81406034 
0.26621179487830243 1:2.5548375 2:1.8570355 3:0.95533475 4:0.61804408 5:0.00040593837 6:-0.41496355 
1 1:-0.49253053 2:-0.39957629 3:-0.2147455 4:0.11171565 5:-0.036594457 6:-0.028896949 
1 1:0.14045047 2:-0.027661008 3:-0.14289085 4:-0.80663999 5:-0.89401489 6:-0.3854284 
0.44766929713984405 1:-0.20685909 2:-0.82325942 3:-0.7252109 4:0.84093783 5:1.1146663 6:1.1925925 
1 1:0.007134516 2:0.024234148 3:-0.7252109 4:-0.16117367 5:-0.57136218 6:-0.39160667 
0.18193392830631025 1:1.5550852 2:0.59196174 3:-0.72315433 4:0.18029835 5:0.29053848 6:0.1519305 
1 1:1.4530457 2:0.93753161 3:0.6593564 4:-0.56918 5:-0.68220887 6:-0.7571795 
0.82112824887328462 1:0.021678074 2:0.70757607 3:1.4411283 4:-0.89259595 5:-1.0775492 6:-0.86688148 
0.33041797951283924 1:4.3106203 2:2.8218143 3:1.5903681 4:-0.58321518 5:-0.70561413 6:-0.85859356 
0.48204952880582891 1:-0.58278661 2:0.31728821 3:0.051836506 4:-0.1464557 5:0.26218953 6:0.60754032 
1 1:-0.81205876 2:-0.12721823 3:-0.71998611 4:-0.24576405 5:-0.65022941 6:-0.74143244 
1 1:-0.4123924 2:-0.39226387 3:-0.29937725 4:0.13151663 5:0.51810249 6:0.10016864 
0.018928155040582095 1:0.2977711 2:1.8287883 3:1.9435968 4:-0.30896027 5:-0.0062371389 6:0.17965737 
0.37904516757921675 1:1.2304354 2:0.80178623 3:0.36574031 4:-0.80535027 5:-0.33777304 6:0.82973205 
1 1:-0.43359785 2:-0.57564744 3:-0.40556122 4:0.012559039 5:0.072861828 6:0.016460602 
1 1:0.35101929 2:0.25116605 3:-0.19354067 4:-0.050106121 5:-0.082323547 6:-0.21567663 
0.3586962700997931 1:-0.81096409 2:-0.34053581 3:-0.7252109 4:1.9516133 5:1.1094909 6:1.7644593 
0.05173257839115223 1:1.6784708 2:1.3051422 3:0.43146696 4:0.14448968 5:-0.060385943 6:-0.23745127 
0.44333257121803465 1:1.8591706 2:-0.015789255 3:-0.092984453 4:-1.1252764 5:-0.5851118 6:-1.2711062 
1 1:0.35313046 2:0.089560617 3:-0.21314055 4:-0.95746122 5:-0.88181017 6:-0.56037896 
1 1:-0.32090873 2:-0.82325942 3:-0.27460817 4:0.4855065 5:0.4583148 6:0.54824399 
0.33605010483600156 1:0.996722 2:0.52679441 3:1.3708161 4:0.7045311 5:0.80290512 6:-2.2642256 
1 1:0.15499402 2:0.056380182 3:-0.22323577 4:-0.27815875 5:0.02945009 6:-0.10514586 
0.30579057314654362 1:-0.41318213 2:-0.057260821 3:0.92754336 4:1.0095117 5:1.208828 6:1.2936298 
1 1:-0.81223078 2:-0.82325942 3:-0.29805716 4:-0.11277128 5:-0.046095602 6:-0.067021403 
0.27738957785822205 1:-0.4880189 2:-0.82325942 3:-0.023617132 4:-0.10632269 5:-0.12874784 6:-0.52903553 
1 1:-0.55908686 2:0.07102095 3:-0.26245638 4:-0.76461033 5:-0.65617728 6:-0.75183002 
1 1:0.3138003 2:0.51310848 3:0.12346883 4:-0.52199147 5:-0.90034899 6:-0.64250476 
0.33778689320926353 1:-0.026018541 2:0.71314593 3:2.2463145 4:-0.70611779 5:-0.72330326 6:0.72229041 
1 1:0.92009465 2:0.64766032 3:0.41374995 4:-0.41008939 5:-0.34735143 6:-0.24046506 
0.44414738534877141 1:2.4790702 2:2.0000217 3:1.1292394 4:0.062402877 5:-0.67193528 6:-0.18742235 
1 1:-0.81223078 2:-0.82325942 3:-0.18400822 4:-0.4069789 5:-0.47333816 6:-0.44630697 
0.19172452028480563 1:0.14232705 2:-0.0112538 3:-0.53884875 4:0.95845397 5:0.83843786 6:1.1470089 
1 1:-0.81223078 2:-0.54159174 3:-0.7252109 4:-0.24492952 5:-0.24129393 6:-0.22856059 
0.19221830283181651 1:-0.81223078 2:0.43131115 3:-0.7252109 4:-0.39544729 5:0.36847877 6:0.41232202 
0.67809063237810219 1:0.62539212 2:0.87188686 3:0.68367387 4:-0.8443453 5:-0.78818913 6:-0.13279739 
1 1:-0.81223078 2:-0.74481992 3:-0.7252109 4:-0.055796057 5:0.064055888 6:0.049009543 
0.73807684598412959 1:1.4497617 2:1.3836772 3:0.99375636 4:0.32011904 5:0.54598797 6:0.17317772 
0.7930372071433488 1:-0.055997037 2:0.026541661 3:0.72765375 4:-0.67554387 5:-0.42699111 6:-0.40192891 
0.33025006620013347 1:2.8503219 2:2.3584022 3:0.97777631 4:0.6244168 5:1.237177 6:0.004028715 
1 1:-0.44165936 2:-0.56239914 3:-0.56664014 4:0.68328867 5:0.4881314 6:0.27029713 
1 1:-0.36317106 2:-0.34507126 3:-0.43726425 4:-1.3037886 5:-1.2479519 6:-1.250537 
0.22879545202687171 1:0.32599812 2:0.7592166 3:2.2902249 4:1.0179328 5:0.81781342 6:0.30088711 
1 1:-0.43486454 2:-0.82325942 3:-0.7252109 4:0.50523162 5:0.482647 6:0.58019017 
1 1:-0.71184114 2:-0.82325942 3:-0.7252109 4:0.02249746 5:0.019176494 6:-0.067774851 
1 1:0.33913424 2:-0.05508062 3:-0.34436457 4:-0.44271169 5:-0.18822656 6:-0.17386029 
0.33751668121353762 1:9.1926425 2:0.44348526 3:0.24151278 4:-0.13583449 5:-0.49589373 6:-0.24536247 
0.33757002368867056 1:5.7314321 2:4.2073561 3:1.1985095 4:0.23439067 5:0.072398357 6:0.37856757 
0.33411161929841338 1:-0.057795434 2:-0.21951076 3:-0.14480151 4:3.5080004 5:3.523477 6:5.4028582 
0.13858246015136053 1:0.36712668 2:0.97882812 3:0.66991713 4:1.2270189 5:0.85535453 6:0.67022717 
0.35720032066793012 1:3.5114283 2:2.8380465 3:1.7109133 4:-0.68866865 5:-0.64621266 6:-0.19427872 
1 1:-0.25258528 2:0.00020419256 3:-0.0087487353 4:-0.073472791 5:-0.15022198 6:0.026406112 
0.32812408669158238 1:-0.73417253 2:-0.014436575 3:0.90489337 4:-1.4518787 5:-1.4170414 6:0.14281378 
0.32025779008761424 1:4.1312497 2:1.3798578 3:0.049891108 4:0.072720627 5:0.38369605 6:0.29056487 
1 1:0.21183901 2:0.021290081 3:0.25311568 4:-0.59345706 5:-0.36179626 6:-0.36192083 
1 1:-0.2543524 2:-0.34708437 3:-0.58750453 4:-0.71332504 5:-0.75844977 6:-0.82039376 
1 1:-0.45217607 2:-0.47275626 3:-0.54631074 4:-0.30668429 5:-0.24538792 6:-0.30865208 
1 1:-0.80071322 2:-0.47725193 3:-0.7252109 4:1.454844 5:1.4459704 6:1.5294589 
0.29034185043076255 1:0.66816269 2:1.6711614 3:2.4267502 4:0.50204525 5:-0.52408818 6:0.033187141 
0.33130452285156142 1:1.6995043 2:1.4599046 3:0.2653439 4:2.2382343 5:1.5942038 6:1.1143092 
1 1:-0.69925236 2:-0.68122806 3:-0.7252109 4:1.0966815 5:0.81781342 6:1.3053082 
0.11649446177161847 1:0.072111381 2:-0.12812532 3:-0.5897209 4:0.38490844 5:0.61419538 6:0.41518512 
0.31077528179761787 1:3.2151619 2:3.1874357 3:2.0426731 4:0.098818466 5:-0.15601536 6:0.34624466 
1 1:-0.26340694 2:-0.24868886 3:-0.1380621 4:0.38384632 5:0.60762955 6:0.33547036 
0.46522654818241593 1:1.530064 2:1.3767546 3:0.72466618 4:-0.41904156 5:-0.47179326 6:-0.40539476 
0.33747396806944724 1:0.71046411 2:0.77831326 3:0.39707511 4:5.4868084 5:5.4049355 6:4.7075013 
1 1:-0.40506589 2:-0.82325942 3:-0.34717845 4:-1.0723221 5:-1.0769313 6:-1.101053 
0.33022573617915196 1:0.4785491 2:0.30352271 3:0.23449545 4:4.014253 5:3.9019779 6:3.5239103 
1 1:-0.41982056 2:-0.65173965 3:-0.19527763 4:0.010131333 5:0.12214419 6:0.032207659 
1 1:-0.36725264 2:-0.33777475 3:-0.43150449 4:-0.066341405 5:-0.14859983 6:-0.025732469 
0.15029520500681459 1:0.41732541 2:0.31084309 3:1.2484645 4:0.075982857 5:-0.13168316 6:-0.25545867 
1 1:-0.081698475 2:-0.19836122 3:-0.095895602 4:-0.0056487559 5:-0.48747401 6:0.10182623 
0.68843062030714608 1:0.55329986 2:0.32699568 3:0.22900665 4:0.52958454 5:0.72133431 6:0.4141303 
0.48736447383973686 1:1.0014135 2:0.10969167 3:0.012859074 4:0.53155705 5:0.73910068 6:0.14108085 
1 1:-0.2757846 2:-0.82325942 3:-0.7252109 4:-0.41486894 5:-0.26330878 6:-0.45143042 
0.26769715971112396 1:0.062572057 2:0.74744033 3:0.5004591 4:0.69307536 5:0.48295598 6:1.4904303 
0.23546100375242732 1:-0.81223078 2:-0.1524656 3:-0.7252109 4:2.2172195 5:1.7006475 6:2.0888938 
1 1:-0.38233572 2:-0.38095706 3:-0.11954608 4:-1.1023649 5:-1.0663487 6:-1.0710658 
1 1:-0.15873242 2:-0.29686017 3:-0.34545538 4:-0.58503595 5:-0.72670204 6:-0.74000089 
0.57262729603204554 1:0.9347164 2:1.7477867 3:0.73675543 4:-0.5423235 5:-1.2154317 6:-1.034825 
1 1:0.46470926 2:0.51493858 3:0.043290652 4:-0.23741881 5:-0.00098447315 6:-0.38904495 
1 1:-0.45345059 2:-0.46927908 3:-0.44439969 4:0.36025205 5:0.13836566 6:0.27986592 
0.373063815327908 1:-0.56859491 2:-0.16702679 3:0.34788434 4:-0.002765855 5:0.090473707 6:0.026707491 
1 1:-0.22082403 2:-0.17063129 3:0.1183969 4:-0.59413985 5:-0.77868798 6:-0.76170018 
0.7630617038669486 1:0.4776108 2:0.40027908 3:0.25811813 4:-0.056478849 5:0.694762 6:-0.14907186 
0.28396889543898024 1:3.1963179 2:2.5846975 3:1.8321533 4:-0.4122895 5:0.040496137 6:-0.10363896 
0.33912501340805984 1:0.17704393 2:2.2115967 3:0.22372628 4:-1.1377184 5:-0.52563309 6:-0.38000358 
1 1:-0.08165938 2:-0.024541888 3:-0.52975402 4:-0.66932287 5:-0.56147481 6:-0.66450543 
0.24238954633692403 1:-0.56556109 2:-0.30106939 3:0.58160997 4:0.57624201 5:1.2017215 6:0.97077746 
0.71435330013863363 1:-0.13369561 2:0.64065821 3:0.84541979 4:-0.27178602 5:-0.66791853 6:-0.35717411 
1 1:-0.52566795 2:-0.7303542 3:-0.58346783 4:0.99942151 5:0.65011434 6:-0.12880411 
1 1:-0.81223078 2:-0.51870758 3:-0.7252109 4:-0.54657199 5:-0.45356342 6:-0.33200896 
1 1:0.54118023 2:0.31776563 3:-0.19417987 4:0.091459482 5:-0.31398156 6:-0.36583876 
1 1:1.0663903 2:0.6560151 3:0.57577378 4:-0.71302158 5:-0.56981727 6:-0.34858481 
1 1:0.094239482 2:-0.52796946 3:-0.27574761 4:0.02993231 5:-0.1387897 6:-0.24664333 
0.47572295055409325 1:1.2897825 2:1.0737544 3:0.97638674 4:-0.69215848 5:0.049533812 6:0.63217806 
0.65065022583860832 1:2.0312694 2:1.6521443 3:1.2675711 4:-0.42480736 5:-0.4098427 6:-0.41338131 
1 1:-0.49931753 2:-0.19631629 3:-0.20240612 4:0.13083384 5:0.018481288 6:0.21484338 
0.32243666556673667 1:2.0383848 2:3.5992073 3:1.5436786 4:0.90125115 5:0.79603031 6:0.80057362 
0.95627702387249469 1:0.75690967 2:0.83806987 3:-0.061823352 4:-0.0025382576 5:0.20240183 6:0.28182488 
0.36769383607171202 1:1.9387692 2:2.8422637 3:1.4460613 4:-0.36730108 5:-0.74825342 6:0.078243313 
0.29039742619307751 1:0.22896287 2:0.20748245 3:0.82144971 4:-0.05230623 5:-0.15130341 6:1.512657 
0.23004895429174999 1:0.22192567 2:1.1258724 3:1.3046726 4:0.24698439 5:0.43838557 6:1.3257267 
0.59576730185611626 1:-0.22029233 2:0.083672483 3:0.23519023 4:1.0351543 5:1.3010587 6:0.26509834 
0.53768889194432201 1:0.48503896 2:0.37211152 3:0.49545665 4:-1.2799668 5:-0.66142994 6:0.38293756 
0.322978855447004 1:1.9332177 2:3.548999 3:1.3358684 4:0.53709526 5:0.96218448 6:1.5532679 
1 1:-0.12486782 2:-0.39086344 3:-0.43119878 4:-1.0841571 5:-0.71712365 6:-1.0684287 
0.81208000891874588 1:0.40630045 2:0.67519133 3:0.47947659 4:-0.99880809 5:-0.54687548 6:-0.0353766 
0.33389307732902762 1:0.84995717 2:0.35086649 3:2.7466291 4:-0.23590149 5:-0.83360924 6:-0.10296086 
1 1:-0.81223078 2:-0.72833314 3:-0.7252109 4:-0.39036428 5:-0.24840048 6:-0.41631976 
0.14994597989344477 1:1.2628066 2:1.6756968 3:1.311551 4:1.4410364 5:1.4118281 6:1.1562763 
1 1:-0.61425073 2:-0.82325942 3:-0.55991463 4:0.23036978 5:-0.0043832569 6:0.088565547 
1 1:-0.12582957 2:0.0080815622 3:0.32176043 4:0.52442567 5:0.60801577 6:0.12088845 
0.3108327467767078 1:0.082901762 2:0.40935 3:1.2036509 4:1.5356411 5:0.6680352 6:0.68936474 
0.24966856159024045 1:0.93119779 2:0.8117324 3:0.49524821 4:0.18682281 5:-0.090588771 6:-0.4906097 
0.44963390996659519 1:2.2214303 2:0.93920256 3:-0.0024956714 4:-0.69526898 5:-0.93534101 6:-0.7398502 
1 1:-0.18302642 2:-0.19193201 3:-0.212015 4:-0.29978051 5:-0.60063806 6:-0.53559053 
0.083446124244997991 1:0.19338589 2:1.9374801 3:1.636085 4:-0.62175501 5:-0.61994933 6:-0.6764099 
1 1:0.93518554 2:1.307211 3:1.3660916 4:0.21587941 5:-0.60426858 6:-0.60114048 
1 1:-0.68492773 2:-0.82325942 3:-0.6068265 4:0.075906991 5:0.023193238 6:0.13407379 
0.28967110396441281 1:-0.33867376 2:0.9539229 3:0.63587267 4:-0.36161114 5:-0.46059273 6:0.67911785 
1 1:-0.04773223 2:-0.30421238 3:0.0028541721 4:-0.54497881 5:-0.17501765 6:-0.15735978 
1 1:-0.81223078 2:-0.82325942 3:-0.44317687 4:-0.40879968 5:-0.46924417 6:-0.27527435 
0.041402382778696428 1:0.42412804 2:-0.8231719 3:-0.19414513 4:-0.22983223 5:-0.22538144 6:-0.13505773 
1 1:0.4714337 2:0.59331442 3:0.43806742 4:0.2878002 5:0.14122373 6:0.11930621 
0.33698970505512066 1:-0.81223078 2:-0.82325942 3:1.4339026 4:2.164341 5:2.0125631 6:1.4074757 
0.74058239044831975 1:0.69842267 2:0.27965189 3:0.049474237 4:-0.60392654 5:-1.0617912 6:-0.93687677 
0.033778598033078894 1:1.2157355 2:0.66675697 3:0.11846637 4:0.70149647 5:0.75617184 6:1.2479709 
1 1:0.78670051 2:0.41014569 3:0.22254515 4:-0.83486207 5:-0.85129836 6:-0.75928915 
0.53313627311921019 1:-0.051375938 2:-0.034320966 3:2.8940625 4:-0.37063917 5:-0.22638563 6:-0.90688955 
1 1:-0.51924064 2:-0.5698707 3:-0.56743915 4:-0.53299201 5:-0.88412752 6:-0.04675366 
1 1:0.018394045 2:0.26851218 3:0.5676448 4:-0.4098618 5:-0.43873237 6:-0.66548491 
0.18245411019291424 1:-0.011865939 2:0.34298912 3:0.15883338 4:0.81089497 5:0.85411861 6:0.60708825 
1 1:0.259692 2:-0.19802703 3:0.50580894 4:-1.1157173 5:-1.4296323 6:-1.4787564 
1 1:-0.31489583 2:-0.35099918 3:-0.083042082 4:-1.6460193 5:-1.6784387 6:-1.6158838 
0.94924896580346874 1:0.47956558 2:-0.82276609 3:0.1807191 4:-0.68654441 5:-0.67015864 6:-0.54726897 
1 1:-0.20323101 2:-0.34309794 3:-0.52791978 4:-0.42905585 5:-0.47395613 6:-0.67023163 
0.32484706545451364 1:3.1855275 2:2.6667336 3:1.8606394 4:-1.7215058 5:-1.7260989 6:-1.6647826 
0.2498412493686375 1:0.31012531 2:0.25458753 3:0.41048446 4:0.84002744 5:0.60330382 6:0.050742472 
1 1:0.28135096 2:-0.038999646 3:-0.36868204 4:-0.53208162 5:-0.60882604 6:-0.94441125 
1 1:-0.33637494 2:0.058289847 3:-0.13683927 4:-0.85064216 5:-0.77459399 6:-0.81067428 
0.6020177830386767 1:-0.2822041 2:-0.42250819 3:-0.19719524 4:0.79837711 5:0.85504555 6:0.81714947 
1 1:-0.81217605 2:-0.23372186 3:-0.72509278 4:0.23074911 5:0.53803173 6:0.35257362 
1 1:-0.23393669 2:-0.82325942 3:-0.43542307 4:-0.90807258 5:-0.86126298 6:-0.80351653 
0.87612894192980284 1:-0.36336654 2:-0.82325942 3:-0.7252109 4:0.64087969 5:0.8582126 6:0.7800045 
1 1:-0.81223078 2:-0.82325942 3:-0.43556898 4:0.39757803 5:0.44363823 6:0.25228973 
0.652574158341236 1:-0.27139026 2:0.095210044 3:0.11763263 4:0.21398277 5:0.30699168 6:0.41925374 
0.75949382208531102 1:-0.30283093 2:0.51692781 3:1.2883451 4:-0.66135696 5:-0.64829828 6:-0.58373583 
0.33758178379359072 1:2.1143084 2:-0.33173543 3:0.12013386 4:3.6101158 5:3.5153663 6:2.0181451 
1 1:-0.7174318 2:-0.82325942 3:-0.7252109 4:-0.21579705 5:-0.14288369 6:-0.11373516 
1 1:-0.22386567 2:-0.26513585 3:-0.32418802 4:0.21360344 5:0.033157854 6:0.039440757 
1 1:-0.81223078 2:-0.56462708 3:-0.37342742 4:-0.36677002 5:-0.12256824 6:-0.21484784 
0.37375287852673833 1:1.3773566 2:0.39908554 3:0.41117924 4:-1.2151015 5:-1.3811996 6:-1.5055791 
0.33327129191418553 1:-0.45136288 2:-0.61763621 3:-0.60133075 4:3.6409173 5:4.168319 6:5.996575 
1 1:-0.80915787 2:-0.5087455 3:-0.72465507 4:0.26223342 5:0.34893576 6:0.28973608 
0.55589404277831755 1:-0.44471663 2:-0.59365399 3:-0.27858928 4:0.78942494 5:1.4954845 6:1.7018478 
0.5894994009294986 1:1.0721765 2:0.275196 3:-0.42434125 4:1.3421832 5:0.62454622 6:0.39469135 
0.93679789225363186 1:1.4264607 2:1.171943 3:1.0603167 4:-0.69253781 5:-0.84952173 6:-0.73058279 
1 1:-0.56751587 2:-0.82325942 3:-0.51961016 4:-0.56022783 5:-0.52717799 6:-0.6533544 
1 1:-0.4537008 2:-0.35800129 3:-0.429038 4:0.69906876 5:0.74049109 6:0.66208994 
0.39470275122981358 1:-0.5413922 2:-0.012686049 3:0.37470304 4:0.66864657 5:0.36670213 6:0.60754032 
0.28553225637837421 1:0.9931252 2:1.6652732 3:1.4432127 4:1.7741632 5:1.6838853 6:1.8194609 
1 1:-0.045105006 2:-0.32751825 3:-0.011180482 4:-1.1245177 5:-1.2513507 6:-1.2937849 
1 1:-0.33142544 2:-0.82325942 3:-0.36088655 4:0.022649192 5:-0.1797296 6:0.13015586 
0.32267998717275631 1:-0.17196236 2:0.90077055 3:1.8032502 4:-0.39051602 5:-0.43973655 6:1.648805 
0.95491408862309124 1:0.90390908 2:0.70813305 3:0.46224593 4:-0.04957506 5:-0.09831328 6:-0.11365982 
1 1:-0.29385458 2:-0.82325942 3:-0.37093314 4:0.032891076 5:-0.41602231 6:-0.63918959 
