svm_type c_svc
kernel_type rbf
gamma 2.6390158215457884
nr_class 2
total_sv 25750
rho -0.79521185642120806
label 1 -1
nr_sv 14445 11305
SV
0.75785828325519899 1:-0.47667661 2:-0.53345892 3:-0.46400519 4:-0.11075033 5:-0.027481227 6:0.74575436 
0.25153703015245898 1:1.4040413 2:1.6771184 3:1.2236391 4:-1.1070647 5:-0.81091497 6:-0.72404294 
0.75785828325519899 1:-0.22105898 2:-0.17805794 3:-0.1831801 4:0.26552321 5:0.81967147 6:0.36503702 
0.75785828325519899 1:-0.76716521 2:-0.60176342 3:-0.53661187 4:0.052993972 5:0.23604389 6:0.59976678 
0.75785828325519899 1:-0.44491539 2:-0.39881711 3:-0.47183161 4:-1.2526327 5:-1.1976724 6:-0.59600852 
0.32019760822072546 1:1.5217183 2:1.1497527 3:0.16051109 4:-0.015383632 5:-0.10699106 6:-0.24678796 
0.15509084571606754 1:-0.79215903 2:1.6265882 3:-0.79139519 4:0.60245405 5:1.9201923 6:1.8497953 
0.32690610251524704 1:0.89760572 2:1.3936092 3:1.7240208 4:0.43886713 5:0.28421002 6:0.51511918 
0.75785828325519899 1:-0.3394382 2:0.25316923 3:0.56302396 4:-1.0299531 5:-1.0325427 6:-0.60734737 
0.75785828325519899 1:0.53994476 2:0.31611984 3:0.13395991 4:-0.50984263 5:-0.55175417 6:-0.26245761 
0.40435708204784715 1:1.0086465 2:1.9001456 3:2.2953344 4:-0.22098856 5:-0.31862054 6:-0.055996208 
0.0027575263821073845 1:-0.25822177 2:0.058145744 3:1.4415286 4:0.38284313 5:0.25730999 6:-0.20489724 
0.068676959529022308 1:-0.37669358 2:-0.068974389 3:-0.15573359 4:2.3768096 5:2.9253332 6:4.4635557 
0.75785828325519899 1:-0.5871078 2:-0.56626113 3:-0.55809981 4:0.80443945 5:0.86513967 6:0.90119098 
0.20381401849354153 1:6.9832436 2:0.56406505 3:0.77358103 4:0.60253274 5:0.70612 6:0.78362924 
0.22239897383932483 1:2.995729 2:2.1399906 3:0.75937924 4:-0.83174456 5:0.71143653 6:1.0343436 
0.050094888552202822 1:0.027335974 2:-0.57020326 3:0.27196432 4:-0.37088423 5:-0.62190057 6:0.3432255 
0.75785828325519899 1:0.050948542 2:-0.11640336 3:-0.1784719 4:-0.20186801 5:-0.53215444 6:-0.84609297 
0.75785828325519899 1:0.2591404 2:1.846761 3:2.6068477 4:-0.78610703 5:-0.44756613 6:-0.34206572 
0.75785828325519899 1:0.13420985 2:-0.28964871 3:-0.2702896 4:-0.51456375 5:-0.53104352 6:-0.53616464 
0.75785828325519899 1:-0.79215903 2:-0.55416473 3:-0.79139519 4:-0.59639655 5:-0.53151963 6:-0.54852713 
0.75785828325519899 1:0.39201897 2:0.31797133 3:0.33672142 4:0.04363041 5:0.08368971 6:-0.094343539 
0.22013555757107567 1:6.1226195 2:3.8499947 3:2.0340677 4:0.21618747 5:0.019177239 6:-0.56852758 
0.75785828325519899 1:-0.78293007 2:-0.25507987 3:-0.7585381 4:0.1858936 5:0.28833628 6:0.21015159 
0.60645360564535811 1:0.18297829 2:0.0405566 3:0.01100631 4:0.62007958 5:0.53265842 6:0.62960998 
0.75785828325519899 1:1.1622825 2:1.4549397 3:1.3841811 4:-0.076522181 5:-0.25410806 6:-0.71152297 
0.75785828325519899 1:-0.12301281 2:-0.061560719 3:0.13125848 4:-0.84134417 5:-0.60118992 6:0.27684603 
0.071564097544986868 1:1.4067421 2:1.3849689 3:1.3702109 4:-1.0864492 5:0.67763294 6:0.34228059 
0.75785828325519899 1:-0.56141949 2:-0.78397306 3:-0.59108039 4:0.33712692 5:0.33142395 6:0.49606363 
0.46187232022628072 1:0.29525374 2:0.84579992 3:0.95997961 4:-0.54052993 5:-0.37448373 6:-0.16576249 
0.75785828325519899 1:-0.088157263 2:0.2027933 3:0.23916126 4:-0.019553958 5:0.35316616 6:0.26180632 
0.053124880242470474 1:0.18822553 2:0.064008791 3:0.24641652 4:0.87155809 5:1.4759053 6:1.1124556 
0.068340609961052942 1:0.92661986 2:-0.79230476 3:0.50698862 4:0.54745296 5:-0.33123737 6:0.62504295 
0.15931323016767315 1:-0.79215903 2:-0.46155172 3:-0.78972802 4:1.7017676 5:1.7888662 6:2.0246812 
0.14752394336470959 1:2.0470594 2:2.6421298 3:1.8356284 4:-1.0216124 5:0.77031507 6:0.86733194 
0.52191159807024934 1:0.45637479 2:0.058454325 3:-0.0057425475 4:-0.21666086 5:-1.0647592 6:0.012666776 
0.75785828325519899 1:-0.11419282 2:-0.1463049 3:-0.53768473 4:-1.5622597 5:-1.5448336 6:-1.5600463 
0.75785828325519899 1:-0.47892211 2:-0.79148702 3:-0.38214418 4:-0.25812806 5:-0.30386123 6:-0.20529095 
0.75785828325519899 1:0.61440923 2:1.4219215 3:0.93944875 4:-0.78956919 5:-0.3967814 6:-0.64829318 
0.75785828325519899 1:-0.65312268 2:-0.76210235 3:-0.7776179 4:-1.2617602 5:-1.2768648 6:-1.2315348 
0.18138310951185022 1:2.0895774 2:1.6110819 3:-0.79139519 4:-1.1488467 5:-1.1703756 6:-1.1427139 
0.75785828325519899 1:-0.79215903 2:-0.79230476 3:-0.22331561 4:-0.49560057 5:-0.41296903 6:-0.022845845 
0.25875594126890517 1:0.91041515 2:0.39010225 3:0.14800734 4:0.10437553 5:0.12090539 6:0.11967709 
0.36359138734446239 1:2.7626128 2:1.618565 3:2.0918782 4:-0.72835195 5:0.10360684 6:0.37858063 
0.053399865700334427 1:0.58153684 2:0.1112989 3:1.8111612 4:0.11177196 5:-0.33822027 6:-0.62451311 
0.75458585794678779 1:-0.18834863 2:-0.1264014 3:0.24518158 4:0.7427501 5:0.48607931 6:0.77756611 
0.75785828325519899 1:-0.39435671 2:-0.34882692 3:-0.53425005 4:0.91302529 5:1.0063053 6:0.82307896 
0.22789491110067547 1:2.3806448 2:1.3576594 3:0.13403709 4:0.11877496 5:-0.018276496 6:-0.21615734 
0.18930562414001759 1:0.60908483 2:0.73039046 3:2.1993179 4:-0.37717906 5:0.78055136 6:1.0520606 
0.75785828325519899 1:0.73694766 2:1.7774845 3:2.1297754 4:-1.026727 5:-0.44970861 6:-0.58648075 
0.75785828325519899 1:-0.30682816 2:-0.40776597 3:-0.21925575 4:0.37914491 5:0.52908762 6:0.40015593 
0.75785828325519899 1:-0.79215903 2:-0.79230476 3:-0.24399312 4:-0.23436507 5:-0.45423162 6:-0.014341714 
0.75785828325519899 1:-0.41275291 2:-0.44028275 3:-0.57179219 4:1.344536 5:1.7499048 6:1.5674266 
0.75785828325519899 1:-0.11744148 2:0.069563258 3:1.3624153 4:-0.86243186 5:-0.79448928 6:-0.9319217 
0.75785828325519899 1:-0.57456073 2:-0.39066285 3:-0.65569085 4:0.53777466 5:0.42593115 6:0.52756041 
0.75785828325519899 1:-0.66103983 2:-0.79230476 3:-0.79139519 4:0.18628702 5:0.19057569 6:0.1151888 
0.75785828325519899 1:1.8815399 2:1.55222 3:1.347596 4:-0.18676041 5:-0.044779775 6:-0.081902311 
0.16013283587574545 1:0.69250047 2:0.82203915 3:1.4247025 4:0.76942445 5:0.8214172 6:0.052510204 
0.75785828325519899 1:0.6893367 2:-0.31433522 3:-0.22720567 4:0.29046648 5:-0.50874585 6:-0.66191554 
0.75785828325519899 1:-0.30857981 2:-0.43111788 3:-0.41245421 4:0.052915287 5:-0.061840268 6:0.061329303 
0.75785828325519899 1:-0.094901506 2:-0.10512471 3:0.20365677 4:-0.39102769 5:-0.38011766 6:-0.33214424 
0.22866976370508985 1:4.1245795 2:3.1715784 3:3.378916 4:0.082500993 5:0.24993034 6:0.13196083 
0.19773336126077909 1:2.613761 2:1.3674569 3:0.52898596 4:0.77147027 5:-0.85614511 6:-0.59262262 
0.20505973762325508 1:5.0965531 2:3.4907288 3:3.6302261 4:2.7856589 5:1.2837169 6:1.4008874 
0.75785828325519899 1:-0.53459685 2:-0.43663377 3:-0.17122435 4:-0.17535103 5:0.055123302 6:-0.14828178 
0.75785828325519899 1:0.078187877 2:0.17239803 3:0.24587624 4:-0.33500369 5:-0.47399006 6:-0.30159236 
0.67439643028210539 1:-0.58227726 2:-0.23688899 3:0.23368122 4:0.28786986 5:0.41148924 6:0.32188643 
0.50073123928369012 1:0.18876569 2:-0.0098964684 3:0.02358725 4:0.45397472 5:0.55836819 6:0.76543985 
0.044360379023742513 1:1.0162859 2:0.29097046 3:-0.23547204 4:1.3342282 5:1.3411671 6:1.2019065 
0.75785828325519899 1:-0.49655437 2:-0.79230476 3:-0.79139519 4:0.75738559 5:0.82784464 6:0.66858725 
0.75785828325519899 1:-0.28180347 2:-0.78748318 3:-0.79139519 4:0.39582622 5:0.499569 6:0.59756201 
0.75785828325519899 1:-0.58624355 2:-0.7679654 3:-0.74023013 4:0.50598576 5:0.60510601 6:1.2477343 
0.75785828325519899 1:-0.45115806 2:-0.79139445 3:-0.52575985 4:-0.021521093 5:-0.11056186 6:0.0023515796 
0.75785828325519899 1:-0.57815663 2:-0.59986565 3:-0.4068584 4:-0.83764596 5:-0.89851862 6:-1.0649169 
0.75785828325519899 1:-0.70351159 2:-0.79230476 3:-0.64118804 4:-0.036471317 5:0.085276733 6:0.30424823 
0.75785828325519899 1:-0.79215903 2:-0.79107044 3:-0.37817694 4:0.50811027 5:0.60518536 6:0.50299292 
0.75785828325519899 1:-0.71733189 2:-0.42638115 3:-0.2354103 4:0.031906287 5:0.060122424 6:0.0032964831 
0.28785456518376118 1:4.9638288 2:3.5802174 3:2.099751 4:-0.29164804 5:0.2823056 6:0.090070116 
0.75785828325519899 1:-0.055662974 2:-0.095782403 3:0.14746705 4:-0.82521367 5:-0.76314559 6:-0.81365128 
0.48902845658819294 1:0.2136129 2:0.31133683 3:0.10594223 4:1.4809764 5:0.82665437 6:-0.88585766 
0.75785828325519899 1:-0.7902299 2:0.49347704 3:0.036862842 4:-0.68735687 5:-0.70244197 6:-0.75357117 
0.75785828325519899 1:-0.60426935 2:-0.53640587 3:-0.43842652 4:0.49457638 5:0.63779868 6:0.79307828 
0.13435079346864709 1:-0.79215903 2:-0.79230476 3:-0.23472336 4:0.51755252 5:0.43465977 6:0.49157534 
0.75785828325519899 1:0.77421848 2:-0.10379009 3:0.57761168 4:-0.83292484 5:-0.4773228 6:-0.79766667 
0.75785828325519899 1:-0.45397459 2:-0.3765761 3:-0.47894795 4:-0.59269834 5:-0.48097296 6:-0.53632212 
0.085464389680398531 1:-0.28208898 2:0.34558937 3:-0.79139519 4:2.358948 5:0.95123565 6:1.3255314 
0.75785828325519899 1:-0.39933387 2:-0.79230476 3:-0.70059631 4:-0.69207799 5:-0.38360911 6:-0.51773902 
0.75785828325519899 1:2.9442598 2:2.2175217 3:1.8792372 4:-0.59694735 5:-0.4982715 6:-0.40553174 
0.75785828325519899 1:0.2571341 2:-0.4081517 3:0.054537904 4:-0.81010608 5:-0.67514518 6:-0.52647938 
0.093230207402908855 1:1.6072946 2:1.196657 3:1.4046348 4:1.215728 5:0.61185085 6:1.3138776 
0.39216272459443713 1:1.8514454 2:1.2316039 3:0.21515713 4:-0.60670434 5:-0.21974902 6:0.12542525 
0.75785828325519899 1:-0.05407337 2:-0.054795071 3:0.068199415 4:-0.50441333 5:-0.49985852 6:-0.46419449 
0.50915372707497653 1:0.20512472 2:1.8460667 3:2.455259 4:-1.1874025 5:-1.0051665 6:-1.0111361 
0.75785828325519899 1:-0.70371222 2:-0.62854058 3:-0.53550815 4:0.05472505 5:0.070676125 6:0.12865367 
0.22000568576006491 1:0.63779031 2:0.20935066 3:-0.32468094 4:1.3982781 5:0.094402113 6:0.15424481 
0.75785828325519899 1:-0.29445857 2:-0.2348755 3:-0.39700976 4:-0.51338347 5:-0.035178287 6:-0.24576432 
0.023910891024560402 1:1.0030906 2:2.3730467 3:3.0846919 4:1.1502617 5:1.1644521 6:1.1330073 
0.32559306190526133 1:-0.1209988 2:1.2031373 3:0.60856233 4:0.84818853 5:1.7187992 6:2.2983882 
0.75785828325519899 1:0.61711002 2:1.2376212 3:0.98043329 4:-0.27174063 5:-0.31862054 6:-0.67191577 
0.75785828325519899 1:-0.31930578 2:-0.29827356 3:-0.41765639 4:0.91129421 5:0.85077712 6:0.81890564 
0.75785828325519899 1:-0.24133029 2:-0.28265934 3:-0.46977081 4:-0.66257097 5:-0.76433585 6:-0.74089372 
0.18010299057473012 1:0.17649641 2:2.2018612 3:0.32128469 4:-1.0236582 5:0.59312399 6:1.6865632 
0.26705894824322751 1:6.7493557 2:0.032302046 3:-0.018555038 4:0.067393398 5:0.026794948 6:0.32361875 
0.75785828325519899 1:-0.032683161 2:-0.158193 3:-0.1417865 4:-0.20957918 5:-0.15833125 6:-0.1211158 
0.75785828325519899 1:-0.79215903 2:-0.79230476 3:-0.46948523 4:0.031827602 5:0.073770819 6:0.2281835 
0.75785828325519899 1:-0.51326065 2:-0.5501146 3:-0.5030061 4:1.442578 5:0.68310817 6:0.69764303 
0.68735238399331167 1:1.3998744 2:1.8518526 3:0.85562728 4:-0.2374338 5:-0.41257228 6:-0.46490317 
0.75785828325519899 1:0.88394747 2:1.1325492 3:0.52234817 4:0.28432902 5:0.39157211 6:0.52094608 
0.75785828325519899 1:-0.73885328 2:-0.37303513 3:-0.45309142 4:0.63526586 5:0.60954967 6:0.68307577 
0.24554990546441352 1:2.1970686 2:4.1643621 3:4.9066897 4:-0.42423292 5:-0.69347529 6:-0.39537403 
0.75785828325519899 1:-0.28937338 2:-0.27145783 3:0.6489294 4:-0.51826196 5:-0.55143676 6:-0.52348719 
0.75785828325519899 1:-0.44149697 2:-0.47530674 3:-0.37768297 4:0.74204194 5:0.61066059 6:0.78173943 
0.75785828325519899 1:-0.52725843 2:-0.79230476 3:-0.5664588 4:-0.91617398 5:-0.81821527 6:-0.90341711 
0.75785828325519899 1:-0.10953976 2:0.068714659 3:-0.076820995 4:0.42423164 5:1.1096205 6:0.55378148 
0.75785828325519899 1:-0.0011380048 2:-0.0052677465 3:0.21886195 4:-0.66681998 5:-0.58984271 6:-0.68246719 
0.20709928224327323 1:-0.030700014 2:0.60317775 3:4.5117409 4:0.17353999 5:2.223155 6:-0.16631368 
0.75785828325519899 1:0.011825758 2:-0.099986826 3:-0.31045598 4:0.4912716 5:0.53599117 6:0.10408618 
0.75785828325519899 1:-0.79215903 2:-0.79230476 3:-0.52169999 4:0.025218029 5:0.035285519 6:-0.030562557 
0.55977061401274275 1:-0.0333082 2:0.73825928 3:0.88596047 4:0.48159329 5:0.51067816 6:0.28668877 
0.75785828325519899 1:-0.54854061 2:-0.79230476 3:-0.79139519 4:-0.039067935 5:-0.024227831 6:-0.11387154 
0.75785828325519899 1:-0.61522682 2:-0.68064456 3:-0.5105701 4:-0.58412163 5:-0.75703555 6:-1.1052327 
0.75785828325519899 1:-0.55165808 2:-0.14902813 3:-0.23598145 4:-1.3979646 5:-1.1025304 6:-1.1019256 
0.75785828325519899 1:0.40397958 2:0.26003516 3:0.22627158 4:-0.83331827 5:-0.77846035 6:-0.88459778 
0.70149328339494521 1:0.26886322 2:0.16468349 3:0.41398229 4:-2.335265 5:-1.0757097 6:0.31802807 
0.75785828325519899 1:-0.27113152 2:0.17340092 3:-0.29391552 4:-0.49426292 5:0.096465243 6:-0.058122241 
0.64249792893470192 1:-0.21216954 2:-0.79230476 3:-0.79139519 4:1.9794484 5:1.9664541 6:2.5927256 
0.75785828325519899 1:-0.79215903 2:-0.79230476 3:-0.41690771 4:-0.15489283 5:-0.16348907 6:-0.049696852 
0.75785828325519899 1:-0.1806321 2:-0.084874049 3:0.43343257 4:-1.1765439 5:-1.1193528 6:-1.0479086 
0.75785828325519899 1:-0.31600311 2:-0.24720333 3:-0.45668046 4:-0.60395035 5:-0.57905096 6:-0.52994403 
0.75785828325519899 1:-0.51890143 2:-0.37127622 3:-0.76763805 4:0.65784857 5:0.60748654 6:0.73992746 
0.75785828325519899 1:-0.79215903 2:-0.40789712 3:-0.79139519 4:0.15024911 5:0.27571945 6:0.23897115 
0.75785828325519899 1:-0.34739394 2:-0.36301395 3:-0.18583522 4:0.70340741 5:0.57804727 6:0.65661847 
0.75785828325519899 1:-0.26459562 2:-0.33279611 3:-0.62834467 4:-0.22893578 5:0.021557773 6:-0.17371543 
0.75785828325519899 1:0.22264123 2:0.055137074 3:0.14916509 4:-0.63849324 5:-0.68688915 6:-0.35631802 
0.16362468939691024 1:1.4524239 2:0.79889554 3:0.36628277 4:-0.50559361 5:-0.37146839 6:-0.14395097 
0.75785828325519899 1:0.03065408 2:0.17062369 3:0.16120574 4:-0.41321697 5:-0.38170469 6:-0.59041785 
0.75785828325519899 1:-0.44013886 2:-0.43175047 3:-0.58066832 4:2.0981846 5:1.4831263 6:1.6512868 
0.75785828325519899 1:-0.78651825 2:-0.79182646 3:-0.5161582 4:-0.50826892 5:-0.61944068 6:-0.49671492 
0.75785828325519899 1:-0.39407892 2:-0.16387862 3:-0.30550851 4:0.13049908 5:-0.10016687 6:-0.16796727 
0.75785828325519899 1:1.2686934 2:0.79218389 3:0.56178903 4:-0.45405468 5:-0.65260946 6:-0.51002231 
0.75785828325519899 1:-0.47171488 2:-0.79230476 3:-0.79139519 4:0.35223451 5:0.36459272 6:0.57094723 
0.75785828325519899 1:0.15681927 2:-0.0086621426 3:-0.19644026 4:-0.039776103 5:0.083531008 6:0.16574113 
0.75785828325519899 1:-0.61245659 2:-0.5346161 3:-0.53793943 4:0.9108221 5:0.79848472 6:0.6069323 
0.051484689701179656 1:4.0758111 2:1.9410327 3:0.51733123 4:-0.31257835 5:-0.2845789 6:-0.34308937 
0.75785828325519899 1:-0.3822109 2:-0.31089454 3:-0.4249734 4:-0.46168717 5:-0.30513084 6:0.14944155 
0.75785828325519899 1:0.21785699 2:0.54894456 3:0.0082276979 4:-0.88147372 5:-0.64078614 6:-0.30686807 
0.75785828325519899 1:-0.40914157 2:-0.31543069 3:-0.33357249 4:0.96661004 5:0.894817 6:1.0961561 
0.75785828325519899 1:-0.27787576 2:0.10852167 3:-0.078750587 4:-1.2929196 5:-1.3288398 6:-1.1750769 
0.75785828325519899 1:-0.28780693 2:-0.28134786 3:-0.098000196 4:-0.46215928 5:-0.68236613 6:-0.78309941 
0.75785828325519899 1:-0.79215903 2:-0.50117358 3:-0.79139519 4:0.14080687 5:0.062106202 6:0.059045786 
0.75785828325519899 1:1.0343426 2:0.81694756 3:0.31950947 4:-0.20580228 5:-0.94120953 6:-0.47805308 
0.75785828325519899 1:0.58091951 2:0.63434448 3:0.58123931 4:-0.86518585 5:-0.91724549 6:-0.83892745 
0.75785828325519899 1:-0.48631455 2:-0.34321845 3:-0.79139519 4:0.99918579 5:0.59550452 6:0.70984803 
0.75785828325519899 1:-0.79215903 2:-0.79230476 3:-0.69971642 4:-0.1895144 5:-0.22006643 6:-0.17993604 
0.75785828325519899 1:-0.28002867 2:-0.53045025 3:-0.54815083 4:0.70411558 5:0.68898016 6:0.71102916 
0.75785828325519899 1:-0.12838351 2:0.034770698 3:-0.051728582 4:0.15363259 5:-0.16801208 6:0.076211532 
0.75785828325519899 1:-0.62795137 2:-0.58525432 3:-0.23079471 4:-0.17377732 5:-0.15222121 6:-0.06615392 
0.14105726490961737 1:-0.79151085 2:1.6097705 3:-0.017474466 4:0.72504589 5:1.7225287 6:1.7609744 
0.75785828325519899 1:-0.32134295 2:-0.46618816 3:-0.0087527109 4:-0.11751727 5:-0.0058977192 6:0.31424846 
0.35055826620566655 1:0.37627726 2:0.038627966 3:-0.039309728 4:1.581379 5:1.7354629 6:2.4025638 
0.12788812918912451 1:0.23599082 2:-0.11424329 3:-0.15562553 4:5.3217677 5:6.6857834 6:4.697498 
0.025633062603918101 1:0.055578458 2:0.090623942 3:0.14553746 4:1.211715 5:1.0858945 6:1.493488 
0.75785828325519899 1:-0.79025305 2:-0.79230476 3:-0.44325822 4:0.38158416 5:0.29436697 6:0.58614442 
0.75785828325519899 1:-0.44596483 2:-0.68700134 3:-0.73809986 4:0.30195455 5:0.36086322 6:0.33936714 
0.75785828325519899 1:-0.48017991 2:-0.79230476 3:-0.32167849 4:-0.0082232618 5:0.15010661 6:0.063455335 
0.75785828325519899 1:1.6688724 2:0.21937956 3:0.32298273 4:-1.0892032 5:-1.2339359 6:-1.1742894 
0.239548130744553 1:2.311659 2:4.4157017 3:7.7059101 4:-1.4950624 5:-1.2390937 6:-0.91058263 
0.75785828325519899 1:-0.70861993 2:-0.79230476 3:-0.7049186 4:0.12451899 5:-0.086756524 6:0.13503177 
0.75785828325519899 1:-0.79158029 2:-0.78754489 3:-0.41126558 4:0.91097947 5:0.81221247 6:0.73008471 
0.75785828325519899 1:-0.48460148 2:0.24229173 3:-0.015313323 4:-0.018767104 5:-0.35567752 6:-0.69797935 
0.75785828325519899 1:-0.46010151 2:-0.79230476 3:-0.47619249 4:-0.002007116 5:-0.024624587 6:-0.043082527 
0.75785828325519899 1:-0.43032344 2:-0.27532281 3:-0.49959458 4:0.47018391 5:0.61367593 6:0.38425005 
0.061899087973606999 1:-0.029341906 2:0.25795224 3:0.24765146 4:1.5906639 5:2.8560596 6:3.6076307 
0.75785828325519899 1:-0.79215903 2:-0.74973595 3:-0.066046154 4:-0.010505138 5:0.38800131 6:-0.37836577 
0.75785828325519899 1:-0.19335665 2:0.078589265 3:0.44585914 4:-0.27921575 5:-0.48113166 6:0.084400695 
0.75785828325519899 1:-0.36368352 2:-0.52789674 3:-0.15230663 4:0.11790942 5:0.035126817 6:0.12629141 
0.41969822947642982 1:1.3041894 2:1.4663572 3:1.5435654 4:-0.062673552 5:-0.15587136 6:-0.16812475 
0.060050408856747103 1:1.5998867 2:0.73093047 3:0.43173453 4:1.5214994 5:1.4199628 6:1.0503282 
0.0023897848815582776 1:-0.70307946 2:1.0432149 3:0.91992128 4:1.2527101 5:1.0936709 6:1.2103319 
0.75785828325519899 1:-0.75908601 2:-0.35887896 3:-0.79139519 4:0.66870715 5:0.98456313 6:0.7473292 
0.75785828325519899 1:-0.4643456 2:-0.39505242 3:-0.46490824 4:0.89122944 5:0.88942112 6:0.66850851 
0.75785828325519899 1:-0.22264859 2:-0.002413368 3:0.48468253 4:0.60324091 5:0.64549574 6:0.75354982 
0.75785828325519899 1:-0.5853793 2:-0.54604904 3:-0.6217995 4:-1.2187193 5:-1.2403633 6:-1.2359444 
0.75785828325519899 1:0.038756432 2:-0.31598613 3:-0.78216402 4:0.069596589 5:0.035999679 6:0.18873378 
0.75785828325519899 1:-0.44530893 2:-0.15081019 3:0.14237293 4:-0.06936181 5:0.033143038 6:0.137709 
0.1839930916922182 1:2.067431 2:2.0019004 3:1.916131 4:2.7451359 5:2.2451352 6:1.084266 
0.75785828325519899 1:-0.25614602 2:-0.34794746 3:-0.43107092 4:0.35624747 5:0.52900827 6:0.48094517 
0.75785828325519899 1:-0.6421112 2:-0.59270656 3:-0.55590779 4:1.7628275 5:1.724195 6:1.4501799 
0.75785828325519899 1:0.14478149 2:0.1429285 3:-0.055827035 4:0.12200106 5:-0.26815322 6:0.10621222 
0.75785828325519899 1:0.77228935 2:0.69197206 3:0.82375042 4:0.68011653 5:0.76753778 6:0.8261499 
0.75785828325519899 1:0.71850516 2:-0.059994669 3:1.1935374 4:-0.43587836 5:-0.44296376 6:-0.25655196 
0.75785828325519899 1:1.6779008 2:1.2217293 3:0.63935862 4:-0.79578533 5:-0.74076857 6:-0.96822174 
0.75785828325519899 1:-0.45397459 2:-0.79230476 3:-0.48306184 4:-0.31981741 5:-0.34258458 6:-0.39545277 
0.75785828325519899 1:-0.081420736 2:-0.29099104 3:0.079699782 4:0.2014733 5:0.01013121 6:-0.22954347 
0.75785828325519899 1:0.41177327 2:-0.13934639 3:0.11759697 4:-0.56020128 5:-0.64475369 6:-0.64152137 
0.75785828325519899 1:-0.22176119 2:-0.13751805 3:0.029453209 4:-0.015383632 5:0.18240252 6:0.28739745 
0.75785828325519899 1:-0.27499749 2:-0.37343629 3:-0.34278823 4:-0.030255171 5:-0.3334592 6:0.022824488 
0.75785828325519899 1:-0.34223158 2:-0.49884379 3:-0.55610075 4:1.4572134 5:1.1428686 6:1.576482 
0.20468493415345096 1:4.5114861 2:5.2500288 3:4.9813263 4:3.9572057 5:3.4819814 6:2.6596563 
0.20424383081032482 1:2.8849197 2:4.9887375 3:1.0285959 4:0.086907375 5:-0.19538823 6:0.74599059 
0.13675113201652295 1:-0.79215903 2:-0.51378685 3:-0.79139519 4:4.4939187 5:3.7796275 6:4.3267809 
0.75785828325519899 1:1.0263174 2:1.033726 3:0.8186563 4:-0.41384645 5:-0.21594017 6:-0.92294512 
0.38234357697238169 1:1.2127486 2:1.3551908 3:-0.74663638 4:0.40314396 5:0.13526795 6:0.045817138 
0.75785828325519899 1:-0.51886285 2:-0.7122433 3:-0.70939525 4:1.411812 5:1.0724842 6:0.95032596 
0.63517954668131105 1:-0.2546413 2:-0.068773811 3:-0.096001139 4:1.836241 5:0.87712169 6:0.00046177275 
0.75785828325519899 1:-0.23369865 2:-0.35068612 3:-0.33934583 4:0.17605792 5:0.35538799 6:0.12904738 
0.75785828325519899 1:-0.79215903 2:-0.79230476 3:-0.56587221 4:-0.084469405 5:-0.091438241 6:0.025265488 
0.75785828325519899 1:-0.79046911 2:-0.1320253 3:-0.78282008 4:0.33138288 5:0.30142922 6:0.33338275 
0.043624939479464622 1:1.4817467 2:0.51083475 3:0.96360725 4:-0.5062231 5:0.02623949 6:-1.100587 
0.75785828325519899 1:0.15967439 2:-0.042197233 3:0.049057863 4:-1.1322441 5:-1.1708517 6:-1.2598032 
0.75785828325519899 1:0.82692235 2:1.0768503 3:0.90108847 4:-0.33036125 5:-0.78512585 6:0.64772063 
0.75785828325519899 1:-0.39923356 2:-0.13090669 3:0.60995164 4:-0.38559839 5:-0.36710408 6:-0.4846674 
0.75785828325519899 1:0.46262518 2:0.34265785 3:-0.090690902 4:-1.3561827 5:-1.1894992 6:-1.1375169 
0.75785828325519899 1:-0.22207756 2:0.084452313 3:0.12809395 4:-1.1325588 5:-1.1980691 6:-1.1711398 
0.75785828325519899 1:-0.45486199 2:-0.79034527 3:-0.48140239 4:0.46365302 5:0.39784085 6:0.32479988 
0.75785828325519899 1:0.20898298 2:0.16776931 3:0.11396933 4:-1.1644264 5:-1.4540559 6:-1.5575265 
0.75785828325519899 1:0.74273505 2:0.37976477 3:0.30368681 4:-1.0633157 5:-0.80353531 6:-0.63742679 
0.75785828325519899 1:-0.4050904 2:-0.79134816 3:-0.79000588 4:0.2709525 5:0.36871898 6:0.43259761 
0.75785828325519899 1:0.05781625 2:0.058685761 3:0.14136954 4:-0.55634569 5:-0.84194126 6:-1.0187741 
0.0042409566821975889 1:0.22935461 2:-0.018999621 3:-0.08540382 4:0.59907058 5:0.7306395 6:0.93363266 
0.22838008489120176 1:1.7756692 2:2.8128524 3:0.97163435 4:-1.3891519 5:0.099559937 6:0.076762726 
0.75785828325519899 1:-0.020120658 2:0.087306692 3:0.16714889 4:0.039932197 5:0.73913007 6:0.20267111 
0.75785828325519899 1:-0.78999069 2:-0.6112523 3:-0.78945788 4:0.49685826 5:0.44116657 6:0.50007947 
0.75785828325519899 1:-0.79215903 2:-0.5251195 3:-0.79139519 4:-0.30408033 5:-0.19634044 6:-0.25104003 
0.75785828325519899 1:0.30829467 2:0.38277344 3:0.10316362 4:-0.83489197 5:-0.12167102 6:-0.64537973 
0.42411307878649951 1:-0.18275415 2:-0.52781959 3:-0.30367154 4:1.3760888 5:0.98718172 6:1.683886 
0.75785828325519899 1:1.5824474 2:0.72907898 3:0.061021333 4:0.17149417 5:0.21017542 6:0.36527324 
0.75785828325519899 1:-0.6607929 2:-0.79230476 3:-0.79139519 4:-0.79122158 5:-0.76949368 6:-0.68545938 
0.75785828325519899 1:-0.067299494 2:-0.18407527 3:-0.19349184 4:-0.90342695 5:-0.65316491 6:-0.58128378 
0.039616400636122463 1:-0.045739522 2:1.5516029 3:2.2125935 4:-0.094698506 5:0.93726985 6:1.4489987 
0.75785828325519899 1:-0.16151827 2:0.23241712 3:0.12338574 4:-0.43878972 5:-0.098579843 6:-0.012058198 
0.75785828325519899 1:-0.27021325 2:-0.37324342 3:-0.36971761 4:0.52691608 5:0.39276238 6:0.91331724 
0.75785828325519899 1:-0.68205965 2:-0.48648511 3:-0.68589282 4:1.2372878 5:1.5993757 6:1.4338016 
0.063481062941790067 1:0.15172637 2:-0.79230476 3:0.15086313 4:2.2683811 5:1.9580428 6:2.8236758 
0.51476648422603433 1:0.034203682 2:1.0311031 3:1.7922512 4:-0.51275398 5:-0.69299918 6:-0.29001729 
0.047797342834660632 1:0.088450856 2:0.6714514 3:0.69909879 4:-0.52707473 5:-0.71442399 6:0.85607184 
0.75785828325519899 1:-0.78617873 2:-0.47639449 3:-0.78836187 4:0.29817765 5:0.26421354 6:0.30708294 
0.14363842181191347 1:3.814298 2:2.7917918 3:1.9159766 4:1.1719789 5:0.67041199 6:1.0402493 
0.75785828325519899 1:-0.53624047 2:-0.57611259 3:-0.33212144 4:0.32201932 5:-0.27346974 6:-0.15355749 
0.26296274468225256 1:1.877836 2:2.9397566 3:2.089254 4:-0.40794504 5:0.34213635 6:0.54866325 
0.75785828325519899 1:-0.79215903 2:-0.41641397 3:-0.79016025 4:0.48214409 5:0.55114724 6:0.64543711 
0.75785828325519899 1:-0.47799613 2:-0.40289039 3:-0.36957096 4:1.5875165 5:1.3548155 6:1.0955261 
0.75785828325519899 1:-0.75063641 2:-0.30608838 3:-0.17980717 4:-0.52982871 5:-0.61602858 6:-0.66876609 
0.13499599991358721 1:-0.76313718 2:-0.31440465 3:-0.29718039 4:1.2380746 5:1.8835321 6:1.1254481 
0.29163309709331148 1:-0.35507188 2:0.0044525695 3:0.52821413 4:0.15371127 5:0.66922172 6:0.64945295 
0.75785828325519899 1:-0.78877148 2:-0.5407183 3:-0.79036093 4:1.4982872 5:1.2960163 6:1.3919108 
0.75785828325519899 1:-0.42402675 2:0.37991906 3:-0.28307122 4:-0.32430247 5:-0.17134483 6:-0.31923056 
0.34346085042040048 1:0.85948608 2:0.97362979 3:0.87592659 4:0.40951748 5:-0.4208248 6:0.61653882 
0.10081573975065232 1:0.88078369 2:-0.24536727 3:0.030765331 4:0.72473115 5:0.32848796 6:0.27802716 
0.75785828325519899 1:0.16739091 2:0.11006457 3:-0.20863528 4:-0.9925775 5:0.93052501 6:0.53236367 
0.75785828325519899 1:0.48801255 2:-0.79049956 3:-0.79139519 4:-1.2061296 5:-1.1580762 6:-1.0417667 
0.25427308965100309 1:0.94351905 2:1.0083452 3:1.2697177 4:1.3214025 5:0.58360185 6:0.72126561 
0.21974674602219973 1:-0.14628585 2:-0.79230476 3:0.26030959 4:1.4613051 5:1.936618 6:3.1005325 
0.75785828325519899 1:-0.79215903 2:-0.67436493 3:-0.79139519 4:-0.040484272 5:-0.021767946 6:-0.092689958 
0.44769328278316889 1:0.18081767 2:0.50273448 3:0.73043536 4:0.034738961 5:1.4233749 6:0.54008038 
0.20948297201581095 1:1.171388 2:1.3148437 3:0.73715034 4:0.86014871 5:0.74389114 6:0.53283612 
0.75785828325519899 1:0.079036695 2:0.93629144 3:0.13419146 4:-0.80286702 5:-0.82638844 6:-0.25237864 
0.75785828325519899 1:-0.41583952 2:-0.42233102 3:0.11551301 4:-0.19423552 5:0.28762212 6:-0.035602042 
0.087750889610675314 1:0.74744213 2:0.20510766 3:0.52613017 4:3.675512 5:2.8911328 6:2.6239074 
0.75785828325519899 1:-0.51245813 2:-0.47863942 3:-0.40828629 4:0.6571404 5:0.35713372 6:0.97001145 
0.75785828325519899 1:0.095318564 2:0.36611004 3:0.9151359 4:-1.053716 5:-0.9708075 6:-0.99412784 
0.75785828325519899 1:0.10997996 2:0.36464428 3:0.68867899 4:-0.61866452 5:-0.42431625 6:-0.47120253 
0.75785828325519899 1:-0.50467988 2:-0.79230476 3:-0.62790473 4:-0.0022431721 5:-2.573531e-05 6:-0.095839636 
0.086130586070272852 1:-0.11503392 2:-0.21795752 3:-0.35548494 4:4.848003 5:4.0827488 6:5.8045312 
0.75785828325519899 1:0.17279248 2:0.2444518 3:0.010774759 4:-0.46168717 5:-0.31504974 6:-0.036940655 
0.63723156060390795 1:-0.041888976 2:0.24830907 3:0.049057863 4:-0.18864886 5:-0.02692577 6:0.32440617 
0.11240802014884083 1:0.43538584 2:2.0545135 3:2.4388189 4:-0.47144415 5:-0.42296728 6:-0.34041214 
0.75785828325519899 1:0.23568216 2:-0.61016455 3:0.29982763 4:-1.2594783 5:-1.2432199 6:-1.1628718 
0.75785828325519899 1:-0.79215903 2:-0.66291656 3:-0.79139519 4:0.015697097 5:0.17176947 6:0.10518857 
0.75785828325519899 1:0.31608836 2:1.2467244 3:2.297264 4:-0.75069861 5:-0.78274532 6:-0.77396534 
0.75785828325519899 1:-0.22529535 2:0.17463525 3:-0.10249229 4:-0.37001869 5:-0.30378187 6:-0.40017729 
0.75785828325519899 1:-0.41355543 2:-0.32809024 3:-0.36906927 4:-0.0055479585 5:-0.19634044 6:-0.33387656 
0.75785828325519899 1:-0.29296928 2:-0.12883919 3:0.11721105 4:-0.22822761 5:-0.10072232 6:0.51480421 
0.029246894506731978 1:0.62652418 2:0.52464377 3:0.49818968 4:1.3332053 5:1.9661366 6:1.5161656 
0.75785828325519899 1:0.34433084 2:-0.067261762 3:0.46723902 4:-0.52951397 5:-0.54612024 6:-0.44246172 
0.75785828325519899 1:0.065841436 2:0.09232114 3:0.36412163 4:0.11051299 5:0.18597332 6:0.23527028 
0.75785828325519899 1:-0.79215903 2:-0.56102296 3:-0.78934982 4:0.54391212 5:0.47465274 6:0.43826703 
0.75785828325519899 1:0.1900775 2:0.31442265 3:0.4630711 4:0.18770336 5:0.2860351 6:0.00093422447 
0.75785828325519899 1:-0.40659512 2:-0.49026523 3:-0.37146968 4:-0.11531408 5:-0.063824047 6:-0.10237522 
0.75785828325519899 1:-0.788594 2:0.17023796 3:-0.78607724 4:-0.65761379 5:-0.3300471 6:-0.67876632 
0.43692877419997839 1:-0.013484446 2:0.5673823 3:0.73807654 4:0.5144051 5:-1.1037207 6:-1.0247585 
0.75785828325519899 1:1.0690669 2:0.19168437 3:-0.10196744 4:-0.53620223 5:-0.42749029 6:-0.81428122 
0.22749219587808037 1:0.34101274 2:1.1149601 3:-0.35699774 4:0.7853189 5:-0.78591936 6:-1.0264908 
0.75785828325519899 1:0.38376229 2:0.40637992 3:0.37901808 4:-0.44138634 5:-0.72759628 6:-0.9020785 
0.75785828325519899 1:-0.5515269 2:-0.55644824 3:-0.54688502 4:0.25025825 5:0.16637359 6:0.060384399 
0.75785828325519899 1:-0.44916719 2:-0.78446679 3:-0.18917727 4:0.47002654 5:0.16470722 6:0.36511576 
0.75785828325519899 1:-0.56255382 2:-0.79230476 3:-0.79139519 4:-0.45043516 5:-0.60047576 6:-0.43356387 
0.26237469470509373 1:2.3480039 2:2.2765379 3:-0.24778284 4:-0.97109638 5:-1.3721655 6:-0.6055363 
0.75785828325519899 1:-0.51507404 2:-0.79107815 3:-0.5042256 4:-0.59442942 5:-0.60991855 6:-0.49073053 
0.75785828325519899 1:0.34325053 2:-0.21469427 3:-0.38369557 4:0.047722051 5:0.56725552 6:0.10455864 
0.75785828325519899 1:-0.79215903 2:-0.79230476 3:-0.50341518 4:-0.56303395 5:-0.63602507 6:-0.50632144 
0.75785828325519899 1:-0.078750818 2:-0.12934835 3:0.37245747 4:-0.28991696 5:-0.92264136 6:-0.52553448 
0.75785828325519899 1:0.19131214 2:0.18960145 3:0.20882807 4:0.85393256 5:1.1246972 6:0.87008791 
0.27454701133113191 1:1.5563655 2:0.81941621 3:1.4434582 4:-1.1497909 5:-1.0555545 6:-1.3447658 
0.75785828325519899 1:-0.01487342 2:-0.050822085 3:-0.19518216 4:-0.81765987 5:-0.76338364 6:-0.67183703 
0.75785828325519899 1:-0.058641553 2:0.073266235 3:-0.66837213 4:-0.80719472 5:-0.60468137 6:-0.69530213 
0.75785828325519899 1:0.18035467 2:-0.067362051 3:-0.074937713 4:0.5677538 5:0.78864518 6:0.49708727 
0.75785828325519899 1:-0.11271125 2:-0.18684479 3:-0.19630133 4:0.057242983 5:-0.084058586 6:-0.25316606 
0.75785828325519899 1:0.21592786 2:0.52518378 3:0.44879212 4:-0.18707515 5:-0.14587312 6:-0.68230971 
0.14257913013055845 1:-0.57319491 2:-0.43876298 3:0.2796055 4:4.0903414 5:5.6867526 6:5.1303426 
0.75785828325519899 1:-0.57000026 2:0.27052693 3:0.96183202 4:-0.60835673 5:0.3347567 6:0.16707975 
0.076942444693183495 1:3.1313855 2:2.0179466 3:0.61450548 4:-0.83119376 5:-0.96588773 6:-0.60585127 
0.10915489350656526 1:3.6081896 2:3.7804096 3:3.7919259 4:-0.1862883 5:0.25675453 6:-0.77900482 
0.75785828325519899 1:0.24663963 2:0.76626305 3:0.20597228 4:0.55933446 5:0.6046299 6:0.29487794 
0.75785828325519899 1:0.28151832 2:0.033459227 3:0.2862433 4:-0.22688996 5:-0.14071529 6:-0.14032884 
0.75785828325519899 1:0.019696614 2:-0.22177621 3:-0.17368651 4:-0.95976569 5:-0.92200655 6:-0.90900779 
0.75785828325519899 1:0.72953979 2:1.4231558 3:0.44169122 4:-0.72339477 5:-1.0704725 6:-1.1109022 
0.75785828325519899 1:-0.59414527 2:-0.79230476 3:-0.6307528 4:0.32280618 5:0.15145558 6:0.14542571 
0.038027227937382384 1:-0.18639635 2:0.21521371 3:1.9437628 4:0.68908667 5:1.0802606 6:0.13534674 
0.14649007610898609 1:0.60244862 2:2.2889583 3:1.0692717 4:0.2914107 5:0.33531215 6:-0.14245487 
0.13874111888743451 1:-0.53813101 2:-0.39146516 3:-0.40186461 4:2.4379482 5:4.1027453 6:2.8002894 
0.56824414256315514 1:0.92291592 2:-0.30276342 3:0.35208098 4:-1.2755302 5:-1.4185066 6:-0.75695708 
0.75785828325519899 1:-0.79215903 2:-0.60227258 3:-0.79139519 4:-0.68767161 5:-0.62975633 6:-0.67475048 
0.75785828325519899 1:-0.59911472 2:-0.76870599 3:-0.43508447 4:-1.0062688 5:-0.86043008 6:-1.0014508 
0.75785828325519899 1:-0.35828195 2:-0.43857012 3:-0.3400868 4:0.73566842 5:0.75523835 6:0.79142469 
0.66334598037079395 1:0.15211219 2:1.1869367 3:1.1318677 4:-1.504662 5:-0.95890483 6:-0.26741835 
0.11853486691007772 1:1.1126653 2:2.5468552 3:3.1155653 4:0.026083568 5:0.31714075 6:0.85489071 
0.75785828325519899 1:-0.18281588 2:-0.16548324 3:-0.57834509 4:0.39393777 5:-0.019863519 6:-0.25978038 
0.75785828325519899 1:-0.25217201 2:-0.63374789 3:-0.28222991 4:-0.197619 5:-0.14317518 6:-0.18914885 
0.75785828325519899 1:-0.072238071 2:-0.27199013 3:-0.78135359 4:-0.43737338 5:0.47869965 6:-0.070957179 
0.19285958082662424 1:-0.4817618 2:-0.073510537 3:0.077615823 4:0.76257882 5:1.138663 6:0.9440266 
0.75785828325519899 1:0.066458759 2:-0.3060961 3:-0.080803673 4:-0.17078728 5:-0.21252807 6:0.010383259 
0.75785828325519899 1:-0.19773964 2:-0.26590336 3:-0.41250052 4:-0.17212493 5:0.23271114 6:0.19479691 
0.75785828325519899 1:-0.03255198 2:-0.065371701 3:-0.033474642 4:-0.66382993 5:-0.69537972 6:-0.65435631 
0.20745858231133854 1:3.2719806 2:0.66828844 3:1.6282359 4:1.9914086 5:0.54916346 6:-0.49765982 
0.75785828325519899 1:-0.28969748 2:-0.2757394 3:-0.24533612 4:0.27386386 5:0.30317495 6:0.28267293 
0.75785828325519899 1:-0.29761463 2:-0.6252619 3:-0.41084879 4:-0.17464286 5:-0.24458593 6:-0.15875446 
0.75785828325519899 1:0.36092137 2:0.18273551 3:-0.1467031 4:-0.012157531 5:-0.027401876 6:0.006761129 
0.75785828325519899 1:-0.44874278 2:-0.79134045 3:-0.47340616 4:0.42667089 5:0.48996751 6:0.34920988 
0.75785828325519899 1:0.022551728 2:0.51955217 3:0.44910086 4:-0.2724488 5:-0.38051442 6:-0.18584169 
0.75785828325519899 1:-0.59754826 2:-0.62849429 3:-0.47375349 4:-1.2804087 5:-1.2896404 6:-1.190589 
0.75785828325519899 1:-0.21563426 2:-0.11846314 3:-0.070268101 4:-0.63573925 5:-0.19221418 6:0.32495736 
0.24585068632480345 1:2.7176254 2:1.1489812 3:0.40263628 4:-0.98053863 5:-0.85971591 6:-0.64293873 
0.75785828325519899 1:-0.523323 2:-0.61465442 3:-0.4545965 4:-0.82725949 5:-0.78623677 6:-0.92121279 
0.75785828325519899 1:0.52798415 2:-0.029645682 3:0.47981996 4:-1.1115498 5:-1.1215747 6:-1.0463338 
0.1197805224765459 1:0.38476544 2:1.8956712 3:0.39360579 4:-0.13789679 5:0.99218084 6:0.75024265 
0.75785828325519899 1:-0.79215903 2:-0.32602275 3:-0.78914143 4:0.12625007 5:0.50226694 6:0.11542502 
0.21022109481356169 1:2.3074149 2:4.0535814 3:3.9770123 4:-0.40283049 5:0.43561199 6:-0.034184687 
0.54759416700028374 1:1.5255766 2:2.7327756 3:1.3887349 4:-1.4609129 5:-1.2929731 6:-1.0963349 
0.75785828325519899 1:-0.78749825 2:-0.49200871 3:-0.79139519 4:0.83331699 5:1.130966 6:0.71331268 
0.75785828325519899 1:-0.32573365 2:-0.79230476 3:-0.41865978 4:-0.57538756 5:-0.58103473 6:-0.60577253 
0.75785828325519899 1:-0.54873352 2:-0.54008571 3:-0.47070473 4:-0.39346693 5:-0.40289144 6:-0.47159624 
0.75785828325519899 1:-0.79215903 2:-0.36364654 3:-0.79139519 4:-0.87037908 5:-0.80567779 6:-0.9152284 
0.22715227261281074 1:-0.22878322 2:-0.78388049 3:1.6276184 4:-0.37859539 5:-0.40265339 6:-0.59419746 
0.012971093437470771 1:1.0764748 2:1.2496559 3:1.1682212 4:-2.335265 5:-0.58008252 6:-0.61616646 
0.20475016281717628 1:4.9791847 2:0.72784466 3:2.3138585 4:2.6550411 5:2.2789388 6:1.1424563 
0.75785828325519899 1:-0.56764672 2:-0.29318968 3:-0.10737801 4:-0.48104377 5:-0.11611644 6:-0.44907604 
0.24603051439570675 1:0.99622292 2:1.8830965 3:2.2047208 4:-1.0546603 5:-0.67252659 6:0.79449563 
0.35549548220622129 1:0.62544387 2:0.91291639 3:0.77304075 4:0.034266849 5:0.14851959 6:0.31653197 
0.31919478918342042 1:2.2641252 2:1.2852199 3:1.1009942 4:-1.0376642 5:-1.0984041 6:-0.66246673 
0.75785828325519899 1:-0.5908426 2:-0.32667077 3:-0.33378861 4:0.31753425 5:0.20430343 6:0.2707829 
0.20782868326269305 1:4.6455993 2:4.4177075 3:1.5716602 4:-0.59686867 5:-0.58571645 6:1.5060079 
0.75785828325519899 1:-0.14991262 2:-0.5684752 3:-0.013383732 4:-0.37473981 5:-0.15364953 6:-0.19009375 
0.42667791933799887 1:0.50591489 2:-0.79230476 3:-0.79139519 4:0.62188934 5:-0.12778106 6:0.054793721 
0.75785828325519899 1:-0.20953821 2:-0.38800905 3:-0.79139519 4:0.52927664 5:0.5205177 6:0.40117957 
0.60871794404980517 1:1.2534147 2:1.1739763 3:1.3171857 4:0.17125811 5:-0.17832773 6:0.11133044 
0.75785828325519899 1:-0.6335227 2:-0.19348701 3:-0.029129202 4:-0.090921607 5:0.12130215 6:0.53149751 
0.072623587617120844 1:0.03667297 2:-0.46251604 3:1.0449588 4:2.5658906 5:2.4508134 6:1.2875777 
0.1204706325485059 1:0.40945832 2:1.6971762 3:3.1045281 4:-0.79924749 5:-0.14769819 6:1.0579662 
0.092620075546591657 1:-0.28272174 2:0.86994642 3:1.80352 4:-0.27307829 5:0.32245727 6:-0.58868552 
0.75785828325519899 1:-0.16005985 2:0.089698198 3:0.076689619 4:0.16535671 5:-0.11270434 6:0.47732304 
0.75785828325519899 1:1.3487138 2:1.0312574 3:0.45404061 4:-0.70207103 5:-0.91946732 6:-0.36655447 
0.75785828325519899 1:0.24810577 2:0.11407613 3:0.088653089 4:0.37717778 5:0.0027515544 6:0.15148884 
0.75785828325519899 1:-0.013870272 2:0.15928332 3:-0.040915149 4:-1.2091984 5:-1.1502204 6:-1.1508243 
0.75785828325519899 1:3.1108596 2:2.617829 3:2.1574844 4:-0.94064514 5:-0.67355816 6:-0.39710635 
0.38423586184508168 1:2.5256383 2:1.247573 3:-0.026342871 4:-0.24774159 5:-0.71569361 6:-0.92074034 
0.75785828325519899 1:0.89135533 2:0.97116114 3:0.13388272 4:-0.77123549 5:-0.39455957 6:-0.59136275 
0.75785828325519899 1:0.36971821 2:0.15149164 3:0.47449429 4:-0.49646611 5:-0.36908786 6:-0.61467037 
0.75785828325519899 1:0.089145343 2:0.22724838 3:0.37631665 4:-1.0373495 5:-1.0344471 6:-0.97656839 
0.75785828325519899 1:1.6631622 2:1.8994513 3:2.1878175 4:-0.58884276 5:-0.29568806 6:-0.33379782 
0.16214985420616573 1:2.988707 2:2.3239823 3:2.1623469 4:0.92498547 5:0.19430519 6:-0.38332651 
0.75785828325519899 1:-0.78924219 2:-0.79070785 3:-0.57690175 4:1.3741217 5:1.6303227 6:1.6019156 
0.75785828325519899 1:-0.35542684 2:-0.79230476 3:-0.34434734 4:-0.45067121 5:-0.055492178 6:0.057549689 
0.039501408975923691 1:0.15959722 2:0.97586701 3:2.5270398 4:1.4953759 5:0.43061287 6:-0.12418674 
0.75785828325519899 1:0.82846565 2:0.63164439 3:-0.0067459353 4:-1.2840282 5:-1.1657732 6:-0.7166412 
0.75785828325519899 1:-0.78773746 2:-0.19043205 3:-0.25616499 4:-0.25490196 5:-0.35496336 6:-0.30482078 
0.20818014770777998 1:0.50437158 2:1.5833096 3:1.1758624 4:0.23570145 5:-0.71069449 6:-0.98176535 
0.75785828325519899 1:-0.43364926 2:-0.79230476 3:-0.52407725 4:-0.25041689 5:-0.31504974 6:-0.1837944 
0.15001800996366552 1:2.6909262 2:1.2598391 3:-0.32109961 4:0.74621226 5:1.6079456 6:1.532544 
0.071174629538444972 1:0.78625626 2:1.0749988 3:-0.076164934 4:1.2952002 5:-0.1618227 6:-0.20363737 
0.37338424689999816 1:0.3577576 2:0.40221407 3:0.86712765 4:0.088717139 5:0.57082632 6:0.979303 
0.75785828325519899 1:-0.074452714 2:-0.23627183 3:0.071132394 4:-0.88973569 5:-0.58159019 6:-0.14654945 
0.75785828325519899 1:-0.033161586 2:-0.61526386 3:-0.12495274 4:-0.21618875 5:-0.2212567 6:-0.017333909 
0.75785828325519899 1:-0.53672661 2:-0.71723461 3:-0.65797549 4:1.2217081 5:1.1423925 6:1.0954474 
0.032036116559936281 1:1.0888212 2:-0.76997118 3:0.63750621 4:0.58514327 5:0.50599644 6:1.1818273 
0.75785828325519899 1:0.50414008 2:-0.29646064 3:0.58741401 4:0.17597924 5:0.13741043 6:0.39070689 
0.091388224384596067 1:-0.38454901 2:-0.52332202 3:-0.51574141 4:5.1115203 5:6.8087776 6:6.0131973 
0.75785828325519899 1:-0.79215903 2:-0.79230476 3:-0.34707192 4:-0.096744326 5:-0.00066054438 6:-0.13654923 
0.75785828325519899 1:-0.18505367 2:-0.79230476 3:-0.48725291 4:-0.58042342 5:-0.51477654 6:-0.53899935 
0.28865535839638734 1:1.7441086 2:1.1033112 3:3.7022385 4:-0.69703517 5:-0.81710436 6:-0.77758747 
0.25898968184941323 1:4.7885094 2:3.1270655 3:1.2928728 4:-0.60221927 5:-0.50588921 6:0.47716556 
0.75785828325519899 1:0.86373017 2:1.1934941 3:1.3167226 4:0.040089568 5:0.14629775 6:0.025895424 
0.75376763860944129 1:0.018770631 2:1.0914308 3:1.3368675 4:0.014044704 5:0.0086235382 6:-0.28009581 
0.19947750747888948 1:0.21693101 2:0.9102163 3:1.1042359 4:3.4422885 5:5.5257491 6:5.187588 
0.75785828325519899 1:-0.38160129 2:-0.79230476 3:-0.38417411 4:-0.03403207 5:-0.021212488 6:-0.021192264 
0.75785828325519899 1:-0.30837147 2:-0.05722515 3:0.14183264 4:-0.24388601 5:0.062582309 6:0.043927331 
0.75785828325519899 1:-0.71966228 2:-0.63821461 3:-0.7117262 4:0.21634484 5:0.2998422 6:0.14054371 
0.75785828325519899 1:0.73247207 2:0.14323708 3:-0.00026250651 4:0.7540808 5:0.50425072 6:0.82197657 
0.75785828325519899 1:0.47342831 2:-0.18214664 3:0.11188538 4:-0.61693344 5:-0.63229557 6:-0.70404248 
0.26862051065584563 1:1.0407473 2:1.0456064 3:1.1628955 4:0.13215147 5:0.067422728 6:-0.031586202 
0.75785828325519899 1:0.30034665 2:-0.0038019846 3:-0.11745048 4:-0.14568664 5:0.18367214 6:-0.23670899 
0.21238635387032115 1:1.0744685 2:1.722017 3:-0.78992098 4:-0.70096944 5:-1.2907513 6:-1.2806698 
0.75785828325519899 1:0.066844585 2:-0.42705232 3:-0.39394557 4:-0.14206711 5:0.056630974 6:0.054400011 
0.23507832167375345 1:1.2916115 2:0.52672669 3:0.68234993 4:0.47411818 5:1.3517208 6:1.1229283 
0.75785828325519899 1:-0.62192476 2:-0.61390611 3:-0.70504209 4:1.1032866 5:1.2952228 6:1.189229 
0.42669003492378449 1:0.10619886 2:-0.037730516 3:-0.18537984 4:-2.335265 5:0.34935731 6:0.48992176 
0.75785828325519899 1:-0.38716491 2:-0.79034527 3:-0.37690341 4:0.47946879 5:0.42212229 6:0.4802365 
0.15836392654353329 1:0.0010226223 2:-0.30494663 3:0.64113384 4:-0.38331652 5:0.43354886 6:-0.019459941 
0.75785828325519899 1:-0.34618244 2:-0.052781577 3:0.50999878 4:-0.24105333 5:-0.39408346 6:-0.14883297 
0.17322419131468947 1:-0.78898754 2:0.42751775 3:-0.79131029 4:-0.044654598 5:-0.21633693 6:-0.19316469 
0.1567862396081191 1:0.19293261 2:1.6890759 3:2.147682 4:-0.37340216 5:1.4497195 6:2.4028788 
0.75785828325519899 1:-0.30094045 2:-0.79230476 3:-0.79139519 4:-0.35884536 5:-0.40725575 6:-0.4465563 
0.75785828325519899 1:0.61494939 2:1.0054908 3:0.80484042 4:0.60630964 5:0.56328796 6:0.53102505 
0.056510828943256791 1:1.0544055 2:2.0101549 3:1.3349379 4:0.050003927 5:-0.39281385 6:0.83890609 
0.75785828325519899 1:-0.44081019 2:-0.51181193 3:-0.62495631 4:-1.5635974 5:-1.5934758 6:-1.5510697 
0.21940694370567881 1:0.6253667 2:0.099804241 3:1.1266192 4:0.088953195 5:0.25223152 6:1.0359185 
0.4151818085296905 1:3.3913553 2:3.670246 3:1.6429008 4:-1.1505778 5:-0.91565846 6:-0.28828497 
0.75785828325519899 1:-0.20287885 2:-0.575642 3:-0.66563983 4:-0.16874146 5:0.087736618 6:-0.33875856 
0.75785828325519899 1:0.21399873 2:-0.79230476 3:-0.79139519 4:-0.54218232 5:-0.64840385 6:-0.65325392 
0.17360307462655838 1:-0.43888878 2:-0.54530073 3:-0.46940805 4:4.0278652 5:3.0188088 6:5.815555 
0.75785828325519899 1:-0.018114361 2:0.33486617 3:0.24340636 4:-0.74700039 5:-0.73727712 6:-0.77813866 
0.12159753081561545 1:0.36184735 2:2.4541265 3:3.0833797 4:-0.17094465 5:-0.04723966 6:0.32479988 
0.61138679523251849 1:-0.27905639 2:-0.3067364 3:-0.41964773 4:1.1601761 5:1.6711885 6:1.5525444 
0.73694911988461065 1:0.40050715 2:0.51608063 3:0.64144258 4:0.76139854 5:1.2105552 6:1.906017 
0.75785828325519899 1:-0.033508829 2:-0.10631275 3:0.14476562 4:-0.53816937 5:-0.77060459 6:-0.46301337 
0.60877564451214605 1:0.38453394 2:0.0083098378 3:0.70133711 4:0.36435206 5:0.042585823 6:0.24779025 
0.078472191017070772 1:0.17788539 2:0.52595524 3:0.84428128 4:2.2089737 5:3.4054075 6:2.6791843 
0.75785828325519899 1:0.5522912 2:0.42528054 3:0.52998935 4:-0.25301351 5:-0.30425798 6:-0.093004926 
0.75785828325519899 1:-0.79215903 2:-0.61109801 3:-0.33892132 4:0.64179675 5:1.4870145 6:2.1543692 
0.11270941539241705 1:0.61402341 2:0.25147203 3:0.35933624 4:1.9342043 5:2.4814429 6:1.8922372 
0.75785828325519899 1:-0.18017683 2:-0.09210257 3:-0.03409983 4:0.081556769 5:-0.6346761 6:-0.91664576 
0.75785828325519899 1:0.21268692 2:-0.018845331 3:-0.0069774864 4:-0.92427858 5:-0.83059405 6:-0.9456228 
0.75785828325519899 1:-0.30152691 2:0.014018595 3:-0.63863326 4:0.098238071 5:0.035999679 6:-0.043791205 
0.75785828325519899 1:-0.73100557 2:-0.79230476 3:-0.63716677 4:-0.22728339 5:-0.25720276 6:-0.25332354 
0.20832925317145357 1:3.5116559 2:2.5486296 3:1.7076579 4:-0.32501064 5:1.8646465 6:2.1529518 
0.057977978284570159 1:-0.60477864 2:-0.42037924 3:0.42972776 4:0.78988265 5:0.80221422 6:1.3444294 
0.75785828325519899 1:-0.79215903 2:-0.57176931 3:-0.76851023 4:-0.79743773 5:-0.41979323 6:-1.0548379 
0.75785828325519899 1:-0.79215903 2:-0.59629382 3:-0.79139519 4:0.088402398 5:0.066629217 6:0.16518994 
0.75785828325519899 1:-0.36770383 2:-0.75079284 3:-0.30493735 4:-0.54454288 5:-0.54270814 6:-0.60026059 
0.20505098204049194 1:2.7530443 2:0.64167329 3:6.0823515 4:2.466747 5:2.1902242 6:-0.22111808 
0.24806583284411007 1:0.89992068 2:0.43407511 3:-0.38607283 4:0.64455074 5:-0.39725751 6:-0.37001912 
0.75785828325519899 1:-0.79215903 2:-0.79230476 3:-0.79139519 4:-0.75722949 5:-0.71672517 6:-0.52498328 
0.75785828325519899 1:-0.79215903 2:-0.79230476 3:-0.6909252 4:0.053387399 5:-0.050175652 6:-0.0012705502 
0.37048043698956118 1:0.1498744 2:0.71280131 3:0.2971262 4:0.5978903 5:-0.52445738 6:0.17211923 
0.75785828325519899 1:0.69157449 2:1.3220183 3:1.0231159 4:-1.0356971 5:-1.3359021 6:-1.3383877 
0.40485059427315379 1:-0.38639326 2:0.064471664 3:-0.11836125 4:0.20320438 5:1.1625477 6:1.1689136 
0.75785828325519899 1:-0.068186895 2:-0.040615753 3:0.031382801 4:0.6743725 5:0.39680928 6:0.37173008 
0.39935057771982641 1:1.0631252 2:0.66103677 3:0.10501603 4:-0.48663044 5:1.3277568 6:0.58519952 
0.75785828325519899 1:-0.66276833 2:-0.79230476 3:-0.79139519 4:-0.59930791 5:-0.8409097 6:-0.67412054 
0.75785828325519899 1:3.0275983 2:2.5352063 3:2.6651986 4:-1.1119432 5:-1.2324282 6:-1.2442123 
0.001575135728243053 1:0.024403695 2:0.13683402 3:-0.77573462 4:1.2118724 5:1.2807016 6:0.80386592 
0.1066000793740095 1:0.052491847 2:0.1886757 3:0.1732464 4:0.98045867 5:0.28238495 6:0.33480011 
0.066902630094536966 1:-0.31042406 2:0.35530969 3:0.84389536 4:3.1037839 5:3.040551 6:3.634088 
0.44257429257964587 1:1.9443524 2:1.2517388 3:1.240002 4:-0.2843303 5:-0.38226015 6:-0.12883251 
0.75785828325519899 1:1.9042265 2:1.8312548 3:2.0633203 4:-0.095013247 5:0.12225436 6:0.43291258 
0.31584235963618423 1:0.38924102 2:0.48229096 3:-0.10249229 4:0.19675218 5:0.29047876 6:0.16109536 
0.75785828325519899 1:-0.38633152 2:-0.35681146 3:-0.43391899 4:-2.335265 5:-0.52160074 6:-0.74451585 
0.75785828325519899 1:0.0041863977 2:-0.29639121 3:-0.30364838 4:-0.15709602 5:-0.23101688 6:0.039202814 
0.75785828325519899 1:-0.45693002 2:-0.58920416 3:-0.54070261 4:0.023801692 5:0.10297204 6:0.050541655 
0.75785828325519899 1:-0.79215903 2:-0.48700969 3:-0.79139519 4:-0.3457049 5:-0.30647981 6:-0.31458478 
0.75785828325519899 1:-0.43066296 2:-0.59401032 3:-0.27116949 4:0.3517624 5:0.076944864 6:0.39535267 
0.75785828325519899 1:-0.34916102 2:-0.41527993 3:-0.47834592 4:-0.83001348 5:-0.94866854 6:-1.005073 
0.75785828325519899 1:-0.6800302 2:-0.79230476 3:-0.69381959 4:-0.33610528 5:-0.42368144 6:-0.42419358 
0.75785828325519899 1:-0.51184081 2:-0.79230476 3:-0.37258884 4:0.057715095 5:-0.039780653 6:0.026604101 
0.75785828325519899 1:0.01406355 2:0.37019875 3:-0.30175738 4:0.65320613 5:0.14851959 6:0.45007833 
0.75785828325519899 1:-0.31080989 2:-0.30250884 3:-0.78485773 4:-0.55225405 5:-0.76338364 6:-0.72506659 
0.056701194382866596 1:-0.33592718 2:-0.42248531 3:-0.5075445 4:4.8572092 5:4.7928621 6:6.0179219 
0.75785828325519899 1:0.45637479 2:0.84016831 3:0.71715977 4:-0.92372778 5:-0.64975282 6:-0.3457666 
0.12668087240563147 1:0.5378613 2:0.41563737 3:-0.19758258 4:4.5948721 5:4.4187215 6:3.6573168 
0.75785828325519899 1:0.048093428 2:1.0233114 3:0.69747793 4:-1.2616028 5:-1.371134 6:-1.47469 
0.75785828325519899 1:0.28753721 2:0.39434525 3:0.18960934 4:-0.19675346 5:-0.31163764 6:-0.37490112 
0.75785828325519899 1:-0.3173072 2:-0.37591265 3:-0.14780682 4:0.71048909 5:0.65065356 6:0.33409143 
0.75785828325519899 1:-0.37694823 2:-0.79230476 3:-0.48234403 4:-0.23145371 5:-0.30386123 6:-0.46616304 
0.75785828325519899 1:0.017072995 2:-0.43873212 3:-0.22998428 4:-0.1701578 5:-0.51787123 6:-0.57388204 
0.75785828325519899 1:-0.62610712 2:-0.37885189 3:-0.60763629 4:0.41235015 5:0.29262124 6:0.30346081 
0.10578346458266918 1:-0.78533763 2:1.1387209 3:2.13842 4:-0.54847715 5:0.060836584 6:0.44433016 
0.65892510305343266 1:0.31840332 2:0.3352519 3:1.1940777 4:0.091313757 5:-0.10619755 6:-0.82876974 
0.75785828325519899 1:-0.19966106 2:-0.26742313 3:0.12523815 4:-0.55288353 5:-0.44034517 6:-0.68325461 
0.75785828325519899 1:-0.78724361 2:-0.79230476 3:-0.55809981 4:0.36553234 5:0.41664707 6:0.4708662 
0.75785828325519899 1:-0.38913262 2:-0.66037847 3:-0.36006193 4:0.46900363 5:0.51178908 6:0.74039991 
0.13451993792165659 1:-0.08432215 2:-0.73852673 3:-0.078349232 4:0.43926055 5:0.37308329 6:-0.76498876 
0.039924149791994767 1:0.34232455 2:2.0976378 3:3.9442093 4:0.38229233 5:0.050362234 6:-0.63396215 
0.75785828325519899 1:-0.79215903 2:-0.79230476 3:-0.55542925 4:1.7322976 5:1.5391482 6:1.4892359 
0.75785828325519899 1:-0.030630565 2:-0.24709532 3:-0.64088702 4:-1.5272447 5:-1.4274733 6:-1.4484689 
0.75785828325519899 1:-0.43233745 2:-0.79230476 3:-0.46402834 4:-0.73700735 5:-0.77409604 6:-0.96609571 
0.75785828325519899 1:0.21955462 2:0.13012237 3:0.011700963 4:0.45594186 5:0.56852514 6:0.77252663 
0.75785828325519899 1:-0.30357951 2:-0.51714267 3:-0.4140056 4:1.0167326 5:0.71000821 6:0.64283863 
0.14056866124962747 1:-0.77908724 2:1.2120861 3:1.3571668 4:0.51896885 5:0.39815825 6:0.14526823 
0.75785828325519899 1:0.57868172 2:2.2911955 3:1.9067918 4:-0.69939573 5:-0.87391977 6:-0.68459322 
0.75785828325519899 1:0.15651061 2:0.047345393 3:0.19948885 4:-0.72677825 5:-0.70228327 6:-0.81601354 
0.16446462563125952 1:1.2267155 2:0.75646559 3:0.61180405 4:3.0861584 5:3.3176452 6:2.5208342 
0.10288255216275316 1:0.10619886 2:-0.031042013 3:0.60478033 4:1.4984446 5:0.16661164 6:2.2171265 
0.75785828325519899 1:-0.79215903 2:-0.4550098 3:-0.79139519 4:1.6356719 5:1.9014655 6:1.4377386 
0.025465549236625477 1:0.00040530025 2:0.15203165 3:0.072598884 4:2.4646225 5:2.9681828 6:3.7473976 
0.75785828325519899 1:0.19571056 2:1.712991 3:2.4799578 4:-0.93781246 5:-1.0238934 6:-0.95908767 
0.11739057332251969 1:0.7310831 2:0.56861663 3:-0.38141866 4:0.52581448 5:1.5908851 6:1.8705044 
0.75785828325519899 1:0.32619701 2:0.43307222 3:0.65340605 4:-0.39102769 5:-0.20141891 6:-0.48057282 
0.75785828325519899 1:0.078805199 2:-0.33649909 3:-0.53294565 4:0.027735962 5:0.17954588 6:0.59882188 
0.75785828325519899 1:0.1116776 2:1.8089598 3:1.5412499 4:-0.32705646 5:-0.64046873 6:-0.53096767 
0.75785828325519899 1:-0.60397613 2:-0.79230476 3:-0.57157608 4:1.2551494 5:1.7811692 6:1.345768 
0.75785828325519899 1:0.17433578 2:0.14285135 3:-0.0011887106 4:-1.0109899 5:-0.3371887 6:-1.134131 
0.75785828325519899 1:0.55437467 2:1.4168299 3:0.71499862 4:-0.96842108 5:-0.81797722 6:-0.76719353 
0.16579877357732439 1:3.65364 2:1.9387955 3:0.4068042 4:-0.10878319 5:0.067819484 6:1.2263952 
0.00075932500540484566 1:-0.33311065 2:-0.20797491 3:0.10339517 4:1.5173291 5:1.356958 6:1.1302513 
0.092957925889704002 1:0.85362152 2:0.44433544 3:-0.17381 4:0.077701184 5:-0.16094983 6:-0.093004926 
0.75785828325519899 1:-0.43087903 2:-0.41355188 3:-0.49834421 4:-0.052995249 5:0.050679639 6:0.078888758 
0.75785828325519899 1:2.6004886 2:2.2432882 3:2.2522659 4:-0.56806981 5:-1.0157202 6:-1.0703501 
0.09955291092896025 1:0.20635937 2:-0.033695814 3:0.12616436 4:0.5693275 5:0.4227571 6:0.43684968 
0.75785828325519899 1:0.48662357 2:-0.34801689 3:-0.21916313 4:-0.58144633 5:-0.41566697 6:-0.46781662 
0.75785828325519899 1:0.48847554 2:0.074809143 3:0.22673469 4:-0.23499456 5:-0.14682533 6:-0.33159304 
0.033490159518101387 1:-0.019734831 2:-0.23988223 3:0.33888257 4:-0.10075728 5:-0.25236234 6:-0.65593115 
0.75785828325519899 1:-0.19449098 2:-0.14361253 3:-0.79139519 4:-1.0301104 5:-1.1652971 6:-1.1379894 
0.20026603338994253 1:1.253106 2:0.96205799 3:5.0013169 4:1.6382685 5:-0.11817957 6:0.078258823 
0.75785828325519899 1:-0.78923447 2:-0.55388701 3:-0.77833571 4:2.1029058 5:2.1219029 6:1.9161748 
0.0094889244635223968 1:3.7817343 2:3.7887413 3:2.9973971 4:0.26292659 5:-0.79615566 6:-0.8296359 
0.75785828325519899 1:-0.18346407 2:-0.092889452 3:0.16938721 4:-0.34059035 5:-0.36948461 6:-0.28293052 
0.10679994085960801 1:1.1393645 2:2.1360562 3:0.59513237 4:0.068652365 5:0.43664355 6:0.86386729 
0.75785828325519899 1:-0.31432863 2:-0.44140135 3:-0.34819108 4:0.64061647 5:0.63557684 6:0.47346469 
0.059030810365717577 1:3.0742832 2:2.4590638 3:1.8630286 4:0.97282619 5:1.2921281 6:0.8843402 
0.75785828325519899 1:-0.79215903 2:-0.59478948 3:-0.79139519 4:0.10114943 5:0.017193461 6:0.12140941 
0.75785828325519899 1:0.016069847 2:0.04572534 3:0.22650313 4:0.20178805 5:0.28540029 6:0.58141991 
0.1918697985936999 1:-0.044011021 2:-0.04457331 3:0.22804681 4:4.6988942 5:6.3858361 6:7.660479 
0.75785828325519899 1:-0.53102409 2:-0.43303108 3:-0.62315021 4:0.57349783 5:-0.039463249 6:-0.0071761967 
0.16646133796441082 1:0.39718904 2:0.28125014 3:0.62816699 4:3.1066166 5:4.3696031 6:5.3927107 
0.58715337811045087 1:1.4618381 2:0.79827838 3:-0.59705441 4:-0.042844834 5:-0.54604088 6:-0.18017227 
0.094123510616232808 1:2.0621066 2:1.8938197 3:2.2248657 4:1.7864331 5:1.8415554 6:0.36432834 
0.044753009813337727 1:0.11190909 2:0.42782633 3:0.51324049 4:0.57192412 5:0.024335063 6:0.12282677 
0.75785828325519899 1:-0.24973359 2:-0.23473664 3:-0.24495792 4:0.36506023 5:0.47885835 6:0.34976108 
0.75785828325519899 1:-0.38471877 2:-0.25882142 3:-0.37277408 4:0.26733298 5:0.56622395 6:0.35235956 
0.16464181046517085 1:3.3038499 2:5.3362773 3:5.0717084 4:-0.15701733 5:-0.042240538 6:0.63976769 
0.39386372659637092 1:-0.056766437 2:0.41270584 3:0.91073643 4:0.10343131 5:0.65557333 6:1.025682 
0.75785828325519899 1:0.043232017 2:-0.073826833 3:0.043655005 4:-0.28259922 5:0.0051320884 6:-0.26379622 
0.19988652371350638 1:-0.20050987 2:-0.30895048 3:0.36551094 4:1.8665348 5:0.48742828 6:-0.10127283 
0.75785828325519899 1:-0.48224794 2:-0.44698668 3:-0.045322337 4:-0.77910403 5:-0.42598262 6:-0.38159419 
0.64082174529109259 1:0.41871815 2:0.051896969 3:-0.094727608 4:0.26221842 5:0.54789384 6:0.46496056 
0.75785828325519899 1:0.025252512 2:-0.15022389 3:-0.56745447 4:-0.5406873 5:-0.38630705 6:-0.14143123 
0.75785828325519899 1:-0.61095187 2:-0.77409846 3:-0.70203193 4:0.20540757 5:0.33975582 6:0.23416789 
0.75785828325519899 1:-0.027729152 2:-0.032893502 3:-0.064101125 4:-0.58726905 5:-0.67784312 6:-0.67900254 
0.75785828325519899 1:-0.25807515 2:-0.19030862 3:-0.21634593 4:0.31367867 5:0.45743355 6:0.42165248 
0.20505213602724326 1:0.60368326 2:4.508199 3:5.8220881 4:2.2128293 5:-0.17872449 6:1.7085322 
0.17061893279858575 1:0.12093743 2:0.64213616 3:0.35895032 4:1.0186998 5:1.0600261 6:0.70402113 
0.75785828325519899 1:-0.19250012 2:-0.26685997 3:-0.061399697 4:-0.31635525 5:-0.51644291 6:-0.36230241 
0.75785828325519899 1:-0.36657722 2:-0.24649359 3:-0.39758864 4:0.35632615 5:0.59090216 6:0.72331291 
0.75785828325519899 1:0.31801749 2:0.003912552 3:0.51447543 4:-0.58058079 5:-0.86281061 6:-0.55915729 
0.30193979962872869 1:0.30250727 2:0.8777381 3:1.4457737 4:-0.15544363 5:-0.36377133 6:0.32700465 
0.75785828325519899 1:1.9322375 2:1.4611114 3:0.79997785 4:-0.03505498 5:-0.051603972 6:-0.53081019 
0.75785828325519899 1:-0.28002095 2:-0.21212533 3:-0.39254082 4:1.0764548 5:1.3439444 6:1.1832447 
0.75785828325519899 1:0.10226344 2:0.04040231 3:-0.21904736 4:0.021755872 5:0.10662219 6:0.18015091 
0.17169508141277545 1:0.87978055 2:2.0151694 3:1.5889494 4:-0.41408251 5:1.7576812 6:1.9521598 
0.23153675326321793 1:3.0582329 2:4.6684299 3:4.2731661 4:-0.39567012 5:1.3184727 6:-0.18277075 
0.75785828325519899 1:0.24486483 2:0.0094670183 3:0.36288669 4:-0.30408033 5:-0.048350576 6:-0.16836098 
0.75785828325519899 1:-0.78928077 2:-0.4338874 3:-0.79139519 4:-0.25568881 5:-0.26093226 6:-0.30159236 
0.065152778531115091 1:-0.08118924 2:0.1653778 3:0.71260593 4:0.97109511 5:1.1041453 6:0.65464992 
0.75785828325519899 1:0.040917059 2:0.0096984544 3:0.22225803 4:0.5365157 5:0.62335677 6:0.51000095 
0.75785828325519899 1:0.60468641 2:0.51962932 3:0.54504017 4:-0.89296179 5:-0.74616444 6:-0.90286592 
0.090834601535384155 1:3.4303237 2:1.8142828 3:0.72920042 4:-0.66532496 5:0.39522226 6:1.1683624 
0.26095602082732283 1:0.9969174 2:1.0380462 3:0.53508347 4:0.49536324 5:0.60693108 6:0.32771333 
0.75785828325519899 1:-0.3092743 2:-0.38914308 3:-0.41995647 4:0.52384735 5:0.42013852 6:0.73567539 
0.75785828325519899 1:-0.79215903 2:-0.79002897 3:-0.54218454 4:-0.20375646 5:0.46592412 6:0.30739791 
0.75785828325519899 1:-0.25997342 2:0.26335242 3:0.98282598 4:-0.43847498 5:-0.47335525 6:-0.63577321 
0.10927166629067699 1:1.0438339 2:0.91816227 3:-0.79139519 4:1.0928214 5:1.2085714 6:1.2615929 
0.75785828325519899 1:-0.0014466659 2:-0.71934839 3:-0.67196889 4:-1.2508229 5:-1.2498854 6:-1.2435036 
0.061282360574781189 1:0.09261778 2:0.35029524 3:-0.17121663 4:1.1188663 5:1.5039163 6:1.5845924 
0.75785828325519899 1:-0.012712793 2:0.031144866 3:0.18397493 4:0.31226233 5:0.49576015 6:0.62323188 
0.75785828325519899 1:-0.22229363 2:-0.29743267 3:-0.33619674 4:-0.18384905 5:-0.12587663 6:0.095109601 
0.75785828325519899 1:0.390167 2:0.53953282 3:0.51146527 4:0.07982569 5:-0.089692516 6:-0.25458341 
0.24326315031957801 1:0.13174056 2:-0.060056385 3:-0.79139519 4:1.5025362 5:-0.17197964 6:1.6360109 
0.095450118589051947 1:0.45135905 2:-0.25194777 3:-0.0031954862 4:4.8018147 5:4.4398289 6:3.5781812 
0.75785828325519899 1:0.26253567 2:0.51862643 3:0.11211693 4:0.36010305 5:0.27278346 6:0.57590797 
0.75785828325519899 1:0.47365981 2:0.17872395 3:-0.0030411189 4:0.15709474 5:0.18026004 6:0.25101867 
0.75785828325519899 1:-0.3715158 2:-0.79178017 3:-0.79139519 4:1.9753567 5:2.0409648 6:1.9946017 
0.75785828325519899 1:-0.56547066 2:-0.65410655 3:-0.68637136 4:-0.18975046 5:-0.018990656 6:-0.2087556 
0.21212367251828756 1:1.0641283 2:2.3978104 3:0.6243078 4:0.70348609 5:0.55709857 6:0.05880956 
0.75785828325519899 1:-0.79215903 2:-0.41234841 3:-0.79139519 4:0.62543019 5:0.16550073 6:0.41684922 
0.75785828325519899 1:-0.79215903 2:-0.49138384 3:-0.79139519 4:1.6012077 5:1.2918107 6:1.7146741 
0.75785828325519899 1:-0.34906071 2:-0.61771709 3:-0.57304257 4:0.47041997 5:1.2531667 6:1.0148944 
0.75785828325519899 1:-0.035044418 2:-0.14642062 3:-0.11731155 4:-0.91869191 5:-1.0871363 6:-0.80908425 
0.23288323056727156 1:2.5801941 2:0.62099833 3:-0.37829272 4:-0.938678 5:-0.77258837 6:0.076998951 
0.75785828325519899 1:-0.41107842 2:-0.79230476 3:-0.79139519 4:0.48725864 5:0.14026707 6:-0.083004698 
0.1685913859219012 1:-0.79215903 2:0.8319909 3:-0.79139519 4:4.573391 5:4.6427297 6:4.3688291 
0.75785828325519899 1:1.2095848 2:-0.042968686 3:-0.28709249 4:-0.060076934 5:-0.62912152 6:-0.66356912 
0.29645780423225704 1:1.1616652 2:1.3492506 3:0.31047897 4:-0.034268126 5:-0.095802553 6:0.026367875 
0.75785828325519899 1:-0.37714886 2:-0.66927333 3:-0.12103181 4:-0.70026127 5:-0.59674626 6:-0.50703012 
0.39983241582266033 1:1.2197707 2:0.53181829 3:0.79326287 4:1.2940986 5:0.22255419 6:1.2576558 
0.056793276534547403 1:-0.017188378 2:0.55881916 3:0.17826334 4:1.0545803 5:0.79824667 6:0.42913297 
0.10075219722531588 1:0.28607107 2:1.2681708 3:2.9975515 4:0.98179632 5:0.90457719 6:-0.56758268 
0.41348268358328544 1:2.2155883 2:0.25154917 3:0.38534714 4:-0.86557928 5:-0.89217053 6:-0.9563317 
0.56344864428976937 1:-0.18587163 2:-0.109738 3:-0.20347169 4:1.6764309 5:1.507011 6:1.6449875 
0.75785828325519899 1:0.035129665 2:0.15758612 3:-0.030472197 4:-0.044339856 5:0.080991772 6:-0.25789058 
0.75785828325519899 1:-0.50292822 2:-0.088669601 3:-0.48366387 4:-0.40802373 5:-0.12476572 6:-0.088359151 
0.75785828325519899 1:-0.79056171 2:0.53775848 3:-0.69427497 4:-0.93537322 5:-0.84662298 6:-0.96404841 
0.16018093383319876 1:1.4998805 2:0.72221305 3:0.4541178 4:4.1616303 5:3.3486714 6:2.9384028 
0.23833593064133712 1:-0.33557222 2:-0.047828844 3:-0.23182897 4:0.09398906 5:0.49528404 6:0.38385634 
0.75785828325519899 1:-0.79215903 2:-0.66604094 3:-0.79139519 4:-0.4146333 5:-0.40138377 6:-0.37710589 
0.75785828325519899 1:0.11152327 2:-0.24578385 3:-0.14444933 4:-0.37450375 5:-0.51541135 6:-0.50411666 
0.75785828325519899 1:-0.12503454 2:-0.08460404 3:-0.091215751 4:-0.48702386 5:-0.55540432 6:-0.63577321 
0.75785828325519899 1:-0.11948636 2:0.14763437 3:0.28439089 4:-1.0892032 5:-1.1439517 6:-1.1154692 
0.75785828325519899 1:-0.21003978 2:-0.53171543 3:-0.24219474 4:-0.84394079 5:-0.87804603 6:-0.78774518 
0.75785828325519899 1:-0.5317726 2:-0.45983138 3:-0.51479205 4:0.076206162 5:-0.029703059 6:0.071250789 
0.75785828325519899 1:0.10504139 2:-0.026459578 3:-0.065405529 4:0.58467115 5:0.56185964 6:0.59653836 
0.29982183321458039 1:0.99961819 2:0.7238331 3:0.50011927 4:0.099575723 5:-0.32917424 6:-0.81758838 
0.062398558358239806 1:-0.3841709 2:-0.10897426 3:-0.033104161 4:5.2307287 5:6.134293 6:6.5045471 
0.75785828325519899 1:0.30235294 2:0.34520365 3:0.28361906 4:-0.10256704 5:-0.1411914 6:0.0011704503 
0.75785828325519899 1:-0.34095835 2:-0.4634495 3:-0.71225877 4:0.78815157 5:0.71849878 6:0.83654383 
0.23305130609398172 1:1.5986521 2:1.4473795 3:1.4183735 4:0.95291878 5:0.13637886 6:-0.27174916 
0.75785828325519899 1:0.28437344 2:0.087846709 3:-0.39395329 4:-0.041585867 5:-0.18078762 6:-0.37868073 
0.75785828325519899 1:-0.78833935 2:-0.52689385 3:-0.79139519 4:0.016877378 5:-0.36702473 6:-0.24647299 
0.75785828325519899 1:-0.19976137 2:-0.27117239 3:0.23414432 4:0.34593968 5:0.15820042 6:-0.49317153 
0.070517037589456405 1:0.17479878 2:-0.033194369 3:1.5270481 4:0.67421513 5:0.81538651 6:-0.62175714 
0.75785828325519899 1:-0.66595526 2:-0.44869159 3:-0.49545754 4:1.1406621 5:0.77340976 6:0.58417587 
0.75785828325519899 1:-0.79215903 2:0.19546449 3:0.77234609 4:-1.1073008 5:-0.30616241 6:-1.0012934 
0.75785828325519899 1:1.4410806 2:3.254664 3:2.6020623 4:-0.7038808 5:-0.71339242 6:-0.56577161 
0.75785828325519899 1:0.075487093 2:0.12441361 3:0.37245747 4:-0.70262183 5:-0.80329726 6:-0.25513461 
0.39767856826322584 1:0.55939041 2:0.61683248 3:0.62616021 4:0.84622139 5:0.24881942 6:0.65283886 
0.75785828325519899 1:-0.12785107 2:-0.47647164 3:-0.58067604 4:0.30620356 5:0.26278522 6:0.27440503 
0.75785828325519899 1:-0.78941967 2:-0.54810882 3:-0.79063879 4:-0.67287875 5:-0.60928374 6:-0.57238594 
0.75785828325519899 1:-0.045222515 2:-0.018536749 3:0.26802795 4:0.63628877 5:0.71445187 6:0.80000757 
0.75785828325519899 1:0.64782179 2:1.1849309 3:1.035774 4:-0.52581576 5:-0.39432152 6:-0.46498191 
0.75785828325519899 1:-0.16317732 2:-0.065826858 3:-0.25445151 4:-0.07431899 5:0.21065152 6:0.0080210003 
0.75785828325519899 1:-0.17046172 2:-0.25736337 3:-0.20149579 4:-0.25324957 5:-0.22300242 6:-0.14450216 
0.75785828325519899 1:-0.073673345 2:-0.62354156 3:-0.26057217 4:-0.32721383 5:-0.50977742 6:-0.27859971 
0.75785828325519899 1:-0.79215903 2:-0.65210849 3:-0.79139519 4:0.16763859 5:0.11312898 6:0.15904807 
0.75785828325519899 1:0.28931201 2:0.25910942 3:0.12083868 4:-0.17889187 5:-0.25069597 6:-0.15135271 
0.16288626733179745 1:2.0768451 2:1.9647934 3:1.0892623 4:-0.050792058 5:3.1690998 6:2.6988698 
0.75785828325519899 1:-0.089831749 2:-0.15257682 3:-0.2428508 4:-0.20076641 5:-0.20919532 6:-0.14371474 
0.63086693412833039 1:2.7420096 2:3.2357633 3:0.900471 4:-1.1899205 5:-0.43994842 6:-0.75010653 
0.12242176536230005 1:0.27920337 2:0.39041083 3:0.41977106 4:1.7178195 5:2.9939719 6:4.8268711 
0.75785828325519899 1:-0.12735721 2:-0.24256689 3:0.22549975 4:-0.18062295 5:-0.35639168 6:-0.46403701 
0.26501567815652083 1:0.30459074 2:2.2936641 3:3.2128939 4:1.1732379 5:0.14820218 6:-0.12284813 
0.75785828325519899 1:-0.53933479 2:-0.79230476 3:-0.79139519 4:-0.21957222 5:-0.17515369 6:-0.21442502 
0.75785828325519899 1:0.47736374 2:0.94994617 3:2.0518199 4:-0.54367734 5:-0.73703906 6:-0.93318157 
0.75785828325519899 1:0.23668531 2:-0.12382474 3:-0.04686601 4:-0.42147893 5:-0.79409253 6:-0.61026082 
0.75785828325519899 1:0.21808848 2:0.38740216 3:0.45990657 4:-0.65769247 5:-0.9604125 6:-0.80042264 
0.6920273429103001 1:-0.21212324 2:-0.51907902 3:-0.71129397 4:1.5469935 5:1.4153604 6:1.0752894 
0.56653350384619838 1:3.2275334 2:0.5049717 3:-0.24877851 4:-0.91774769 5:-1.1367307 6:-1.1317688 
0.75785828325519899 1:-0.12100651 2:-0.4186049 3:-0.4918685 4:0.32351434 5:0.2402495 6:0.40692774 
0.75785828325519899 1:-0.34288749 2:-0.41187782 3:-0.17638794 4:-0.034189441 5:-0.067315496 6:-0.20363737 
0.75785828325519899 1:0.088682352 2:0.088618163 3:0.17332358 4:0.15843239 5:0.1143986 6:0.10156644 
0.072878316694098055 1:-0.18408911 2:-0.03991373 3:-0.79139519 4:0.36207019 5:0.60915292 6:0.03258849 
0.75785828325519899 1:0.2171625 2:0.31719988 3:0.66583262 4:-0.56901404 5:-0.49723994 6:-0.62183589 
0.75785828325519899 1:0.6164927 2:0.43152931 3:0.42602294 4:-1.0430935 5:-1.0917386 6:-0.89861385 
0.75785828325519899 1:-0.45125837 2:-0.79230476 3:-0.67207694 4:-0.66823632 5:-0.72029597 6:0.33298904 
0.75785828325519899 1:-0.60836683 2:-0.79230476 3:-0.64427538 4:0.22586577 5:0.18343409 6:0.1151888 
0.75785828325519899 1:-0.79215903 2:-0.41650654 3:-0.79139519 4:0.13616443 5:0.32245727 6:0.44566878 
0.75785828325519899 1:-0.22750228 2:-0.19695855 3:-0.085673963 4:-0.65493849 5:-0.6588782 6:-0.33198675 
0.75785828325519899 1:-0.47266401 2:-0.79140216 3:-0.79139519 4:0.13466941 5:0.067264026 6:0.029596296 
0.75785828325519899 1:0.11653901 2:-0.045954212 3:0.030842515 4:-0.46695909 5:-0.56032409 6:-0.69711319 
0.75785828325519899 1:-0.074668776 2:-0.25389183 3:0.58432666 4:-0.86030735 5:-0.77528631 6:0.3152721 
0.75785828325519899 1:1.357202 2:0.79580973 3:0.69392748 4:-0.33335129 5:-0.63864366 6:-0.37159396 
0.071407852114676609 1:0.33584266 2:-0.79222762 3:1.7714116 4:0.59049387 5:0.60605822 6:0.77504637 
0.12968920393178668 1:-0.16843228 2:-0.11940431 3:-0.37684166 4:5.223411 5:4.7454101 6:2.3415388 
0.30591193812070672 1:-0.14245074 2:0.11700766 3:-0.79139519 4:0.10343131 5:1.1212058 6:1.4563217 
0.75785828325519899 1:-0.30120282 2:-0.23802303 3:-0.22966011 4:0.56649483 5:0.69286836 6:0.48661459 
0.75785828325519899 1:-0.58416009 2:-0.79230476 3:-0.79139519 4:-0.042294036 5:-0.27799276 6:0.10345625 
0.042288389806040411 1:-0.48953234 2:-0.4559664 3:-0.38368786 4:6.6749991 5:4.8213491 6:5.1179013 
0.75785828325519899 1:2.0573223 2:1.719394 3:1.953102 4:-0.44272399 5:-0.42653808 6:-0.29852142 
0.75785828325519899 1:-0.30263809 2:-0.35219817 3:-0.35690512 4:0.44705041 5:0.67199901 6:0.95056218 
0.21032068409903354 1:-0.79215903 2:-0.79230476 3:1.1766342 4:0.34169067 5:0.043538037 6:-0.78152457 
0.41056485609425808 1:0.93240725 2:0.94300308 3:1.0413312 4:-0.050083889 5:0.54694163 6:0.93008927 
0.75785828325519899 1:0.8896577 2:1.2360012 3:1.5191753 4:-1.4037087 5:-1.1422853 6:-1.3368128 
0.75785828325519899 1:-0.23317393 2:-0.20495081 3:-0.28409776 4:0.097529903 5:0.28357522 6:0.29605907 
0.0036523526216212044 1:0.23568216 2:0.593226 3:0.73329115 4:2.5832801 5:3.1215685 6:2.2049215 
0.058407858085799735 1:0.1536555 2:1.4438308 3:1.5021949 4:-0.35365213 5:-1.46945 6:-0.53915683 
0.75785828325519899 1:-0.78809242 2:-0.49881293 3:-0.45402534 4:-0.1249137 5:-0.50017593 6:0.17448149 
0.29112096484386452 1:-0.12256525 2:-0.024638948 3:1.0468112 4:-0.40881058 5:0.14137798 6:-2.3342371 
0.75785828325519899 1:-0.051681247 2:-0.22895073 3:-0.14932734 4:0.22020043 5:0.068851049 6:0.06967595 
0.75785828325519899 1:-0.6935264 2:-0.3403255 3:-0.77306407 4:0.85668655 5:0.90624356 6:1.2023789 
0.75785828325519899 1:0.57652109 2:0.72429597 3:0.73035817 4:-0.66752815 5:-0.58111409 6:-0.98082045 
0.42734928983783205 1:-0.23275723 2:-0.077066938 3:0.054537904 4:1.5694188 5:1.9653431 6:0.85504819 
0.75785828325519899 1:-0.1471501 2:-0.31897166 3:-0.37151599 4:0.73110467 5:1.6098501 6:0.88331655 
0.75785828325519899 1:0.11360673 2:-0.14447656 3:-0.28553337 4:0.2402652 5:-0.036606608 6:-0.35915273 
0.75785828325519899 1:-0.79215903 2:-0.63815289 3:-0.79139519 4:-0.24671868 5:-0.26640749 6:-0.11355658 
0.75785828325519899 1:-0.79089352 2:-0.79178789 3:-0.11057342 4:0.073530859 5:0.087419214 6:0.31511462 
0.75785828325519899 1:0.098096513 2:-0.3635694 3:-0.26414578 4:-0.61441551 5:-0.82599168 6:-0.63333221 
0.75785828325519899 1:-0.13410146 2:-0.40911602 3:-0.040050692 4:-0.15859104 5:0.13415703 6:-0.13710042 
0.75785828325519899 1:-0.79215903 2:-0.79230476 3:-0.70816803 4:0.041978017 5:0.033539794 6:0.083692018 
0.75785828325519899 1:-0.42321652 2:-0.78969725 3:-0.41485462 4:0.44964702 5:0.64882848 6:0.55685242 
0.38380975115512617 1:1.8468927 2:2.4527379 3:0.76254377 4:-0.98840717 5:-1.0300828 6:-0.96137119 
0.14868890893173811 1:0.10673902 2:1.5067814 3:2.6368722 4:2.6116855 5:1.1556442 6:0.33109924 
0.75785828325519899 1:0.13397836 2:-0.053769038 3:-0.17892728 4:-0.016327857 5:0.23620259 6:-0.50797502 
0.75785828325519899 1:-0.79215903 2:-0.79230476 3:-0.39094312 4:-0.26662608 5:-0.38043507 6:-0.59585104 
0.75785828325519899 1:-0.4676174 2:-0.24596129 3:-0.17726783 4:-1.2959097 5:-1.2051314 6:-1.1651554 
0.75785828325519899 1:-0.38796743 2:-0.45675328 3:-0.30269902 4:0.64376388 5:0.83157414 6:1.0201701 
0.75785828325519899 1:-0.44006941 2:-0.48129322 3:-0.79139519 4:-0.88627353 5:-0.77250902 6:-0.65018299 
0.75785828325519899 1:-0.79215903 2:-0.46510041 3:-0.79139519 4:-0.75927531 5:-0.98469395 6:-0.81058035 
0.75785828325519899 1:-0.48562006 2:-0.35496769 3:-0.15379628 4:0.44232928 5:0.46441645 6:0.36117866 
0.75785828325519899 1:-0.028516237 2:-0.49634428 3:-0.5388502 4:-0.95905752 5:-0.95787327 6:-0.85869168 
0.75785828325519899 1:-0.79215903 2:-0.33524933 3:-0.18034746 4:-0.18109506 5:-0.35853416 6:-0.21340137 
0.75785828325519899 1:0.36200169 2:0.069177531 3:-0.13222344 4:0.051892376 5:0.63303761 6:0.85678052 
0.75785828325519899 1:-0.79215903 2:-0.42713718 3:-0.79139519 4:-0.46703777 5:-0.57619432 6:-0.46718669 
0.75785828325519899 1:-0.44780137 2:-0.7873906 3:-0.49433837 4:0.047013882 5:0.06472479 6:-0.13418697 
0.75785828325519899 1:-0.49099848 2:-0.79230476 3:-0.43902083 4:-0.83276747 5:-0.86106488 6:-0.88617262 
0.75785828325519899 1:0.14732795 2:0.19492448 3:0.083250231 4:0.63314136 5:0.13994966 6:0.28905103 
0.75785828325519899 1:-0.091621983 2:0.27276415 3:-0.15308619 4:-1.1394044 5:-1.283689 6:-1.103028 
0.75785828325519899 1:-0.024318447 2:0.24830907 3:0.45828572 4:-0.99926575 5:0.031000558 6:0.13786648 
0.75785828325519899 1:-0.59189205 2:-0.79189589 3:-0.79139519 4:0.49300267 5:0.4539421 6:0.33251659 
0.10155120182039229 1:1.4919325 2:1.6571377 3:2.0373094 4:1.2253276 5:0.46846336 6:0.43023535 
0.10094723708770489 1:0.81758535 2:1.1266091 3:0.65340605 4:2.6730601 5:2.9193025 6:2.4076033 
0.75785828325519899 1:-0.21126671 2:0.09849277 3:0.97225182 4:-0.77029127 5:-0.91764224 6:-0.62065476 
0.75785828325519899 1:-0.67273037 2:-0.51347827 3:-0.54908476 4:0.99178936 5:1.4463867 6:0.68890267 
0.13892354315652375 1:0.83564202 2:-0.17470211 3:0.38496122 4:0.33193368 5:-0.13944568 6:0.94040447 
0.0086262930962598197 1:0.67004538 2:1.1121057 3:-0.65359145 4:1.7951672 5:1.6023117 6:1.5112836 
0.75785828325519899 1:0.2862254 2:-0.79207333 3:-0.79114048 4:-0.69011085 5:-0.78464974 6:-0.85404591 
0.45262314856210162 1:-0.24519627 2:-0.79130959 3:-0.15753197 4:0.10232971 5:-0.3613908 6:-0.04158643 
0.32898615172531026 1:1.428657 2:1.0939766 3:1.0278241 4:0.035053703 5:0.26064274 6:1.0848172 
0.75785828325519899 1:-0.098204179 2:0.22601406 3:0.30955277 4:0.21201715 5:1.0318564 6:2.0101927 
0.75785828325519899 1:-0.78584692 2:-0.41030406 3:-0.78575306 4:-0.69868756 5:-0.67339945 6:-0.50592773 
0.75785828325519899 1:0.67807057 2:-0.32188775 3:0.070746476 4:-0.84724558 5:-0.84265542 6:-1.0420817 
0.75785828325519899 1:-0.31388107 2:-0.16097024 3:-0.25801739 4:0.91507111 5:0.96274157 6:0.82174035 
0.75785828325519899 1:-0.48450116 2:-0.47566933 3:-0.49389843 4:-0.091000292 5:0.070596773 6:0.079203726 
0.75785828325519899 1:-0.28432677 2:-0.31616357 3:-0.33526282 4:-0.70852324 5:-0.82329374 6:-0.95089851 
0.45856244636586807 1:-0.10268748 2:1.5268392 3:1.9697737 4:-0.8557436 5:-1.0257185 6:-0.41387839 
0.18167830609435981 1:0.45429133 2:1.2592219 3:0.48275294 4:4.9455729 5:3.9703876 6:4.201345 
0.18813072791147939 1:4.0530473 2:1.2524331 3:0.9638388 4:1.6400783 5:1.643733 6:-0.10623357 
0.31242582609645775 1:0.48600625 2:0.78416078 3:1.1243037 4:-0.10437681 5:-0.23649211 6:0.11062177 
0.75785828325519899 1:-0.37345264 2:-0.79230476 3:-0.79139519 4:0.023880377 5:0.097496808 6:0.13322071 
0.75785828325519899 1:-0.38685625 2:-0.64002753 3:-0.41203742 4:-1.256803 5:-1.2432199 6:-1.2386216 
0.75785828325519899 1:-0.43918972 2:-0.63370932 3:-0.19228006 4:-0.1588271 5:-0.10008751 6:0.13140964 
0.75785828325519899 1:-0.3257568 2:0.16560924 3:-0.32968244 4:-0.3742677 5:-0.69847441 6:-0.74868917 
0.75785828325519899 1:-0.020120658 2:-0.17859024 3:0.14754423 4:-1.2738778 5:-1.6259305 6:-1.5670543 
0.75785828325519899 1:-0.36813596 2:-0.22157564 3:-0.3900941 4:0.50047779 5:-0.0035171852 6:0.16739471 
0.75785828325519899 1:0.52157943 2:0.48244525 3:-0.050447333 4:-1.2706517 5:-0.91891186 6:-1.2090146 
0.75785828325519899 1:1.5177829 2:1.5242934 3:1.0703523 4:0.061885421 5:0.16280279 6:0.26369612 
0.75785828325519899 1:-0.052668962 2:-0.036241611 3:-0.04256688 4:0.073452173 5:-0.023989778 6:0.33220162 
0.75785828325519899 1:-0.22044938 2:0.13698831 3:0.59991776 4:-0.94520889 5:-0.87820473 6:-1.0204277 
0.16926072771485895 1:-0.36894619 2:0.44078676 3:0.79079299 4:0.26764772 5:-0.24680776 6:-0.88034572 
0.75785828325519899 1:-0.50965704 2:-0.79230476 3:-0.54733269 4:0.33358607 5:0.21128633 6:0.43684968 
0.75785828325519899 1:-0.79215903 2:-0.66513063 3:-0.79139519 4:0.089661364 5:-0.018117794 6:0.018414938 
0.75785828325519899 1:0.25651678 2:0.16738358 3:0.028063903 4:-0.44406164 5:0.041236854 6:-0.15387246 
0.20509289546600207 1:-0.76978111 2:0.37359314 3:0.12238236 4:-2.335265 5:3.865168 6:4.2131563 
0.024261004797196277 1:2.2027788 2:0.31982282 3:0.87963141 4:0.59647396 5:1.688487 6:1.1759217 
0.75785828325519899 1:-0.34832764 2:-0.037337075 3:0.94477443 4:-0.57916445 5:-0.65911625 6:-0.78656405 
0.75785828325519899 1:-0.79215903 2:-0.64558199 3:-0.78949647 4:0.3970065 5:0.44687985 6:0.46007855 
0.068402258223843215 1:0.27958919 2:0.26042089 3:0.49039412 4:0.12868932 5:0.043855441 6:0.23038828 
0.75785828325519899 1:-0.79141053 2:-0.28956385 3:-0.79139519 4:0.6813755 5:1.2469773 6:1.2619866 
0.10365546370339727 1:-0.77872456 2:1.8338778 3:0.44925523 4:0.099497038 5:0.58994994 6:1.0488321 
0.75785828325519899 1:-0.40951197 2:-0.35023096 3:-0.36199152 4:0.92467073 5:1.0165416 6:0.81394489 
0.75785828325519899 1:-0.46778717 2:-0.79230476 3:-0.47580657 4:-0.78288093 5:-0.63665988 6:-0.66640383 
0.1078212253222844 1:-0.79019132 2:-0.79123244 3:0.1216877 4:0.48182935 5:1.309268 6:1.5759308 
0.03923748235333361 1:-0.44011571 2:-0.53453895 3:-0.48869625 4:5.0902753 5:5.1239944 6:6.6825039 
0.75785828325519899 1:-0.42317022 2:-0.79230476 3:-0.79139519 4:2.2911999 5:2.3051247 6:2.2613007 
0.75785828325519899 1:-0.79215903 2:-0.69072746 3:-0.79139519 4:-0.11602225 5:-0.37035748 6:-0.18694408 
0.75785828325519899 1:-0.18703682 2:-0.25867484 3:-0.31088049 4:-1.4227505 5:-1.3387587 6:-1.5104388 
0.75785828325519899 1:-0.79215903 2:-0.63387904 3:-0.66137157 4:0.003028749 5:-0.36472354 6:-0.77372911 
0.75785828325519899 1:-0.43645807 2:-0.48489591 3:-0.75019454 4:0.82277315 5:1.0024171 6:0.98717719 
0.75785828325519899 1:-0.79215903 2:-0.35373336 3:-0.79139519 4:0.44264402 5:0.71302355 6:0.56071077 
0.75785828325519899 1:-0.51938757 2:-0.36060701 3:-0.61803293 4:0.69726995 5:0.49909289 6:0.55653745 
0.75785828325519899 1:0.41485988 2:0.61675533 3:0.60678711 4:-1.2548359 5:-1.275992 6:-1.1940537 
0.75785828325519899 1:0.27866321 2:-0.16623155 3:0.055464108 4:-0.47286049 5:-0.50398478 6:-0.54797593 
0.75785828325519899 1:-0.6684477 2:-0.79230476 3:-0.79139519 4:-0.36057644 5:-0.44018647 6:-0.31230127 
0.75785828325519899 1:-0.12404682 2:-0.78639543 3:0.082015293 4:-0.64274225 5:-0.71117059 6:-0.58002391 
0.75785828325519899 1:-0.61484871 2:-0.5859332 3:-0.52740386 4:1.1755198 5:1.1903206 6:1.0725335 
0.75785828325519899 1:-0.66522219 2:-0.77642053 3:-0.43922923 4:-0.6650889 5:-0.76806536 6:-0.63215108 
0.35192632604765156 1:-0.085888604 2:0.087383837 3:-0.048687545 4:1.0127197 5:0.63184734 6:0.48566969 
0.36374612914590848 1:1.5288175 2:2.2520828 3:2.7227776 4:-0.61118941 5:-0.37519789 6:-0.30127739 
0.75785828325519899 1:-0.44410515 2:-0.7883472 3:-0.45423374 4:0.58301876 5:0.3768128 6:0.47543324 
0.75785828325519899 1:2.4196132 2:2.5804135 3:3.3309078 4:-1.2274534 5:-0.94525644 6:-1.0614522 
0.3295918883904731 1:-0.39922584 2:0.35129813 3:1.0238105 4:1.1482946 5:0.943856 6:0.56181316 
0.75785828325519899 1:-0.79215903 2:-0.60417036 3:-0.79139519 4:1.5122145 5:1.2573723 6:1.7785338 
0.32635392861994023 1:2.0379539 2:2.7576164 3:0.26478624 4:-0.062122754 5:-1.0641244 6:-1.0010571 
0.13271790385449561 1:-0.1200651 2:-0.18760082 3:-0.205957 4:2.6622015 5:2.5217533 6:2.1123997 
0.18485954847902569 1:0.70639022 2:0.099804241 3:-0.31461618 4:2.7545782 5:5.2664296 6:5.1432562 
0.75785828325519899 1:-0.79215903 2:-0.79230476 3:-0.32220334 4:-0.15701733 5:-0.032083593 6:0.056053592 
0.25498143017930325 1:4.1183291 2:6.5101984 3:4.9708294 4:-0.40133547 5:-0.09699282 6:-0.074815535 
0.19930515460097703 1:3.3125695 2:-0.64888381 3:1.777046 4:-1.4377007 5:-1.4018429 6:-1.3874439 
0.36093008324665304 1:-0.0015238311 2:0.79449825 3:0.85879181 4:-0.18998651 5:-0.70006143 6:-0.95948138 
0.75785828325519899 1:-0.32119633 2:-0.34763116 3:-0.49648408 4:-0.92758336 5:-0.96207888 6:-0.75994927 
0.3704283908144157 1:-0.79215903 2:-0.39762907 3:-0.79139519 4:2.3439978 5:2.7240987 6:3.1762035 
0.75785828325519899 1:-0.23639172 2:-0.41923749 3:-0.41182902 4:0.59962138 5:0.82974907 6:0.81299999 
0.3259254068256226 1:2.4537203 2:0.62377556 3:0.25837999 4:-0.77060601 5:0.039173725 6:-0.28151316 
0.13473916156325433 1:0.58740139 2:0.27685285 3:0.58486694 4:3.2207891 5:4.3733326 6:3.8765344 
0.23612575266770866 1:1.338065 2:1.2346897 3:1.1081723 4:0.20886973 5:0.85672845 6:1.2445846 
0.75785828325519899 1:-0.29944345 2:-0.38274002 3:-0.45499785 4:-0.096586955 5:-0.18213659 6:-0.17284927 
0.75785828325519899 1:-0.074630194 2:-0.27269215 3:-0.066061591 4:0.02144113 5:-0.06477626 6:0.34338298 
0.75785828325519899 1:-0.79215903 2:-0.51239052 3:-0.78773668 4:0.40330133 5:0.26230911 6:0.24968006 
0.64227959593880246 1:0.1261075 2:0.23241712 3:0.477736 4:0.71993134 5:0.53313453 6:0.76142401 
0.75785828325519899 1:-0.79215903 2:-0.5571734 3:-0.79139519 4:-0.31706342 5:-0.25656795 6:-0.21395257 
0.32468681213670192 1:1.3808917 2:1.620648 3:1.357244 4:0.59450683 5:1.3142671 6:0.50724499 
0.15847842751584129 1:-0.2575813 2:0.017412991 3:-0.13688533 4:2.007067 5:0.5729688 6:0.6088221 
0.75785828325519899 1:-0.39703435 2:-0.50492285 3:-0.62354385 4:0.56358347 5:1.3713999 6:0.77969214 
0.75785828325519899 1:-0.79127935 2:-0.40970232 3:-0.78910284 4:0.41793681 5:0.32317143 6:0.28834235 
0.75785828325519899 1:0.18946017 2:0.11847342 3:0.31526436 4:1.3103865 5:0.21549194 6:0.82591367 
0.75785828325519899 1:0.65252887 2:-0.066775746 3:-0.39136763 4:-0.79539191 5:-1.0611091 6:-0.8296359 
0.75785828325519899 1:-0.636509 2:-0.58310196 3:-0.42938831 4:1.2152559 5:1.4301197 6:1.9993263 
0.75785828325519899 1:-0.27818442 2:-0.24864594 3:-0.34904782 4:0.42706432 5:0.32261597 6:0.40669151 
0.75785828325519899 1:-0.13588397 2:-0.079080432 3:-0.12810955 4:-0.11885492 5:-0.30076653 6:-0.9045195 
0.087966907630925906 1:0.58377463 2:0.74689956 3:0.20651256 4:3.8710452 5:3.6982132 6:2.8799763 
0.75785828325519899 1:-0.45507805 2:-0.78869436 3:-0.79026831 4:0.4723871 5:0.25635778 6:0.54008038 
0.75785828325519899 1:-0.077099482 2:0.15642894 3:0.39916302 4:-0.2061957 5:0.082340741 6:-0.14300607 
0.75785828325519899 1:-0.017188378 2:-0.46432124 3:-0.20739262 4:-0.025140621 5:0.02695365 6:0.46496056 
0.75785828325519899 1:-0.31098737 2:-0.31759076 3:-0.23896074 4:-0.04103507 5:-0.063903398 6:-0.041350205 
0.75785828325519899 1:0.79358696 2:1.0747674 3:1.2249512 4:-0.52046515 5:-0.72410483 6:-0.80097383 
0.11750498674109089 1:2.7279656 2:0.28703604 3:0.10455293 4:1.207466 5:0.6009004 6:0.56220687 
0.10389482456222147 1:0.72521854 2:0.4184146 3:1.1990946 4:1.6826471 5:0.74627167 6:0.1005428 
0.75785828325519899 1:0.37511978 2:0.10080713 3:0.064185863 4:-0.079905652 5:-0.1307964 6:-0.17332172 
0.75785828325519899 1:-0.79215903 2:-0.55912518 3:-0.7823647 4:0.42147765 5:0.46338488 6:0.51173328 
0.75785828325519899 1:-0.79215903 2:-0.53101341 3:-0.79026831 4:2.2569718 5:2.4679532 6:2.4702031 
0.75785828325519899 1:0.17001453 2:0.27222413 3:0.33633551 4:-1.2226536 5:-1.1153853 6:-1.1685413 
0.75785828325519899 1:1.1719282 2:1.5186618 3:1.3426563 4:-0.20792678 5:-0.41423865 6:-0.44435152 
0.52095952438776283 1:1.200788 2:1.8719104 3:1.9830492 4:0.1325449 5:-0.029703059 6:0.17133181 
0.27676288656878584 1:2.0918924 2:3.0505373 3:2.0603873 4:-0.46278876 5:-0.49866826 6:-0.35679047 
0.75785828325519899 1:0.19100348 2:0.23843446 3:0.15665191 4:-0.169607 5:-0.22752543 6:-0.20568466 
0.75785828325519899 1:-0.076983734 2:0.068560368 3:0.51694531 4:-0.68483893 5:-0.38852888 6:-0.63207234 
0.75785828325519899 1:-0.33149018 2:-0.19879461 3:-0.27837845 4:-1.0390806 5:-1.1011814 6:-1.0234198 
0.75785828325519899 1:-0.24315139 2:-0.63745859 3:0.052531128 4:0.40896668 5:0.32856731 6:0.44527507 
0.042052593800859059 1:-0.15654111 2:-0.45662213 3:-0.082324191 4:4.691419 5:5.2383393 6:5.8856354 
0.75785828325519899 1:-0.79215903 2:-0.30263999 3:-0.68909595 4:0.15559972 5:0.3878426 6:0.077392661 
0.75785828325519899 1:-0.79215903 2:-0.39130315 3:-0.79139519 4:0.63078079 5:0.50821827 6:0.48519724 
0.5181240809229829 1:1.7691873 2:1.9154976 3:1.3751506 4:0.74448118 5:0.64168688 6:0.65205144 
0.75785828325519899 1:0.11453271 2:-0.20364705 3:0.0086908 4:-0.038281081 5:-0.026449663 6:0.031171135 
0.75785828325519899 1:-0.31406626 2:-0.22839529 3:-0.03480992 4:-0.49615137 5:-0.67816052 6:-0.65955328 
0.75785828325519899 1:0.14871692 2:0.073806253 3:-0.27125439 4:-0.67539669 5:-0.65260946 6:-0.4039569 
0.75785828325519899 1:-0.36047345 2:-0.32091572 3:-0.35431175 4:1.3106226 5:1.2234894 6:1.2221432 
0.30010278270354496 1:1.5613812 2:1.9198177 3:1.3821743 4:-0.28086814 5:0.63041902 6:0.59764075 
0.75785828325519899 1:-0.79215903 2:-0.79230476 3:-0.73022713 4:-0.067394675 5:-0.25561574 6:-0.22474021 
0.51536434798196384 1:0.61116829 2:0.87334082 3:1.6344106 4:-0.46947702 5:0.32975758 6:0.1210157 
0.75785828325519899 1:-0.1726455 2:-0.093252035 3:0.20466015 4:-0.88650959 5:-0.75497242 6:-0.63451334 
0.75785828325519899 1:-0.37190162 2:0.47550217 3:0.27381673 4:-1.1619871 5:-0.86296931 6:0.60874336 
0.75785828325519899 1:0.16345548 2:0.35014095 3:0.27651816 4:0.62708258 5:0.81998888 6:0.6803198 
0.75785828325519899 1:0.10496422 2:0.20179041 3:-0.0069774864 4:-0.88792593 5:-1.0184182 6:-0.52254228 
0.75785828325519899 1:-0.072392401 2:-0.15310912 3:-0.071009064 4:-0.62393644 5:-0.64173835 6:-0.67230948 
0.75785828325519899 1:0.10272643 2:0.20094181 3:-0.2807943 4:-0.32390905 5:-0.32941229 6:-0.095209701 
0.75785828325519899 1:-0.43593335 2:-0.79137902 3:-0.52249498 4:-1.0034361 5:-0.99334322 6:-0.82514761 
0.38898270274261521 1:-0.021717978 2:0.27646713 3:0.82452226 4:0.0040516591 5:-0.29283142 6:-0.051114207 
0.75785828325519899 1:-0.79059258 2:-0.79150245 3:-0.42549054 4:0.43800159 5:0.30611094 6:0.29653152 
0.61742929468871843 1:0.31392773 2:0.070489002 3:-0.38342543 4:0.30093164 5:0.66104856 6:0.97213748 
0.75785828325519899 1:-0.52515182 2:-0.79230476 3:-0.54534135 4:-0.29448071 5:-0.34655214 6:-0.21473999 
0.014160312834002977 1:1.4593688 2:0.16113481 3:-0.21367537 4:2.1889089 5:1.4615428 6:2.1520069 
0.75785828325519899 1:-0.79215903 2:-0.79230476 3:-0.54521014 4:-0.57829891 5:-0.74433937 6:-0.53348741 
0.75785828325519899 1:0.32882063 2:0.82180771 3:0.48144082 4:-0.65674825 5:-0.86598465 6:-0.63262353 
0.75785828325519899 1:0.088528021 2:-0.035184719 3:0.439916 4:-0.48906968 5:-0.28632462 6:-0.16946336 
0.75785828325519899 1:-0.79215903 2:-0.61636704 3:-0.78549064 4:0.56106554 5:0.25802415 6:0.32936691 
0.25168892846797797 1:-0.044528028 2:-0.06455396 3:-0.38205928 4:1.1020276 5:1.9572493 6:2.3894139 
0.75785828325519899 1:-0.0049191023 2:0.21745092 3:0.75119777 4:-0.57656784 5:-0.69887117 6:-0.9176694 
0.11053988420965906 1:0.50383142 2:-0.23170482 3:-0.44568179 4:1.5192175 5:1.7183231 6:1.61979 
0.41918064044543918 1:0.69566425 2:0.57563685 3:0.94508316 4:0.68216235 5:0.24318549 6:-0.31056894 
0.75785828325519899 1:-0.79135651 2:-0.42658173 3:-0.78885585 4:0.31186891 5:0.28770147 6:0.26141261 
0.75785828325519899 1:-0.25604571 2:-0.28088499 3:-0.40140923 4:-0.92490806 5:-0.92748178 6:-0.91877179 
0.75785828325519899 1:-0.79215903 2:-0.79230476 3:-0.55477319 4:0.52549974 5:0.6322441 6:0.62709024 
0.75785828325519899 1:-0.21479316 2:-0.35077098 3:-0.1483857 4:-0.77674347 5:-0.81623149 6:-0.46726543 
0.75785828325519899 1:-0.79215903 2:-0.79230476 3:-0.50847842 4:0.90098642 5:0.37419421 6:0.90079727 
0.75785828325519899 1:-0.44294767 2:-0.61504014 3:-0.58492114 4:1.1340526 5:1.177069 6:1.1922212 
0.75785828325519899 1:0.24285853 2:0.011318507 3:0.25753097 4:-0.95252663 5:-0.8029005 6:-0.4416743 
0.75785828325519899 1:-0.4488894 2:-0.16009078 3:-0.094125575 4:-0.24223361 5:-0.30108394 6:-0.41836668 
0.75785828325519899 1:-0.51120034 2:-0.50398167 3:-0.47877043 4:1.3069244 5:1.180005 6:1.223718 
0.75785828325519899 1:-0.31384248 2:-0.34824833 3:-0.62530364 4:0.3377564 5:0.37974879 6:0.41535313 
0.75785828325519899 1:-0.21727017 2:-0.24510497 3:-0.25746167 4:-0.2061957 5:-0.29299012 6:-0.45041465 
0.75785828325519899 1:-0.3147839 2:0.16938936 3:0.02065427 4:-0.066450451 5:-0.55437275 6:-0.95774906 
0.75785828325519899 1:-0.79215903 2:-0.71862322 3:-0.79139519 4:-0.31273572 5:-0.37408698 6:-0.34899502 
0.75785828325519899 1:-0.32801774 2:-0.59330829 3:-0.35868034 4:-1.0158684 5:-0.56460905 6:-0.24261464 
0.75785828325519899 1:0.23190107 2:0.051125515 3:-0.19646341 4:-0.0613359 5:-0.035178287 6:0.45039329 
0.75785828325519899 1:-0.53908015 2:-0.010127904 3:0.31912355 4:-0.27142589 5:-0.19935578 6:-0.18781024 
0.75785828325519899 1:-0.4651404 2:-0.36683264 3:-0.24531296 4:-0.08045645 5:0.35094433 6:0.59740452 
0.75785828325519899 1:-0.29615621 2:-0.78599427 3:-0.40920478 4:-0.75211494 5:-0.71299567 6:-0.65719102 
0.080737263759052103 1:0.13112324 2:0.33610049 3:-0.11045764 4:5.019065 5:4.9916367 6:5.4727126 
0.16709714156038336 1:1.1703077 2:0.39380523 3:0.72341164 4:4.5284616 5:5.094079 6:4.1122091 
0.75785828325519899 1:-0.7885014 2:-0.50364223 3:-0.79139519 4:0.24679609 5:0.25294568 6:0.48496101 
0.31285123825441519 1:0.45004724 2:1.0310259 3:0.33417436 4:0.69608967 5:0.50464747 6:0.12070074 
0.75785828325519899 1:-0.042205354 2:0.047731119 3:0.051836475 4:0.29636788 5:-0.26997829 6:-0.08552444 
0.75785828325519899 1:-0.055794155 2:0.70979264 3:1.2318977 4:-0.73645655 5:-0.3092571 6:-0.61081201 
0.75785828325519899 1:0.5067637 2:-0.026799018 3:-0.25689823 4:-1.1253984 5:-1.1194322 6:-1.2379129 
0.62933676177896092 1:0.95061825 2:0.84965719 3:0.61373364 4:0.23168849 5:0.18319603 6:0.13739403 
0.073773821675860454 1:-0.73075092 2:-0.33653766 3:-0.24472637 4:5.5065997 5:6.3223552 6:5.8927221 
0.75785828325519899 1:0.61780451 2:0.35145242 3:0.03786623 4:0.49646483 5:-0.27640573 6:-0.17340046 
0.75785828325519899 1:-0.40678032 2:-0.79230476 3:-0.21979604 4:-0.42281658 5:-0.49152666 6:-0.49293531 
0.036825432178400341 1:-0.050045343 2:-0.12285271 3:-0.088583788 4:3.0022798 5:2.5246893 6:3.9096061 
0.75785828325519899 1:-0.62711027 2:-0.20840692 3:-0.19402441 4:-1.025704 5:-1.3123348 6:-0.99286797 
0.19918750287307513 1:-0.18958327 2:-0.039983161 3:0.29697183 4:3.4583403 5:5.0497217 6:2.3310661 
0.18707340392497496 1:2.114579 2:1.4910438 3:3.7148966 4:1.6754867 5:1.4442442 6:0.80386592 
0.063999495481667196 1:2.5254839 2:1.8612644 3:2.9726212 4:-0.12680215 5:-0.49890631 6:-0.68790038 
0.75785828325519899 1:-0.49866099 2:-0.52691699 3:-0.53519941 4:1.7570048 5:1.4247239 6:0.580475 
0.75785828325519899 1:-0.27025183 2:-0.19270013 3:-0.18228477 4:-0.02805198 5:-0.011690352 6:-0.045759754 
0.75785828325519899 1:-0.79215903 2:-0.79230476 3:-0.77309494 4:-0.12145154 5:1.350848 6:0.43637723 
0.28486374533144565 1:0.40235911 2:0.57864552 3:1.5750563 4:0.57601576 5:0.10598738 6:0.92953808 
0.21106889777906024 1:4.7809472 2:3.4225323 3:4.9912059 4:0.57027173 5:-0.88867908 6:-0.72514533 
0.75785828325519899 1:-0.21962371 2:-0.16203484 3:-0.24778284 4:0.56767511 5:0.45806836 6:0.47433085 
0.75785828325519899 1:0.29255296 2:0.34690085 3:0.52257972 4:0.69687652 5:0.38514467 6:0.50118185 
0.75785828325519899 1:-0.12785879 2:0.40352554 3:-0.12496817 4:-0.094855877 5:-0.65253011 6:-0.89932253 
0.75785828325519899 1:-0.79215903 2:-0.79230476 3:-0.58497517 4:0.12680087 5:0.14764672 6:0.31684694 
0.75785828325519899 1:-0.015027751 2:-0.007273526 3:-0.1206922 4:-0.035448407 5:0.23429816 6:0.10416493 
0.75785828325519899 1:1.0543284 2:0.49247415 3:-0.45296021 4:-0.43304568 5:-0.43923426 6:-0.47931295 
0.43601449021669264 1:0.29008367 2:0.22377684 3:-0.41357338 4:2.1797814 5:1.1864324 6:0.98449996 
0.75785828325519899 1:0.57034787 2:0.72159588 3:0.86488932 4:-0.73086989 5:-0.81353356 6:0.042824944 
0.73555738759152967 1:0.27989785 2:0.17995828 3:-0.066092464 4:0.16213061 5:0.56416082 6:0.79362947 
0.75785828325519899 1:0.47643776 2:0.34319787 3:0.34544318 4:0.88210193 5:0.64041726 6:0.90544304 
0.75785828325519899 1:-0.37578303 2:-0.29332083 3:-0.27891873 4:0.73991743 5:0.72952859 6:0.4787404 
0.75785828325519899 1:-0.45665994 2:-0.79230476 3:-0.79139519 4:-0.4981185 5:-0.5473105 6:-0.61514282 
0.75785828325519899 1:-0.27786033 2:-0.48357673 3:-0.18324957 4:0.33704823 5:0.16089836 6:0.055423656 
0.17949522049915578 1:3.9652333 2:3.2545868 3:4.6755246 4:1.0175982 5:-0.5788129 6:-0.82979338 
0.032687772683028214 1:0.73316656 2:0.90581902 3:0.6224554 4:1.3860819 5:1.7226874 6:1.2018278 
0.43563465081952041 1:1.2068841 2:1.0852591 3:1.6503876 4:0.83638572 5:0.69239226 6:0.51606408 
0.75785828325519899 1:0.30042381 2:0.29081617 3:3.7380517 4:-0.84944877 5:-0.76822406 6:-0.84562052 
0.10003316586976058 1:0.5454235 2:0.41370873 3:2.2497188 4:0.6259023 5:0.7098495 6:0.27306642 
0.75785828325519899 1:-0.12578304 2:0.45444148 3:-0.12066132 4:-0.76564883 5:-0.5645297 6:-0.73585423 
0.75785828325519899 1:0.023477711 2:0.086612383 3:0.1779546 4:-0.70033996 5:-0.75576593 6:-0.59301633 
0.75785828325519899 1:-0.082778845 2:-0.27454364 3:-0.22792348 4:0.24128811 5:0.040602045 6:0.00077674057 
0.35626508277833252 1:0.50282828 2:1.6498861 3:1.2604557 4:0.18557885 5:-0.45796113 6:-0.17371543 
0.27334669602618472 1:-0.23729455 2:0.29706494 3:1.7981943 4:-0.97786333 5:-1.2333804 6:-0.21710224 
0.75785828325519899 1:1.4329011 2:0.54246435 3:-0.23554151 4:-0.77454028 5:-0.81274004 6:-0.80530464 
0.75785828325519899 1:-0.49151548 2:-0.66344114 3:-0.41965545 4:-0.19399947 5:-0.096199309 6:-1.0678969e-05 
0.75785828325519899 1:-0.38363846 2:-0.2252169 3:-0.36727089 4:0.77729299 5:0.68302882 6:0.50354411 
0.75785828325519899 1:-0.25479563 2:-0.75946398 3:-0.3736231 4:0.29424338 5:0.20065328 6:0.016682615 
0.20478035010879625 1:5.4475778 2:7.3503114 3:11.792709 4:0.81813071 5:0.21120698 6:-0.39710635 
0.1753213953662035 1:-0.44547098 2:-0.30226197 3:-0.53169527 4:4.9535201 5:5.1316121 6:7.4872467 
0.75785828325519899 1:-0.028878914 2:0.057451435 3:0.060017945 4:-0.014124666 5:-0.56944947 6:-0.82443893 
0.18328694610812668 1:0.17016886 2:-0.72366853 3:1.6563307 4:-0.51196713 5:-0.35647103 6:-0.4411231 
0.75785828325519899 1:-0.36608336 2:-0.29754839 3:0.47148412 4:-0.9958036 5:-0.91057999 6:-0.77813866 
0.75785828325519899 1:-0.69589538 2:-0.14883527 3:0.1098786 4:-0.12577924 5:-0.036368554 6:-0.21103911 
0.75785828325519899 1:-0.79215903 2:-0.5771232 3:-0.79139519 4:-0.021757149 5:-0.048747331 6:-0.072374534 
0.75785828325519899 1:0.023477711 2:0.014404322 3:0.41591188 4:-0.8449637 5:-1.4770677 6:-1.2530314 
0.070823896179645796 1:-0.69942183 2:0.88645553 3:0.69670609 4:0.43949661 5:0.84514319 6:0.32448491 
0.7153295086781668 1:0.39456542 2:0.23473148 3:0.43744612 4:-0.54462157 5:0.034888763 6:0.25385338 
0.72010096455688477 1:-0.29209732 2:0.012552833 3:0.27358518 4:0.1928966 5:0.35903814 6:0.51141831 
0.75785828325519899 1:-0.58552591 2:-0.63606225 3:-0.79139519 4:-0.20202538 5:-0.2353812 6:-0.2541897 
0.75785828325519899 1:-0.17409621 2:-0.46946684 3:-0.49216951 4:-0.61528105 5:-0.66054457 6:-0.70459368 
0.75785828325519899 1:-0.50662444 2:-0.45688443 3:-0.26218531 4:0.32587491 5:0.090990015 6:0.75677824 
0.75785828325519899 1:-0.3885616 2:-0.79230476 3:-0.79016025 4:0.4217924 5:0.50401266 6:0.61157807 
0.75785828325519899 1:-0.79215903 2:-0.79230476 3:-0.65401596 4:-0.027422497 5:0.023224147 6:0.010068291 
0.75785828325519899 1:-0.50371531 2:-0.56427849 3:-0.74226006 4:0.62763338 5:0.58637914 6:0.33708362 
0.21878887197588623 1:0.68300915 2:2.0569822 3:-0.065575334 4:-0.67256401 5:-0.70220392 6:-0.60152046 
0.75785828325519899 1:-0.37765815 2:-0.41146124 3:-0.42036554 4:-1.2416954 5:-0.76322494 6:-0.58577207 
0.23931667264411155 1:0.10203194 2:-0.43905613 3:-0.043585704 4:0.14049213 5:0.097893563 6:1.1055263 
0.75785828325519899 1:-0.5470899 2:-0.45062023 3:-0.49561191 4:0.98053735 5:0.78182098 6:0.67425667 
0.10327818210776679 1:0.2864569 2:0.37853045 3:-0.037040528 4:5.8023781 5:5.3021376 6:4.4149719 
0.75785828325519899 1:0.3119986 2:0.059688651 3:-0.16192372 4:-0.60339955 5:-0.8029005 6:-0.7322321 
0.75785828325519899 1:0.51031331 2:0.51592634 3:0.55862449 4:-0.51055079 5:-0.62467786 6:-0.57632304 
0.75785828325519899 1:-0.43639634 2:-0.17244175 3:-0.40038269 4:0.062987016 5:-0.16055308 6:0.14424458 
0.75785828325519899 1:0.23074359 2:0.51345769 3:0.25382616 4:-0.05212971 5:0.43148573 6:0.24133341 
0.75785828325519899 1:-0.79108644 2:-0.21071357 3:-0.79032234 4:-0.41667912 5:-0.53247184 6:-0.60207165 
0.75785828325519899 1:0.18158932 2:0.36279279 3:0.65178519 4:0.66721213 5:1.32125 6:1.0656829 
0.75785828325519899 1:0.14879409 2:0.69374641 3:2.7536511 4:0.52990612 5:0.51178908 6:0.693076 
0.25436534278669387 1:1.8158723 2:3.6247303 3:0.76895001 4:-0.60339955 5:-0.86661946 6:-0.50151818 
0.75785828325519899 1:-0.51353845 2:-0.79230476 3:-0.79139519 4:-0.23940094 5:-0.50819039 6:-0.39875993 
0.75785828325519899 1:0.43955277 2:0.2536321 3:0.031768719 4:0.21123029 5:0.12899921 6:0.3544856 
0.37605116658307258 1:1.0358859 2:1.6704839 3:1.0263576 4:0.0061761646 5:0.24945423 6:0.15038645 
0.75785828325519899 1:-0.28060741 2:-0.40251238 3:-0.27585454 4:-0.91137417 5:-0.93700392 6:-0.97798574 
0.28136161838413293 1:1.5924788 2:0.5490217 3:-0.25852681 4:0.75589056 5:0.57574609 6:0.4449601 
0.17212768366798809 1:0.91080098 2:1.1023854 3:-0.011608507 4:5.4877152 5:5.2165971 6:4.7282074 
0.75785828325519899 1:-0.79215903 2:-0.79230476 3:-0.59528691 4:0.1562292 5:0.080753719 6:0.077156435 
0.19199861031781973 1:1.073774 2:-0.79230476 3:0.32059004 4:0.7993249 5:0.82990777 6:-2.3342371 
0.75785828325519899 1:2.2921362 2:1.9045429 3:0.79511528 4:-0.85826153 5:-0.70101365 6:-0.44931227 
0.75785828325519899 1:-0.456876 2:-0.79230476 3:-0.45915805 4:0.47301659 5:0.53392804 6:0.41141603 
0.75785828325519899 1:0.028184792 2:-0.2563682 3:0.19825391 4:-0.21083814 5:-0.52556829 6:-0.1945033 
0.75785828325519899 1:-0.79215903 2:-0.11879487 3:-0.79139519 4:-1.0762201 5:-1.060633 6:-1.1331074 
0.75785828325519899 1:-0.79215903 2:-0.5512795 3:-0.79139519 4:-0.13380514 5:-0.14872976 6:-0.16481759 
0.75785828325519899 1:-0.0010608396 2:0.12587937 3:0.36234641 4:-1.1538039 5:-1.1694234 6:-1.2531101 
0.17090641073782292 1:-0.21766371 2:-0.35661088 3:-0.57237879 4:4.0568214 5:5.8383133 6:4.0959883 
0.75785828325519899 1:-0.19767019 2:-0.19479077 3:-0.14238081 4:-1.0956554 5:-1.0472226 6:-1.1453124 
0.75785828325519899 1:-0.63802915 2:-0.71267532 3:-0.59512482 4:0.30565276 5:0.13050688 6:0.13353567 
0.75785828325519899 1:0.16777674 2:0.02674758 3:-0.19907222 4:0.049217073 5:-0.16618701 6:-0.27293029 
0.75785828325519899 1:-0.18625745 2:-0.18770882 3:-0.016162344 4:-0.65273529 5:-0.23649211 6:0.50330789 
0.08865326042158661 1:1.4345216 2:1.8571757 3:2.0343764 4:0.64667524 5:0.93592088 6:2.1194077 
0.75785828325519899 1:-0.23277267 2:-0.41030406 3:-0.29856198 4:0.14702301 5:0.058217997 6:-0.093949829 
0.75785828325519899 1:0.096013051 2:0.30447089 3:-0.28129599 4:-0.49685954 5:-0.39955869 6:-0.48033659 
0.50599087164811518 1:0.023477711 2:0.48730541 3:1.2431665 4:-0.68444551 5:-0.26236058 6:0.36661186 
0.53412901402252921 1:0.68401229 2:0.5066689 3:0.23460742 4:0.0071203893 5:0.93298489 6:0.72890358 
0.75785828325519899 1:0.3211041 2:0.010778489 3:0.42517392 4:-0.74180716 5:-0.70133105 6:-0.6804199 
0.75785828325519899 1:-0.32978483 2:-0.33895231 3:-0.26686264 4:0.1255419 5:0.17240428 6:0.3079491 
0.15722961826999721 1:0.77522163 2:0.95588636 3:0.48676649 4:1.1428653 5:0.97575515 6:0.86552087 
0.16629930120675712 1:4.9660666 2:3.2747989 3:1.8847172 4:-0.60300613 5:-0.70886941 6:0.0064461612 
0.054797822977098481 1:2.4664525 2:0.60340918 3:0.76154038 4:-0.50881972 5:0.3280912 6:0.41125854 
0.18617278515418395 1:3.0728943 2:1.1210546 3:-0.79139519 4:0.55776075 5:0.23175893 6:0.46984256 
0.21870409629172652 1:0.42357956 2:1.3689226 3:0.77504752 4:0.10901797 5:0.114716 6:0.77173921 
0.75785828325519899 1:-0.59328102 2:-0.69151434 3:-0.60207135 4:-0.41117115 5:-0.5999203 6:-0.4597062 
0.14567862802293172 1:-0.080896012 2:0.030836284 3:0.27945114 4:-0.13419857 5:0.24128106 6:-0.21828337 
0.015489194880122212 1:1.8837777 2:-0.0143709 3:0.26941726 4:0.63046605 5:0.16589748 6:0.095739536 
0.0082070575098679589 1:0.5067637 2:0.30578237 3:0.022661045 4:0.24286182 5:1.1924631 6:0.717486 
0.75785828325519899 1:-0.026116398 2:-0.066675457 3:-0.13028613 4:0.56547192 5:0.59002929 6:0.62220824 
0.75785828325519899 1:-0.11838289 2:0.19993892 3:-0.16203177 4:-0.15961395 5:-0.3128279 6:-0.013790521 
0.036848343422924493 1:2.8550567 2:1.0139768 3:0.64128821 4:-0.60882885 5:-0.73529334 6:-0.57545687 
0.75785828325519899 1:-0.79215903 2:-0.3618182 3:-0.79139519 4:0.11578491 5:0.41958306 6:0.13896887 
0.75785828325519899 1:-0.054366598 2:-0.1144593 3:-0.039564435 4:-0.15087987 5:-0.050334354 6:-0.10505244 
0.28400453400573578 1:0.39001267 2:0.089621053 3:-0.25334006 4:0.096821734 5:0.27960766 6:0.087392889 
0.75785828325519899 1:0.088836682 2:-0.062185597 3:0.37732004 4:-1.1571873 5:-1.393749 6:-1.3026388 
0.75785828325519899 1:-0.4548697 2:-0.57936813 3:-0.45041314 4:0.17165154 5:-0.11405331 6:-0.66601012 
0.75785828325519899 1:0.14208071 2:-0.20564512 3:0.11890909 4:-0.31084727 5:-0.36924656 6:-0.17473907 
0.31393010416508738 1:-0.15150222 2:0.19507877 3:0.98946378 4:0.60992916 5:0.43180313 6:1.123322 
0.75785828325519899 1:1.5023498 2:1.7015735 3:1.498876 4:-1.4154328 5:-1.4302506 6:-1.2630316 
0.75785828325519899 1:-0.79215903 2:-0.68410839 3:-0.79139519 4:-0.58333478 5:-0.60936309 6:-0.57073236 
0.75785828325519899 1:-0.010475001 2:-0.12322301 3:-0.15682188 4:0.32674044 5:-0.22792219 6:-0.11206048 
0.75785828325519899 1:-0.3867405 2:-0.79021412 3:-0.79139519 4:0.14245926 5:0.2861938 6:0.12715758 
0.75785828325519899 1:0.98024971 2:0.40537703 3:0.21693236 4:-0.59946528 5:0.089402992 6:-0.18450308 
0.66787908414955766 1:-0.17169637 2:-0.29690809 3:0.11620766 4:1.8703904 5:1.9929573 6:0.98016916 
0.16532574024049312 1:-0.79215903 2:-0.33086747 3:-0.79098612 4:2.8670983 5:3.2675746 6:3.9644892 
0.24288557210777093 1:0.24910892 2:-0.1440214 3:1.0890307 4:-0.059132709 5:-1.1652971 6:-0.68278216 
0.75785828325519899 1:-0.40938079 2:-0.46251604 3:-0.47285044 4:-0.63392949 5:-0.78314207 6:-0.89341688 
0.079983012419462721 1:1.5523529 2:2.2101929 3:1.3068431 4:0.9377325 5:1.4490847 6:0.49921331 
